{"learner":{"attributes":{"scikit_learn":"{\"_estimator_type\": \"classifier\"}"},"feature_names":[],"feature_types":[],"gradient_booster":{"model":{"cats":{"enc":[],"feature_segments":[],"sorted_idx":[]},"gbtree_model_param":{"num_parallel_tree":"1","num_trees":"110"},"iteration_indptr":[0,1,2,3,4,5,6,7,8,9,10,11,12,13,14,15,16,17,18,19,20,21,22,23,24,25,26,27,28,29,30,31,32,33,34,35,36,37,38,39,40,41,42,43,44,45,46,47,48,49,50,51,52,53,54,55,56,57,58,59,60,61,62,63,64,65,66,67,68,69,70,71,72,73,74,75,76,77,78,79,80,81,82,83,84,85,86,87,88,89,90,91,92,93,94,95,96,97,98,99,100,101,102,103,104,105,106,107,108,109,110],"tree_info":[0,0,0,0,0,0,0,0,0,0,0,0,0,0,0,0,0,0,0,0,0,0,0,0,0,0,0,0,0,0,0,0,0,0,0,0,0,0,0,0,0,0,0,0,0,0,0,0,0,0,0,0,0,0,0,0,0,0,0,0,0,0,0,0,0,0,0,0,0,0,0,0,0,0,0,0,0,0,0,0,0,0,0,0,0,0,0,0,0,0,0,0,0,0,0,0,0,0,0,0,0,0,0,0,0,0,0,0,0,0],"trees":[{"base_weights":[1.93003E-3,-9.0544266E-1,1.0956417E0,-4.0077907E-1,-1.233174E0,1.4606248E0,3.060884E-1,4.7321284E-1,-7.9447156E-1,2.1413067E-1,-1.3291746E0,7.9048985E-1,1.6016943E0,4.633201E-2,1.2620082E0,5.534026E-1,-2.1441706E-2,-1.0153708E0,1.3378395E-2,8.72114E-1,-7.071551E-1,-1.8708981E0,-1.1805518E0,1.7611815E0,5.467589E-1,1.2043933E0,1.7651615E0,3.0272463E-1,-1.413794E0,7.848898E-1,1.7800144E0,3.9552847E-1,1.7441238E0,-1.664358E0,-8.3140385E-1,5.245299E-1,-9.765214E-1,3.3835503E-1,1.7213473E0,-1.7525228E0,7.96897E-3,-1.9221277E0,-1.0134356E-2,-1.33357E0,-6.779069E-1,1.9208686E0,1.3583359E-2,7.728908E-1,-9.2526406E-1,1.5976542E0,8.5155565E-1,1.7903544E0,1.892275E-3,8.3411753E-1,-2.4740446E-2,-1.7505174E-3,-1.6511858E0,1.3881817E0,-3.972106E-1,1.25458E-2,1.9440695E0,7.2956467E-3,-2.1394105E-3,2.1446915E-2,1.2544482E-2,-6.754938E-3,-2.0798234E-2,-5.739185E-3,-1.5306362E-2,1.4590787E-3,1.7612476E-2,-1.6194694E-3,-2.1446308E-2,1.3200327E-2,-8.987515E-3,2.1443255E-2,1.5069442E-2,-1.5096333E-2,-2.1443963E-2,-8.6618895E-3,-2.1018093E-2,-1.2013894E-2,-1.8198593E-2,-7.646193E-4,-1.2346035E-2,2.1447403E-2,1.7999586E-2,-6.970422E-3,9.944098E-3,4.4763098E-3,-1.7869174E-2,1.8973012E-2,4.7084047E-3,1.2549348E-2,-2.369594E-3,1.995352E-2,1.4771982E-2,1.37669295E-2,1.195232E-3,-6.5411953E-3,4.542307E-3,-8.987515E-3,-2.0241752E-2,2.5760266E-3,1.8132396E-2,8.414774E-3,-1.6598936E-2,1.7999586E-2,2.1448383E-2],"categories":[],"categories_nodes":[],"categories_segments":[],"categories_sizes":[],"default_left":[0,1,1,0,1,0,0,0,0,0,0,0,0,0,0,0,0,0,0,0,0,0,1,0,1,1,0,0,0,0,0,0,0,0,0,0,0,1,0,0,0,0,0,0,0,0,0,0,0,0,1,0,0,0,0,0,0,0,0,0,0,0,0,0,0,0,0,0,0,0,0,0,0,0,0,0,0,0,0,0,0,0,0,0,0,0,0,0,0,0,0,0,0,0,0,0,0,0,0,0,0,0,0,0,0,0,0,0,0],"id":0,"left_children":[1,3,5,7,9,11,13,15,17,19,21,23,25,27,29,31,-1,33,35,37,39,41,43,45,47,49,51,53,55,57,59,61,63,65,67,69,71,73,75,77,-1,79,-1,81,83,85,-1,87,89,91,93,95,-1,97,99,-1,101,103,105,-1,107,-1,-1,-1,-1,-1,-1,-1,-1,-1,-1,-1,-1,-1,-1,-1,-1,-1,-1,-1,-1,-1,-1,-1,-1,-1,-1,-1,-1,-1,-1,-1,-1,-1,-1,-1,-1,-1,-1,-1,-1,-1,-1,-1,-1,-1,-1,-1,-1],"loss_changes":[1.5367223E3,1.399776E2,2.0233826E2,1.14657394E2,7.1294495E1,4.5390747E1,5.511564E1,2.0517298E1,4.099843E1,1.9349234E1,3.873822E1,1.9753769E1,2.5757935E1,6.534246E1,1.1718697E1,1.8840439E1,0E0,2.1536179E1,2.4960901E1,8.438407E0,2.016181E1,4.910309E0,2.904071E1,1.3191872E0,2.2219074E1,1.604219E1,1.124646E1,2.5836906E1,7.738117E0,1.7609562E1,2.2720032E0,1.4993803E1,1.718296E0,1.1326828E1,2.4809563E1,1.4124149E1,1.4186209E1,1.2006831E1,6.2677383E-1,6.531391E-1,0E0,4.1099854E0,0E0,2.243628E1,2.5298206E1,2.3663712E-1,0E0,1.270332E1,8.842844E0,1.0856644E1,2.0825104E1,8.006409E0,0E0,1.8388824E1,2.4096817E1,0E0,4.204235E0,5.6750546E0,1.1345525E1,0E0,2.5989532E-1,0E0,0E0,0E0,0E0,0E0,0E0,0E0,0E0,0E0,0E0,0E0,0E0,0E0,0E0,0E0,0E0,0E0,0E0,0E0,0E0,0E0,0E0,0E0,0E0,0E0,0E0,0E0,0E0,0E0,0E0,0E0,0E0,0E0,0E0,0E0,0E0,0E0,0E0,0E0,0E0,0E0,0E0,0E0,0E0,0E0,0E0,0E0,0E0],"parents":[2147483647,0,0,1,1,2,2,3,3,4,4,5,5,6,6,7,7,8,8,9,9,10,10,11,11,12,12,13,13,14,14,15,15,17,17,18,18,19,19,20,20,21,21,22,22,23,23,24,24,25,25,26,26,27,27,28,28,29,29,30,30,31,31,32,32,33,33,34,34,35,35,36,36,37,37,38,38,39,39,41,41,43,43,44,44,45,45,47,47,48,48,49,49,50,50,51,51,53,53,54,54,56,56,57,57,58,58,60,60],"right_children":[2,4,6,8,10,12,14,16,18,20,22,24,26,28,30,32,-1,34,36,38,40,42,44,46,48,50,52,54,56,58,60,62,64,66,68,70,72,74,76,78,-1,80,-1,82,84,86,-1,88,90,92,94,96,-1,98,100,-1,102,104,106,-1,108,-1,-1,-1,-1,-1,-1,-1,-1,-1,-1,-1,-1,-1,-1,-1,-1,-1,-1,-1,-1,-1,-1,-1,-1,-1,-1,-1,-1,-1,-1,-1,-1,-1,-1,-1,-1,-1,-1,-1,-1,-1,-1,-1,-1,-1,-1,-1,-1],"split_conditions":[1.607511E0,8.678166E0,7.364624E-1,3.52E2,4.0088722E-1,1.7380553E0,3.6210318E0,5.681559E-1,1.5026146E0,8.858424E0,2.755021E0,2.9E1,4.8263264E0,9.739142E0,1.8756492E0,7.036694E-1,-2.1441706E-2,1.0568999E0,9.8989135E-1,6.3002305E0,1.3224914E1,3.7069774E0,1.3611488E0,3.7431476E0,9.005453E0,1.740265E-1,1.1303762E0,8.135787E0,9.054928E0,4.0741463E0,6.022745E0,7.685474E0,7.1846714E0,7.8316255E0,1.3561052E0,1.310164E0,7.5706882E0,9.875451E0,8.596629E0,1.6085794E0,7.96897E-3,7.2770157E0,-1.0134356E-2,1.2388566E0,9.540359E-1,5.9077516E0,1.3583359E-2,1.7381754E0,3.404022E-1,1.3781165E1,8.786427E0,7.913643E0,1.892275E-3,1.2526623E0,7.516432E0,-1.7505174E-3,1.434403E0,3.7523514E-1,5.6453238E0,1.25458E-2,1.0969264E1,7.2956467E-3,-2.1394105E-3,2.1446915E-2,1.2544482E-2,-6.754938E-3,-2.0798234E-2,-5.739185E-3,-1.5306362E-2,1.4590787E-3,1.7612476E-2,-1.6194694E-3,-2.1446308E-2,1.3200327E-2,-8.987515E-3,2.1443255E-2,1.5069442E-2,-1.5096333E-2,-2.1443963E-2,-8.6618895E-3,-2.1018093E-2,-1.2013894E-2,-1.8198593E-2,-7.646193E-4,-1.2346035E-2,2.1447403E-2,1.7999586E-2,-6.970422E-3,9.944098E-3,4.4763098E-3,-1.7869174E-2,1.8973012E-2,4.7084047E-3,1.2549348E-2,-2.369594E-3,1.995352E-2,1.4771982E-2,1.37669295E-2,1.195232E-3,-6.5411953E-3,4.542307E-3,-8.987515E-3,-2.0241752E-2,2.5760266E-3,1.8132396E-2,8.414774E-3,-1.6598936E-2,1.7999586E-2,2.1448383E-2],"split_indices":[10,44,79,11,80,10,0,38,42,15,23,22,13,44,49,6,0,49,41,75,62,13,73,12,45,28,29,67,60,0,13,25,36,24,39,19,77,60,1,0,0,45,0,39,41,1,0,12,6,69,44,3,0,39,15,0,30,17,75,0,16,0,0,0,0,0,0,0,0,0,0,0,0,0,0,0,0,0,0,0,0,0,0,0,0,0,0,0,0,0,0,0,0,0,0,0,0,0,0,0,0,0,0,0,0,0,0,0,0],"split_type":[0,0,0,0,0,0,0,0,0,0,0,0,0,0,0,0,0,0,0,0,0,0,0,0,0,0,0,0,0,0,0,0,0,0,0,0,0,0,0,0,0,0,0,0,0,0,0,0,0,0,0,0,0,0,0,0,0,0,0,0,0,0,0,0,0,0,0,0,0,0,0,0,0,0,0,0,0,0,0,0,0,0,0,0,0,0,0,0,0,0,0,0,0,0,0,0,0,0,0,0,0,0,0,0,0,0,0,0,0],"sum_hessian":[1.5484825E3,8.463375E2,7.02145E2,3.332225E2,5.13115E2,4.8017502E2,2.2197E2,1.03485E2,2.297375E2,3.1917501E1,4.811975E2,8.3505005E1,3.9667E2,1.7454251E2,4.74275E1,1.00235E2,3.25E0,1.804075E2,4.933E1,1.862E1,1.3297501E1,1.035925E2,3.77605E2,1.6757502E1,6.6747505E1,1.15635E2,2.81035E2,1.484725E2,2.607E1,2.469E1,2.2737501E1,8.85025E1,1.17325E1,3.98425E1,1.40565E2,3.25325E1,1.67975E1,1.1435E1,7.1850004E0,7.7275E0,5.57E0,9.816E1,5.4325E0,2.894775E2,8.81275E1,1.2665001E1,4.0925E0,5.786E1,8.8875E0,5.4682503E1,6.0952503E1,2.7664752E2,4.3875003E0,5.661E1,9.18625E1,4.16E0,2.191E1,1.63475E1,8.3425E0,4.82E0,1.7917501E1,5.986E1,2.86425E1,8.1175E0,3.6150002E0,8.365E0,3.14775E1,9.3880005E1,4.6685E1,2.41425E1,8.39E0,9.297501E0,7.5E0,6.5025E0,4.9325E0,3.8200002E0,3.3650002E0,3.2275E0,4.5E0,3.205E0,9.4955E1,1.8236E2,1.071175E2,3.86225E1,4.9505E1,9.55E0,3.1150002E0,5.66E0,5.22E1,3.16E0,5.7275E0,4.7635002E1,7.0475E0,4.6995003E1,1.39575E1,2.3649501E2,4.01525E1,3.49E1,2.1710001E1,3.98475E1,5.2015003E1,4.9325E0,1.69775E1,3.41E0,1.2937501E1,4.1150002E0,4.2275E0,3.1150002E0,1.4802501E1],"tree_param":{"num_deleted":"0","num_feature":"84","num_nodes":"109","size_leaf_vector":"1"}},{"base_weights":[9.3087036E-4,-8.941148E-1,1.0833449E0,-1.302687E-1,-1.1087867E0,1.4283751E0,2.708614E-1,6.455681E-1,-6.4428025E-1,2.8864038E-1,-1.1966724E0,7.2354776E-1,1.5659062E0,2.625682E-2,1.2619036E0,8.20966E-1,-2.0106459E-1,-1.3964852E0,-1.9349575E-1,-6.1053585E-2,1.7275317E0,-1.8139617E0,-1.04179E0,1.0049089E0,-3.7167928E-1,1.1773124E0,1.7273414E0,2.8551143E-1,-1.294449E0,1.5154185E0,8.135997E-2,-1.5555121E-1,9.950649E-1,-1.2562494E0,1.5065832E-2,-9.623558E-1,-1.8112446E0,-4.377734E-1,9.500642E-1,2.1366784E-2,-3.8516733E-1,1.49115E-2,2.1353828E-2,-1.8680853E0,-9.5484036E-1,-7.9727834E-1,-1.452783E0,1.5029742E0,5.9690094E-1,1.3255602E-2,-1.1364669E0,1.2452921E0,-1.04409205E-2,1.7886572E0,1.1093556E0,-3.1443694E-1,5.609832E-1,-1.7592583E0,-5.766743E-1,1.0808014E0,1.8751694E0,-1.6219592E-2,2.1214733E-2,1.2507077E-2,-1.0688196E-2,1.7851112E-2,5.7047E-3,-2.143795E-2,-2.2057446E-3,-1.5977351E-2,6.791516E-3,-2.1343144E-2,-1.09357955E-2,1.4071121E-2,-6.7829425E-3,1.8658578E-2,-3.7360261E-3,2.8812569E-3,-1.5423573E-2,-1.6883127E-2,-2.0817516E-2,4.5863693E-3,-2.1265995E-2,-1.1398928E-2,-4.8944294E-3,3.213121E-3,-1.6191237E-2,1.7563025E-2,4.3984842E-3,-8.040206E-3,1.1454545E-2,6.670313E-3,-2.1336203E-2,1.457881E-2,4.0472653E-3,1.943566E-2,3.282104E-3,-4.893904E-3,1.8435659E-2,4.781736E-3,-7.497691E-3,1.1967859E-2,1.5891136E-3,-2.1311473E-2,-1.0289581E-2,1.0391922E-2,-1.5398663E-2,1.571863E-2,-5.7405286E-4,1.4868271E-2,2.1264348E-2],"categories":[],"categories_nodes":[],"categories_segments":[],"categories_sizes":[],"default_left":[0,1,1,0,1,0,0,1,0,0,0,1,0,0,0,0,0,0,0,1,0,0,0,1,0,1,1,0,0,0,0,1,0,1,0,0,0,0,0,0,0,0,0,0,0,0,0,1,0,0,0,1,0,0,0,0,0,0,0,0,0,0,0,0,0,0,0,0,0,0,0,0,0,0,0,0,0,0,0,0,0,0,0,0,0,0,0,0,0,0,0,0,0,0,0,0,0,0,0,0,0,0,0,0,0,0,0,0,0,0,0],"id":1,"left_children":[1,3,5,7,9,11,13,15,17,19,21,23,25,27,29,31,33,35,37,39,41,43,45,47,49,51,53,55,57,59,61,63,65,67,-1,69,71,73,75,-1,77,-1,-1,79,81,83,85,87,89,-1,91,93,-1,95,97,99,101,103,105,107,109,-1,-1,-1,-1,-1,-1,-1,-1,-1,-1,-1,-1,-1,-1,-1,-1,-1,-1,-1,-1,-1,-1,-1,-1,-1,-1,-1,-1,-1,-1,-1,-1,-1,-1,-1,-1,-1,-1,-1,-1,-1,-1,-1,-1,-1,-1,-1,-1,-1,-1],"loss_changes":[1.5017795E3,1.3913306E2,1.9668585E2,7.423502E1,8.134729E1,4.773651E1,5.0697598E1,1.1016434E1,3.7965336E1,1.9721466E1,5.9575012E1,2.4779518E1,2.5846619E1,5.743415E1,1.2389084E1,1.0448265E1,2.157251E1,7.550949E0,1.9558025E1,2.0982117E1,6.7580986E-1,5.8081665E0,5.0059692E1,1.2998367E1,2.0207914E1,1.7685562E1,1.1027405E1,2.3174074E1,9.180149E0,5.3246E0,2.2129944E1,1.033658E1,1.6166718E1,5.992279E0,0E0,1.725362E1,3.0324097E0,1.965133E1,1.2636533E1,0E0,1.8748302E1,0E0,0E0,2.5153198E0,1.0533285E1,2.827687E1,1.8526276E1,4.235405E0,2.2312433E1,0E0,1.6706306E1,1.160257E1,0E0,9.235718E0,2.5084843E1,1.2903827E1,2.2011786E1,3.0401306E0,1.4369016E1,6.7395515E0,9.749756E-1,0E0,0E0,0E0,0E0,0E0,0E0,0E0,0E0,0E0,0E0,0E0,0E0,0E0,0E0,0E0,0E0,0E0,0E0,0E0,0E0,0E0,0E0,0E0,0E0,0E0,0E0,0E0,0E0,0E0,0E0,0E0,0E0,0E0,0E0,0E0,0E0,0E0,0E0,0E0,0E0,0E0,0E0,0E0,0E0,0E0,0E0,0E0,0E0,0E0,0E0],"parents":[2147483647,0,0,1,1,2,2,3,3,4,4,5,5,6,6,7,7,8,8,9,9,10,10,11,11,12,12,13,13,14,14,15,15,16,16,17,17,18,18,19,19,20,20,21,21,22,22,23,23,24,24,25,25,26,26,27,27,28,28,29,29,30,30,31,31,32,32,33,33,35,35,36,36,37,37,38,38,40,40,43,43,44,44,45,45,46,46,47,47,48,48,50,50,51,51,53,53,54,54,55,55,56,56,57,57,58,58,59,59,60,60],"right_children":[2,4,6,8,10,12,14,16,18,20,22,24,26,28,30,32,34,36,38,40,42,44,46,48,50,52,54,56,58,60,62,64,66,68,-1,70,72,74,76,-1,78,-1,-1,80,82,84,86,88,90,-1,92,94,-1,96,98,100,102,104,106,108,110,-1,-1,-1,-1,-1,-1,-1,-1,-1,-1,-1,-1,-1,-1,-1,-1,-1,-1,-1,-1,-1,-1,-1,-1,-1,-1,-1,-1,-1,-1,-1,-1,-1,-1,-1,-1,-1,-1,-1,-1,-1,-1,-1,-1,-1,-1,-1,-1,-1,-1],"split_conditions":[1.607511E0,8.114641E0,7.631755E-1,3.52E2,4.0088722E-1,1.7248261E0,3.6210318E0,9.058156E0,1.1819891E0,6.6639566E0,2.8136115E0,1.0076333E1,4.8263264E0,9.533524E0,1.00157175E1,2.3596098E-1,1.1202748E1,9.1793495E-1,-5.405673E-1,4.416448E-1,8.165075E0,1.5386388E0,9.774437E0,1.4369256E0,1.5723203E-1,1.0859616E0,9.245182E0,2.3167522E0,1.7442397E0,1.8072575E0,1.7076111E0,1.8227814E-1,7E0,3.529971E0,1.5065832E-2,1.1645594E0,6.87845E-1,1.2123966E0,7.8E1,2.1366784E-2,8.858424E0,1.49115E-2,2.1353828E-2,2.17535E-1,1.4547629E0,1.3952037E0,7.082834E0,1.2294591E1,3.6028557E0,1.3255602E-2,1.5695144E0,9.112533E0,-1.04409205E-2,1.1550999E0,1.5329887E0,3.61E2,3.6777933E0,1.6461538E0,1.540566E0,1.6799723E0,2.353881E-1,-1.6219592E-2,2.1214733E-2,1.2507077E-2,-1.0688196E-2,1.7851112E-2,5.7047E-3,-2.143795E-2,-2.2057446E-3,-1.5977351E-2,6.791516E-3,-2.1343144E-2,-1.09357955E-2,1.4071121E-2,-6.7829425E-3,1.8658578E-2,-3.7360261E-3,2.8812569E-3,-1.5423573E-2,-1.6883127E-2,-2.0817516E-2,4.5863693E-3,-2.1265995E-2,-1.1398928E-2,-4.8944294E-3,3.213121E-3,-1.6191237E-2,1.7563025E-2,4.3984842E-3,-8.040206E-3,1.1454545E-2,6.670313E-3,-2.1336203E-2,1.457881E-2,4.0472653E-3,1.943566E-2,3.282104E-3,-4.893904E-3,1.8435659E-2,4.781736E-3,-7.497691E-3,1.1967859E-2,1.5891136E-3,-2.1311473E-2,-1.0289581E-2,1.0391922E-2,-1.5398663E-2,1.571863E-2,-5.7405286E-4,1.4868271E-2,2.1264348E-2],"split_indices":[10,44,79,11,80,10,0,67,73,43,1,44,13,24,60,27,76,19,74,64,68,32,24,81,63,29,45,33,58,32,56,79,50,43,0,49,63,73,22,0,15,0,0,63,83,10,25,46,43,0,66,25,0,29,72,11,75,49,81,66,5,0,0,0,0,0,0,0,0,0,0,0,0,0,0,0,0,0,0,0,0,0,0,0,0,0,0,0,0,0,0,0,0,0,0,0,0,0,0,0,0,0,0,0,0,0,0,0,0,0,0],"split_type":[0,0,0,0,0,0,0,0,0,0,0,0,0,0,0,0,0,0,0,0,0,0,0,0,0,0,0,0,0,0,0,0,0,0,0,0,0,0,0,0,0,0,0,0,0,0,0,0,0,0,0,0,0,0,0,0,0,0,0,0,0,0,0,0,0,0,0,0,0,0,0,0,0,0,0,0,0,0,0,0,0,0,0,0,0,0,0,0,0,0,0,0,0,0,0,0,0,0,0,0,0,0,0,0,0,0,0,0,0,0,0],"sum_hessian":[1.5501261E3,8.485016E2,7.016246E2,1.8614943E2,6.623522E2,4.9248407E2,2.0914047E2,7.418084E1,1.1196858E2,3.9190624E1,6.2316156E2,8.040917E1,4.1207492E2,1.6774106E2,4.139942E1,6.1450954E1,1.2729884E1,4.195557E1,7.001301E1,3.1528482E1,7.6621437E0,1.2499111E2,4.9817044E2,6.3974968E1,1.6434206E1,1.2094875E2,2.9112616E2,1.4021759E2,2.7523458E1,3.4080017E1,7.3194056E0,9.29741E0,5.2153545E1,7.6824074E0,5.0474772E0,2.0501408E1,2.1454163E1,5.7690804E1,1.23222065E1,4.2973795E0,2.7231102E1,3.3647695E0,4.2973742E0,1.175817E2,7.409403E0,3.1234927E2,1.8582117E2,2.8806263E1,3.5168705E1,5.297323E0,1.1136884E1,1.1724383E2,3.7049258E0,2.648456E2,2.6280556E1,4.412183E1,9.6095764E1,1.6704075E1,1.0819385E1,1.5436571E1,1.8643444E1,3.9772892E0,3.3421164E0,3.61497E0,5.68244E0,2.1327011E1,3.0826536E1,4.4999857E0,3.1824217E0,1.5409012E1,5.092396E0,1.7499395E1,3.954768E0,5.774872E0,5.191593E1,7.6624365E0,4.65977E0,1.6799372E1,1.043173E1,2.3385487E1,9.419622E1,3.1597788E0,4.2496243E0,1.755789E2,1.3677037E2,5.8422937E0,1.7997888E2,2.5646334E1,3.1599286E0,9.114694E0,2.6054012E1,3.6373339E0,7.49955E0,1.036268E2,1.3617024E1,2.607081E2,4.1374965E0,7.3644857E0,1.891607E1,1.48222685E1,2.9299562E1,4.0991695E1,5.5104065E1,1.29992285E1,3.7048461E0,3.8649106E0,6.9544735E0,1.1526747E1,3.9098244E0,3.3646772E0,1.5278768E1],"tree_param":{"num_deleted":"0","num_feature":"84","num_nodes":"111","size_leaf_vector":"1"}},{"base_weights":[6.4277574E-3,-8.865547E-1,1.0773493E0,-3.401364E-1,-1.1699762E0,1.4192792E0,2.6924706E-1,4.4855615E-1,-7.2026926E-1,3.2733357E-1,-1.2659496E0,7.6560503E-1,1.5600013E0,3.968726E-2,1.230998E0,8.5280216E-1,1.5929233E-2,-1.0904143E0,-1.2252714E-1,9.242052E-1,-6.418654E-1,-1.7788782E0,-1.1065361E0,1.0853971E0,-3.1231169E-2,1.165321E0,1.7192351E0,2.957852E-1,-1.2807897E0,1.4929668E0,-5.5525925E-2,5.6944925E-1,1.3540606E0,-1.9324307E-1,1.7243518E-2,-8.409515E-1,-1.5910766E0,4.8532337E-1,-6.9524884E-1,4.0683872E-1,1.7274604E0,-1.7240229E0,1.0803398E-2,-1.8342704E0,-6.631692E-3,-8.4617704E-1,-1.450486E0,1.5635984E0,6.6695005E-1,2.1200255E-2,-3.9068255E-1,1.2347414E0,-1.0328978E-2,1.7813507E0,1.0811814E0,7.718615E-1,7.7122673E-3,-1.7407616E0,-5.705542E-1,1.0693463E0,1.8528831E0,-2.1210479E-2,2.0994429E-2,1.2617309E-2,-2.1304635E-3,4.322207E-3,1.6760934E-2,1.3688533E-2,-5.390221E-3,-1.5372803E-2,-5.5656307E-3,-2.0349532E-2,-1.0838795E-2,2.8805903E-4,1.3486281E-2,-3.835119E-3,-2.122278E-2,1.6761264E-2,-3.2201384E-3,2.1195086E-2,1.4733714E-2,-1.473136E-2,-2.1180619E-2,-2.0157756E-2,-5.527012E-3,2.962599E-3,-9.990589E-3,3.1786165E-3,-1.6214667E-2,1.8271383E-2,4.3623005E-3,-4.022714E-3,1.23024285E-2,-1.2418563E-2,5.2189697E-3,1.4500523E-2,4.0039355E-3,1.9356485E-2,3.2469297E-3,-6.654158E-3,1.8242337E-2,1.2879586E-2,1.4093339E-3,1.0088393E-2,-3.376462E-3,-2.1088224E-2,-1.0180001E-2,1.0280542E-2,-1.5236181E-2,1.5552723E-2,-5.6789565E-4,1.4681288E-2,2.1050738E-2],"categories":[],"categories_nodes":[],"categories_segments":[],"categories_sizes":[],"default_left":[0,1,1,0,1,0,0,0,0,0,0,1,0,0,0,0,0,0,0,0,0,0,0,1,0,1,1,0,0,0,0,0,0,1,0,0,0,0,0,1,0,0,0,0,0,0,0,1,0,0,0,1,0,0,0,0,0,0,0,0,0,0,0,0,0,0,0,0,0,0,0,0,0,0,0,0,0,0,0,0,0,0,0,0,0,0,0,0,0,0,0,0,0,0,0,0,0,0,0,0,0,0,0,0,0,0,0,0,0,0,0,0,0],"id":2,"left_children":[1,3,5,7,9,11,13,15,17,19,21,23,25,27,29,31,33,35,37,39,41,43,45,47,49,51,53,55,57,59,61,63,65,67,-1,69,71,73,75,77,79,81,-1,83,-1,85,87,89,91,-1,93,95,-1,97,99,101,103,105,107,109,111,-1,-1,-1,-1,-1,-1,-1,-1,-1,-1,-1,-1,-1,-1,-1,-1,-1,-1,-1,-1,-1,-1,-1,-1,-1,-1,-1,-1,-1,-1,-1,-1,-1,-1,-1,-1,-1,-1,-1,-1,-1,-1,-1,-1,-1,-1,-1,-1,-1,-1,-1,-1],"loss_changes":[1.4844336E3,1.3108417E2,1.9502167E2,8.667316E1,8.009332E1,4.5617798E1,4.633E1,1.6442368E1,4.3159294E1,1.9422136E1,4.2824036E1,2.238879E1,2.5643372E1,5.7291275E1,1.362962E1,6.9011345E0,1.5124335E1,1.50434265E1,2.5971972E1,8.632608E0,2.2837643E1,7.980377E0,3.578076E1,1.2542984E1,1.8159904E1,1.7335602E1,1.1520447E1,1.9459873E1,8.987625E0,5.1183624E0,2.6474438E1,1.4478914E1,3.4820175E0,1.8248966E1,0E0,1.5337101E1,7.119377E0,1.2810636E1,1.6645931E1,1.0332901E1,7.1118736E-1,6.74345E-1,0E0,7.069702E0,0E0,2.1787659E1,1.8457672E1,4.737198E0,1.673111E1,0E0,1.4366155E1,1.1477081E1,0E0,9.185364E0,2.7208715E1,1.4697168E1,2.6602337E1,2.9773827E0,1.4064571E1,6.5976963E0,9.610443E-1,0E0,0E0,0E0,0E0,0E0,0E0,0E0,0E0,0E0,0E0,0E0,0E0,0E0,0E0,0E0,0E0,0E0,0E0,0E0,0E0,0E0,0E0,0E0,0E0,0E0,0E0,0E0,0E0,0E0,0E0,0E0,0E0,0E0,0E0,0E0,0E0,0E0,0E0,0E0,0E0,0E0,0E0,0E0,0E0,0E0,0E0,0E0,0E0,0E0,0E0,0E0,0E0],"parents":[2147483647,0,0,1,1,2,2,3,3,4,4,5,5,6,6,7,7,8,8,9,9,10,10,11,11,12,12,13,13,14,14,15,15,16,16,17,17,18,18,19,19,20,20,21,21,22,22,23,23,24,24,25,25,26,26,27,27,28,28,29,29,30,30,31,31,32,32,33,33,35,35,36,36,37,37,38,38,39,39,40,40,41,41,43,43,45,45,46,46,47,47,48,48,50,50,51,51,53,53,54,54,55,55,56,56,57,57,58,58,59,59,60,60],"right_children":[2,4,6,8,10,12,14,16,18,20,22,24,26,28,30,32,34,36,38,40,42,44,46,48,50,52,54,56,58,60,62,64,66,68,-1,70,72,74,76,78,80,82,-1,84,-1,86,88,90,92,-1,94,96,-1,98,100,102,104,106,108,110,112,-1,-1,-1,-1,-1,-1,-1,-1,-1,-1,-1,-1,-1,-1,-1,-1,-1,-1,-1,-1,-1,-1,-1,-1,-1,-1,-1,-1,-1,-1,-1,-1,-1,-1,-1,-1,-1,-1,-1,-1,-1,-1,-1,-1,-1,-1,-1,-1,-1,-1,-1,-1],"split_conditions":[1.607511E0,8.496076E0,7.631755E-1,3.52E2,4.0088722E-1,1.7380553E0,3.6210318E0,7.350989E0,1.4228951E0,8.858424E0,2.9002185E0,9.45735E0,4.8263264E0,9.533524E0,1.00157175E1,8.223828E-1,1.5506732E0,1.3467162E0,7.4671965E0,6.3002305E0,1.1608449E1,1.0607004E0,9.774437E0,1.4369256E0,1.1889805E-1,1.0859616E0,9.245182E0,8.135787E0,1.7442397E0,1.8072575E0,1.7076111E0,3.6E1,8.5808015E-1,8.2576865E-1,1.7243518E-2,1.2381821E0,1.1266154E0,1.4775566E0,1.0739342E0,8.920249E0,8.185133E0,1.1108986E1,1.0803398E-2,3.254885E0,-6.631692E-3,3.4149295E-1,7.082834E0,1.2294591E1,3.6028557E0,2.1200255E-2,3.4331832E0,9.112533E0,-1.0328978E-2,1.1550999E0,1.5329887E0,1.2526623E0,1.6443908E0,1.6461538E0,1.540566E0,1.6799723E0,8.928654E0,-2.1210479E-2,2.0994429E-2,1.2617309E-2,-2.1304635E-3,4.322207E-3,1.6760934E-2,1.3688533E-2,-5.390221E-3,-1.5372803E-2,-5.5656307E-3,-2.0349532E-2,-1.0838795E-2,2.8805903E-4,1.3486281E-2,-3.835119E-3,-2.122278E-2,1.6761264E-2,-3.2201384E-3,2.1195086E-2,1.4733714E-2,-1.473136E-2,-2.1180619E-2,-2.0157756E-2,-5.527012E-3,2.962599E-3,-9.990589E-3,3.1786165E-3,-1.6214667E-2,1.8271383E-2,4.3623005E-3,-4.022714E-3,1.23024285E-2,-1.2418563E-2,5.2189697E-3,1.4500523E-2,4.0039355E-3,1.9356485E-2,3.2469297E-3,-6.654158E-3,1.8242337E-2,1.2879586E-2,1.4093339E-3,1.0088393E-2,-3.376462E-3,-2.1088224E-2,-1.0180001E-2,1.0280542E-2,-1.5236181E-2,1.5552723E-2,-5.6789565E-4,1.4681288E-2,2.1050738E-2],"split_indices":[10,44,79,11,80,10,0,25,42,15,1,44,13,24,60,29,32,39,77,75,76,48,24,81,28,29,45,67,58,32,56,22,64,66,0,21,30,49,9,60,61,46,0,23,0,70,25,46,43,0,51,25,0,29,72,39,42,49,81,66,46,0,0,0,0,0,0,0,0,0,0,0,0,0,0,0,0,0,0,0,0,0,0,0,0,0,0,0,0,0,0,0,0,0,0,0,0,0,0,0,0,0,0,0,0,0,0,0,0,0,0,0,0],"split_type":[0,0,0,0,0,0,0,0,0,0,0,0,0,0,0,0,0,0,0,0,0,0,0,0,0,0,0,0,0,0,0,0,0,0,0,0,0,0,0,0,0,0,0,0,0,0,0,0,0,0,0,0,0,0,0,0,0,0,0,0,0,0,0,0,0,0,0,0,0,0,0,0,0,0,0,0,0,0,0,0,0,0,0,0,0,0,0,0,0,0,0,0,0,0,0,0,0,0,0,0,0,0,0,0,0,0,0,0,0,0,0,0,0],"sum_hessian":[1.5522429E3,8.464414E2,7.058015E2,2.8909317E2,5.5734827E2,4.9595E2,2.0985152E2,9.401998E1,1.950732E2,3.3571938E1,5.237763E2,8.785625E1,4.0809378E2,1.6941553E2,4.0435993E1,4.860286E1,4.541712E1,1.2047091E2,7.4602295E1,2.0777311E1,1.2794626E1,1.2418513E2,3.995912E2,6.2695538E1,2.5160707E1,1.1731825E2,2.907755E2,1.4189682E2,2.7518707E1,3.359558E1,6.8404098E0,3.1052683E1,1.7550175E1,4.014255E1,5.27457E0,8.040947E1,4.0061443E1,3.6190598E1,3.8411697E1,1.2638967E1,8.138344E0,7.725653E0,5.068973E0,1.185267E2,5.6584277E0,2.274352E2,1.7215598E2,2.9256742E1,3.3438793E1,3.8193455E0,2.1341362E1,1.13613335E2,3.704921E0,2.6497678E2,2.5798727E1,5.349141E1,8.84054E1,1.6700546E1,1.0818161E1,1.5434615E1,1.8160967E1,3.499429E0,3.3409808E0,1.7345743E1,1.370694E1,3.1596913E0,1.4390484E1,6.9796615E0,3.316289E1,2.8314127E1,5.209534E1,2.6221119E1,1.38403225E1,2.2708885E1,1.3481711E1,3.0412815E1,7.998881E0,4.7968864E0,7.8420806E0,4.774233E0,3.3641117E0,3.226534E0,4.4991193E0,1.1459501E2,3.9316933E0,1.6070957E1,2.1136424E2,5.8423853E0,1.6631358E2,2.609686E1,3.1598804E0,1.054702E1,2.2891775E1,1.13852625E1,9.9561E0,9.999656E1,1.36167755E1,2.6083932E2,4.1374726E0,6.887186E0,1.8911541E1,3.203177E1,2.145964E1,2.2711948E1,6.569346E1,1.2995974E1,3.7045736E0,3.864892E0,6.953269E0,1.1524783E1,3.9098325E0,3.363825E0,1.4797141E1],"tree_param":{"num_deleted":"0","num_feature":"84","num_nodes":"113","size_leaf_vector":"1"}},{"base_weights":[1.1650003E-3,-8.814793E-1,1.0631062E0,-1.387221E-1,-1.0881643E0,1.4007581E0,2.6517758E-1,6.3257027E-1,-6.502403E-1,2.4666111E-1,-1.1716328E0,7.366984E-1,1.5429317E0,2.8135927E-2,1.2474347E0,8.0779886E-1,-2.0317549E-1,-1.3696274E0,-2.1169807E-1,7.79049E-1,-8.082624E-1,-8.7528116E-1,-1.4540814E0,1.0533186E0,-1.2462017E-2,1.1494961E0,1.703612E0,2.7709305E-1,-1.2612046E0,6.0160327E-1,1.6988372E0,8.989094E-1,-8.867908E-3,-1.47582805E-2,9.120985E-1,-9.38618E-1,-1.7814294E0,-4.562691E-1,8.8219744E-1,1.2063036E0,-2.5058505E-1,6.7130583E-3,-1.7239318E0,-3.631581E-1,-1.1157554E0,-1.8780516E0,-1.2947711E0,1.5781199E0,6.5673435E-1,2.1076472E-2,-3.5478264E-1,1.3997993E0,4.9140024E-1,1.7657094E0,1.0699015E0,7.8729767E-1,-3.6201198E-2,-1.722777E0,-5.3178626E-1,1.1066804E0,-1.1039979E-2,1.3358803E0,2.0832703E-2,6.9977692E-3,1.5323647E-2,2.4378626E-3,1.7816944E-2,-1.5654376E-2,6.831877E-3,-2.1010708E-2,-1.06728105E-2,1.3968774E-2,-7.052663E-3,1.8436298E-2,-4.5437925E-3,1.616016E-2,-2.368841E-3,-1.5595706E-2,8.221248E-3,-2.1031462E-2,-1.4740111E-2,-2.110033E-2,-2.4033317E-3,-1.7961852E-2,-9.4579905E-3,-2.0598726E-2,-8.176513E-3,-1.05833E-2,-1.6621087E-2,7.9082595E-3,1.8591307E-2,-3.9962824E-3,1.1067046E-2,-1.2294377E-2,5.2414173E-3,1.6626751E-2,6.974855E-3,1.0528127E-2,-4.95204E-3,1.9188356E-2,3.2121476E-3,-5.510954E-3,1.7065484E-2,1.4540123E-2,3.4153045E-3,9.737991E-3,-3.839552E-3,-2.0871948E-2,-1.0072108E-2,1.01708975E-2,-1.4859436E-2,1.8328516E-2,5.2765955E-4,4.091242E-3,1.9333495E-2],"categories":[],"categories_nodes":[],"categories_segments":[],"categories_sizes":[],"default_left":[0,1,1,0,1,0,0,1,0,0,0,1,0,0,0,1,0,0,0,1,1,0,0,1,0,1,1,0,0,0,0,0,0,0,0,0,0,0,0,1,0,0,0,0,0,0,0,0,0,0,0,1,0,0,0,0,0,0,0,0,0,0,0,0,0,0,0,0,0,0,0,0,0,0,0,0,0,0,0,0,0,0,0,0,0,0,0,0,0,0,0,0,0,0,0,0,0,0,0,0,0,0,0,0,0,0,0,0,0,0,0,0,0,0,0],"id":3,"left_children":[1,3,5,7,9,11,13,15,17,19,21,23,25,27,29,31,33,35,37,39,41,43,45,47,49,51,53,55,57,59,61,63,-1,-1,65,67,69,71,73,75,77,-1,79,81,83,85,87,89,91,-1,93,95,97,99,101,103,105,107,109,111,-1,113,-1,-1,-1,-1,-1,-1,-1,-1,-1,-1,-1,-1,-1,-1,-1,-1,-1,-1,-1,-1,-1,-1,-1,-1,-1,-1,-1,-1,-1,-1,-1,-1,-1,-1,-1,-1,-1,-1,-1,-1,-1,-1,-1,-1,-1,-1,-1,-1,-1,-1,-1,-1,-1],"loss_changes":[1.4521622E3,1.298836E2,1.894599E2,7.2665596E1,7.3744934E1,4.664801E1,4.8683655E1,1.07559395E1,3.4935135E1,2.1877424E1,5.2138794E1,2.0669743E1,2.5724548E1,5.40692E1,1.1847694E1,9.042927E0,1.6652483E1,7.440361E0,1.840683E1,1.1389914E1,1.7158915E1,3.7435135E1,2.153778E1,1.2745468E1,1.7524128E1,1.9438522E1,1.1367371E1,2.2568449E1,9.175587E0,1.3778534E1,2.110588E0,7.507015E0,0E0,0E0,3.345603E0,1.6825504E1,2.9910202E0,1.9909801E1,1.373909E1,7.84762E0,9.295972E0,0E0,6.558361E-1,2.1668749E1,2.7042297E1,4.1343384E0,1.8202637E1,3.4398422E0,1.3474181E1,0E0,1.4734985E1,9.639908E0,1.5197052E1,9.032837E0,2.1294983E1,1.4313618E1,2.6577011E1,2.9179E0,1.335373E1,8.132319E0,0E0,4.2800446E0,0E0,0E0,0E0,0E0,0E0,0E0,0E0,0E0,0E0,0E0,0E0,0E0,0E0,0E0,0E0,0E0,0E0,0E0,0E0,0E0,0E0,0E0,0E0,0E0,0E0,0E0,0E0,0E0,0E0,0E0,0E0,0E0,0E0,0E0,0E0,0E0,0E0,0E0,0E0,0E0,0E0,0E0,0E0,0E0,0E0,0E0,0E0,0E0,0E0,0E0,0E0,0E0,0E0],"parents":[2147483647,0,0,1,1,2,2,3,3,4,4,5,5,6,6,7,7,8,8,9,9,10,10,11,11,12,12,13,13,14,14,15,15,16,16,17,17,18,18,19,19,20,20,21,21,22,22,23,23,24,24,25,25,26,26,27,27,28,28,29,29,30,30,31,31,34,34,35,35,36,36,37,37,38,38,39,39,40,40,42,42,43,43,44,44,45,45,46,46,47,47,48,48,50,50,51,51,52,52,53,53,54,54,55,55,56,56,57,57,58,58,59,59,61,61],"right_children":[2,4,6,8,10,12,14,16,18,20,22,24,26,28,30,32,34,36,38,40,42,44,46,48,50,52,54,56,58,60,62,64,-1,-1,66,68,70,72,74,76,78,-1,80,82,84,86,88,90,92,-1,94,96,98,100,102,104,106,108,110,112,-1,114,-1,-1,-1,-1,-1,-1,-1,-1,-1,-1,-1,-1,-1,-1,-1,-1,-1,-1,-1,-1,-1,-1,-1,-1,-1,-1,-1,-1,-1,-1,-1,-1,-1,-1,-1,-1,-1,-1,-1,-1,-1,-1,-1,-1,-1,-1,-1,-1,-1,-1,-1,-1,-1],"split_conditions":[1.607511E0,8.114641E0,7.631755E-1,3.52E2,4.0088722E-1,1.7380553E0,3.6210318E0,8.118379E0,1.1819891E0,8.858424E0,8.308368E0,9.45735E0,4.8263264E0,9.533524E0,1.8217565E0,1.4369256E0,1.2271465E1,9.1793495E-1,-5.405673E-1,2.5873944E-1,2.5223848E-1,1.0832453E0,2.755021E0,1.4239004E0,3.465475E-1,2.8212446E-1,9.245182E0,8.135787E0,1.7442397E0,1.6799723E0,1.1285028E1,1.4884343E0,-8.867908E-3,-1.47582805E-2,1.4884343E0,1.1645594E0,6.87845E-1,1.2123966E0,7.8E1,1.3592824E1,1.7935461E-1,6.7130583E-3,2.45E2,1.5421365E0,1.2512234E0,1.0522549E0,9.774437E0,1.4620677E0,2.2363694E0,2.1076472E-2,3.4331832E0,8.664274E0,8.5060625E0,1.1550999E0,1.6810468E0,3.79E2,1.6443908E0,1.6461538E0,1.540566E0,9.3645935E0,-1.1039979E-2,1.0796254E0,2.0832703E-2,6.9977692E-3,1.5323647E-2,2.4378626E-3,1.7816944E-2,-1.5654376E-2,6.831877E-3,-2.1010708E-2,-1.06728105E-2,1.3968774E-2,-7.052663E-3,1.8436298E-2,-4.5437925E-3,1.616016E-2,-2.368841E-3,-1.5595706E-2,8.221248E-3,-2.1031462E-2,-1.4740111E-2,-2.110033E-2,-2.4033317E-3,-1.7961852E-2,-9.4579905E-3,-2.0598726E-2,-8.176513E-3,-1.05833E-2,-1.6621087E-2,7.9082595E-3,1.8591307E-2,-3.9962824E-3,1.1067046E-2,-1.2294377E-2,5.2414173E-3,1.6626751E-2,6.974855E-3,1.0528127E-2,-4.95204E-3,1.9188356E-2,3.2121476E-3,-5.510954E-3,1.7065484E-2,1.4540123E-2,3.4153045E-3,9.737991E-3,-3.839552E-3,-2.0871948E-2,-1.0072108E-2,1.01708975E-2,-1.4859436E-2,1.8328516E-2,5.2765955E-4,4.091242E-3,1.9333495E-2],"split_indices":[10,44,79,11,80,10,0,77,73,15,68,44,13,24,42,81,26,19,74,27,80,80,23,81,29,63,45,67,58,66,16,21,0,0,21,49,63,73,22,62,63,0,11,33,83,20,24,83,12,0,51,25,60,29,71,11,42,49,81,2,0,18,0,0,0,0,0,0,0,0,0,0,0,0,0,0,0,0,0,0,0,0,0,0,0,0,0,0,0,0,0,0,0,0,0,0,0,0,0,0,0,0,0,0,0,0,0,0,0,0,0,0,0,0,0],"split_type":[0,0,0,0,0,0,0,0,0,0,0,0,0,0,0,0,0,0,0,0,0,0,0,0,0,0,0,0,0,0,0,0,0,0,0,0,0,0,0,0,0,0,0,0,0,0,0,0,0,0,0,0,0,0,0,0,0,0,0,0,0,0,0,0,0,0,0,0,0,0,0,0,0,0,0,0,0,0,0,0,0,0,0,0,0,0,0,0,0,0,0,0,0,0,0,0,0,0,0,0,0,0,0,0,0,0,0,0,0,0,0,0,0,0,0],"sum_hessian":[1.5492747E3,8.460609E2,7.032137E2,1.8418095E2,6.6188E2,4.941199E2,2.0909378E2,7.3441086E1,1.1073987E2,3.8951843E1,6.2292816E2,8.71364E1,4.0698352E2,1.6844559E2,4.064819E1,6.0712624E1,1.2728461E1,4.1939114E1,6.880076E1,2.588796E1,1.3063883E1,3.0398563E2,3.189425E2,6.12506E1,2.5885801E1,1.1801888E2,2.8896463E2,1.4118553E2,2.7260057E1,1.6724213E1,2.3923975E1,5.7508144E1,3.2044778E0,6.204245E0,6.524216E0,2.0493952E1,2.144516E1,5.6230152E1,1.2570604E1,1.8296381E1,7.591578E0,5.090361E0,7.9735217E0,9.713301E1,2.0685263E2,8.710837E1,2.3183414E2,2.636164E1,3.4888958E1,3.8186483E0,2.2067154E1,8.5498E1,3.2520878E1,2.6317346E2,2.5791172E1,5.3713535E1,8.747199E1,1.6693962E1,1.0566096E1,1.2770289E1,3.953923E0,9.611764E0,1.4312212E1,3.9254597E1,1.825355E1,3.4096568E0,3.1145594E0,1.540176E1,5.0921907E0,1.7491793E1,3.953367E0,5.774694E0,5.0455456E1,7.6614532E0,4.9091516E0,1.5114715E1,3.181667E0,3.477339E0,4.1142387E0,4.747823E0,3.2256982E0,7.747382E0,8.938563E1,6.1015274E1,1.4583736E2,8.390511E1,3.203255E0,1.05006874E2,1.2682726E2,4.112529E0,2.2249113E1,9.3186245E0,2.5570332E1,1.1384465E1,1.0682688E1,7.120015E1,1.4297848E1,2.1475664E1,1.1045215E1,2.5903604E2,4.137427E0,6.386501E0,1.940467E1,2.4277246E1,2.9436289E1,2.2233603E1,6.523839E1,1.2989851E1,3.7041106E0,3.8646684E0,6.701428E0,8.135542E0,4.634747E0,3.15796E0,6.453804E0],"tree_param":{"num_deleted":"0","num_feature":"84","num_nodes":"115","size_leaf_vector":"1"}},{"base_weights":[5.722141E-3,-8.677017E-1,1.0519631E0,-1.23879015E-1,-1.0757397E0,1.3857509E0,2.687035E-1,6.4359725E-1,-6.3228977E-1,3.9235163E-1,-1.1518114E0,7.422426E-1,1.5249882E0,3.5961594E-2,1.2232757E0,8.203407E-1,-2.0248722E-1,-1.3411704E0,-2.1944378E-1,1.1399703E0,-2.0439468E-1,-1.7350467E0,-1.0032938E0,1.0560681E0,-1.178985E-2,1.1343437E0,1.6835334E0,3.054076E-1,-1.1603949E0,1.4702516E0,7.3166355E-2,-1.1104053E-1,9.827434E-1,-1.2430592E0,1.48125E-2,-8.904816E-1,-1.761E0,-4.573894E-1,8.728977E-1,2.0908881E-2,6.0855174E-1,-9.3162143E-1,8.848222E-1,-1.787753E0,-6.423562E-3,-7.718795E-1,-1.3920836E0,1.5316262E0,6.3411003E-1,2.0843394E-2,-3.5008654E-1,1.3689806E0,5.269005E-1,1.7449301E0,1.0424212E0,8.409721E-1,-2.383319E-2,2.8521868E-3,-1.4400973E0,1.0471194E0,1.8207265E0,-1.5823297E-2,2.0573523E-2,1.4837761E-2,-1.0684392E-2,1.7011698E-2,5.9358724E-3,-2.1193814E-2,-2.2107556E-3,-1.5221524E-2,6.7584217E-3,-2.0795247E-2,-1.05608795E-2,1.3820109E-2,-6.9880467E-3,1.8243514E-2,-4.4952985E-3,-9.664323E-3,1.713414E-2,4.4388263E-3,-1.5909411E-2,1.86242E-2,-2.1923515E-3,-2.020627E-2,-1.6482051E-2,-1.1291404E-2,-4.469696E-3,-1.6100366E-2,-4.214E-3,1.7912347E-2,4.1599316E-3,-4.0186583E-3,1.1893946E-2,9.761718E-3,-9.428921E-3,1.6260903E-2,6.9006467E-3,1.1021934E-2,-4.8987474E-3,1.896322E-2,6.0349833E-3,-6.5837484E-3,1.782292E-2,1.1373376E-2,-6.641274E-3,-1.2773496E-2,1.7591383E-3,-4.4090375E-3,-1.7258283E-2,2.0817537E-2,6.285537E-3,1.4303249E-2,2.067636E-2],"categories":[],"categories_nodes":[],"categories_segments":[],"categories_sizes":[],"default_left":[0,1,1,0,1,0,0,1,0,0,0,1,0,0,0,0,0,0,0,0,1,0,0,1,0,1,1,0,0,0,0,1,0,0,0,0,0,0,0,0,0,0,0,0,0,0,1,1,0,0,0,1,0,1,0,0,0,0,0,0,0,0,0,0,0,0,0,0,0,0,0,0,0,0,0,0,0,0,0,0,0,0,0,0,0,0,0,0,0,0,0,0,0,0,0,0,0,0,0,0,0,0,0,0,0,0,0,0,0,0,0,0,0],"id":4,"left_children":[1,3,5,7,9,11,13,15,17,19,21,23,25,27,29,31,33,35,37,39,41,43,45,47,49,51,53,55,57,59,61,63,65,67,-1,69,71,73,75,-1,77,79,81,83,-1,85,87,89,91,-1,93,95,97,99,101,103,105,-1,107,109,111,-1,-1,-1,-1,-1,-1,-1,-1,-1,-1,-1,-1,-1,-1,-1,-1,-1,-1,-1,-1,-1,-1,-1,-1,-1,-1,-1,-1,-1,-1,-1,-1,-1,-1,-1,-1,-1,-1,-1,-1,-1,-1,-1,-1,-1,-1,-1,-1,-1,-1,-1,-1],"loss_changes":[1.418102E3,1.3087769E2,1.8459631E2,7.212934E1,7.381317E1,4.435742E1,4.687342E1,1.1015739E1,3.2540806E1,1.4527194E1,5.4425903E1,2.0841461E1,2.5204895E1,5.4680115E1,1.1746246E1,9.217381E0,2.0975584E1,7.7399063E0,1.8265005E1,6.21525E0,1.4343485E1,7.633789E0,4.5058258E1,1.2476654E1,1.7119257E1,1.6745865E1,1.139209E1,2.4413315E1,1.2440926E1,5.044983E0,2.0896389E1,1.1969322E1,1.3438217E1,5.8370266E0,0E0,1.5873227E1,2.9227066E0,1.9563446E1,1.3450287E1,0E0,1.3033071E1,8.06293E0,6.7267237E0,2.9397888E0,0E0,3.132129E1,2.0371765E1,4.6298294E0,1.5788005E1,0E0,1.4713489E1,9.049606E0,1.6130747E1,7.24469E0,2.5962519E1,1.6893871E1,1.8800194E1,0E0,4.533119E0,6.355154E0,9.6691513E-1,0E0,0E0,0E0,0E0,0E0,0E0,0E0,0E0,0E0,0E0,0E0,0E0,0E0,0E0,0E0,0E0,0E0,0E0,0E0,0E0,0E0,0E0,0E0,0E0,0E0,0E0,0E0,0E0,0E0,0E0,0E0,0E0,0E0,0E0,0E0,0E0,0E0,0E0,0E0,0E0,0E0,0E0,0E0,0E0,0E0,0E0,0E0,0E0,0E0,0E0,0E0,0E0],"parents":[2147483647,0,0,1,1,2,2,3,3,4,4,5,5,6,6,7,7,8,8,9,9,10,10,11,11,12,12,13,13,14,14,15,15,16,16,17,17,18,18,19,19,20,20,21,21,22,22,23,23,24,24,25,25,26,26,27,27,28,28,29,29,30,30,31,31,32,32,33,33,35,35,36,36,37,37,38,38,40,40,41,41,42,42,43,43,45,45,46,46,47,47,48,48,50,50,51,51,52,52,53,53,54,54,55,55,56,56,58,58,59,59,60,60],"right_children":[2,4,6,8,10,12,14,16,18,20,22,24,26,28,30,32,34,36,38,40,42,44,46,48,50,52,54,56,58,60,62,64,66,68,-1,70,72,74,76,-1,78,80,82,84,-1,86,88,90,92,-1,94,96,98,100,102,104,106,-1,108,110,112,-1,-1,-1,-1,-1,-1,-1,-1,-1,-1,-1,-1,-1,-1,-1,-1,-1,-1,-1,-1,-1,-1,-1,-1,-1,-1,-1,-1,-1,-1,-1,-1,-1,-1,-1,-1,-1,-1,-1,-1,-1,-1,-1,-1,-1,-1,-1,-1,-1,-1,-1,-1],"split_conditions":[1.607511E0,8.114641E0,7.631755E-1,3.52E2,2.717249E-1,1.7380553E0,3.6210318E0,9.058156E0,1.1819891E0,9.7120905E0,2.8136115E0,9.45735E0,4.8263264E0,9.452035E0,1.00157175E1,2.3596098E-1,1.0711695E1,9.1793495E-1,-5.405673E-1,9.978798E-1,1.189761E1,1.5316569E0,9.774437E0,1.4369256E0,1.9151042E-1,2.8212446E-1,9.245182E0,3.79E2,1.6114125E0,1.8072575E0,1.7076111E0,9.988423E0,7E0,2.6E1,1.48125E-2,1.1645594E0,6.87845E-1,1.2123966E0,7.8E1,2.0908881E-2,8.6783683E-1,3.8962325E-1,-1.5108234E0,1.2687563E0,-6.423562E-3,1.3952037E0,1.4634894E0,1.2294591E1,3.6028557E0,2.0843394E-2,1.5695144E0,8.664274E0,8.5060625E0,7.753554E-1,1.5329887E0,1.4935894E0,3.33342E-1,2.8521868E-3,3.5290387E-1,1.1865354E0,7.9090877E0,-1.5823297E-2,2.0573523E-2,1.4837761E-2,-1.0684392E-2,1.7011698E-2,5.9358724E-3,-2.1193814E-2,-2.2107556E-3,-1.5221524E-2,6.7584217E-3,-2.0795247E-2,-1.05608795E-2,1.3820109E-2,-6.9880467E-3,1.8243514E-2,-4.4952985E-3,-9.664323E-3,1.713414E-2,4.4388263E-3,-1.5909411E-2,1.86242E-2,-2.1923515E-3,-2.020627E-2,-1.6482051E-2,-1.1291404E-2,-4.469696E-3,-1.6100366E-2,-4.214E-3,1.7912347E-2,4.1599316E-3,-4.0186583E-3,1.1893946E-2,9.761718E-3,-9.428921E-3,1.6260903E-2,6.9006467E-3,1.1021934E-2,-4.8987474E-3,1.896322E-2,6.0349833E-3,-6.5837484E-3,1.782292E-2,1.1373376E-2,-6.641274E-3,-1.2773496E-2,1.7591383E-3,-4.4090375E-3,-1.7258283E-2,2.0817537E-2,6.285537E-3,1.4303249E-2,2.067636E-2],"split_indices":[10,44,79,11,79,10,0,67,73,14,1,44,13,2,60,27,35,19,74,19,67,58,24,81,79,63,45,11,83,32,56,78,50,59,0,49,63,73,22,0,48,48,74,49,0,10,73,46,43,0,66,25,60,70,72,80,63,0,5,31,14,0,0,0,0,0,0,0,0,0,0,0,0,0,0,0,0,0,0,0,0,0,0,0,0,0,0,0,0,0,0,0,0,0,0,0,0,0,0,0,0,0,0,0,0,0,0,0,0,0,0,0,0],"split_type":[0,0,0,0,0,0,0,0,0,0,0,0,0,0,0,0,0,0,0,0,0,0,0,0,0,0,0,0,0,0,0,0,0,0,0,0,0,0,0,0,0,0,0,0,0,0,0,0,0,0,0,0,0,0,0,0,0,0,0,0,0,0,0,0,0,0,0,0,0,0,0,0,0,0,0,0,0,0,0,0,0,0,0,0,0,0,0,0,0,0,0,0,0,0,0,0,0,0,0,0,0,0,0,0,0,0,0,0,0,0,0,0,0],"sum_hessian":[1.5518519E3,8.45778E2,7.0607385E2,1.848538E2,6.6092426E2,4.9508893E2,2.1098494E2,7.3659134E1,1.11194664E2,3.25591E1,6.283651E2,8.807001E1,4.0701892E2,1.6962822E2,4.135671E1,6.093174E1,1.2727396E1,4.0923244E1,7.0271416E1,1.4452835E1,1.8106266E1,1.27531E2,5.0083414E2,6.218824E1,2.588177E1,1.1750548E2,2.8951343E2,1.3844797E2,3.118026E1,3.404492E1,7.311785E0,9.046311E0,5.188543E1,7.680986E0,5.04641E0,1.9738445E1,2.11848E1,5.770312E1,1.2568296E1,5.725992E0,8.726843E0,1.0857805E1,7.2484603E0,1.21875786E2,5.655209E0,3.1396283E2,1.868713E2,2.9235237E1,3.2953003E1,3.8166463E0,2.2065125E1,8.476209E1,3.274338E1,2.642086E2,2.5304867E1,5.2709095E1,8.573887E1,5.1114974E0,2.6068762E1,1.542625E1,1.8618673E1,3.975241E0,3.336544E0,3.3644452E0,5.6818657E0,2.1566263E1,3.0319168E1,4.4989405E0,3.182046E0,1.4646108E1,5.0923367E0,1.7232367E1,3.952432E0,5.7742248E0,5.1928898E1,7.659395E0,4.908901E0,3.4539812E0,5.2728615E0,3.157351E0,7.700454E0,4.067916E0,3.1805444E0,8.807685E1,3.379894E1,1.7529025E2,1.3867258E2,1.6847186E2,1.8399452E1,2.6076021E1,3.1592174E0,1.0546711E1,2.2406292E1,6.523535E0,1.5541589E1,7.046547E1,1.4296627E1,2.1697748E1,1.1045632E1,2.5912198E2,5.086592E0,6.8870673E0,1.8417799E1,4.582235E1,6.886745E0,1.1886498E1,7.385237E1,3.6798048E0,2.2388958E1,5.247606E0,1.0178645E1,3.3603027E0,1.525837E1],"tree_param":{"num_deleted":"0","num_feature":"84","num_nodes":"113","size_leaf_vector":"1"}},{"base_weights":[-3.317045E-3,-8.647979E-1,1.0417145E0,4.3891016E-1,-9.739908E-1,1.3863118E0,3.100191E-1,1.0132855E0,-4.3447983E-1,-6.8662745E-1,-1.3131099E0,7.6833755E-1,1.5154709E0,7.004681E-2,1.1879202E0,8.012341E-1,2.1156533E-2,-7.186802E-1,1.7754922E-2,1.212782E-1,-9.579129E-1,-1.7211531E-1,-1.4352529E0,1.1945674E0,2.5919002E-1,1.1222683E0,1.6756445E0,3.4831774E-1,-1.1730694E0,1.439402E0,9.7540885E-2,1.465945E0,2.854625E-1,-1.0511651E0,8.570347E-3,6.1808527E-1,-2.10421E-1,-1.4839767E0,-7.384918E-1,-6.014232E-1,9.4229233E-1,-1.8653302E0,-1.2745179E0,1.4522027E0,6.1787765E-2,5.042254E-1,-1.6588079E-2,1.5156995E0,7.7740717E-1,1.6999625E0,1.614293E-3,6.918137E-1,-1.4894694E-1,1.725449E-3,-1.4398911E0,9.518455E-1,1.8198706E0,-9.275254E-3,1.4989703E-2,3.8999452E-3,1.9115128E-2,1.6527334E-2,-1.7385749E-3,-1.8930802E-2,-2.6129992E-3,8.73125E-3,-7.1145343E-3,-1.8592836E-2,3.2485373E-4,-1.6816838E-2,2.373503E-3,-1.1288E-2,-4.889683E-3,-1.0321314E-2,1.340364E-2,1.8691499E-2,2.4708451E-3,-1.4189325E-2,-2.0225767E-2,-1.0433625E-2,-1.646255E-2,1.872037E-2,8.179104E-3,-1.2090416E-2,1.545706E-2,9.787441E-5,1.5303944E-2,1.8079754E-2,5.1784655E-3,1.0126303E-2,-6.22347E-3,1.8992027E-2,1.41511755E-2,1.072775E-2,3.492982E-4,-6.8517057E-3,5.4847016E-3,-4.3732286E-3,-1.7203059E-2,1.41798565E-2,-2.17738E-3,1.4134795E-2,2.0489872E-2],"categories":[],"categories_nodes":[],"categories_segments":[],"categories_sizes":[],"default_left":[0,1,1,0,1,0,0,1,0,0,0,0,0,0,0,1,0,0,0,1,0,0,0,1,0,1,0,0,0,0,0,0,0,0,0,0,0,0,0,0,0,0,0,1,0,0,0,0,1,0,0,0,0,0,0,0,0,0,0,0,0,0,0,0,0,0,0,0,0,0,0,0,0,0,0,0,0,0,0,0,0,0,0,0,0,0,0,0,0,0,0,0,0,0,0,0,0,0,0,0,0,0,0],"id":5,"left_children":[1,3,5,7,9,11,13,15,17,19,21,23,25,27,29,31,-1,33,-1,35,37,39,41,43,45,47,49,51,53,55,57,59,61,63,-1,65,67,69,71,73,75,77,79,81,83,85,-1,87,89,91,-1,93,95,-1,97,99,101,-1,-1,-1,-1,-1,-1,-1,-1,-1,-1,-1,-1,-1,-1,-1,-1,-1,-1,-1,-1,-1,-1,-1,-1,-1,-1,-1,-1,-1,-1,-1,-1,-1,-1,-1,-1,-1,-1,-1,-1,-1,-1,-1,-1,-1,-1],"loss_changes":[1.3935884E3,1.2078888E2,1.7636115E2,3.289631E1,7.629376E1,3.7951477E1,4.7178795E1,8.044106E0,1.5452435E1,9.288719E1,5.0046936E1,1.7838501E1,2.4767029E1,6.0839317E1,1.3181076E1,1.1106361E1,0E0,1.15581875E1,0E0,1.7556433E1,3.66196E1,1.6614761E1,2.2420166E1,1.305748E1,1.6576523E1,1.5443787E1,1.0363159E1,2.4547157E1,1.1450863E1,7.242653E0,1.1276002E1,4.933964E0,1.0254448E1,1.08295765E1,0E0,1.0714485E1,2.3423637E1,1.3381897E1,1.9864067E1,1.6752155E1,5.5018063E0,9.7750854E-1,1.8551575E1,7.369507E0,1.3603702E1,1.5068349E1,0E0,9.337822E0,1.3737938E1,7.411865E0,0E0,1.7282372E1,1.8994158E1,0E0,4.5388756E0,7.324255E0,9.9311066E-1,0E0,0E0,0E0,0E0,0E0,0E0,0E0,0E0,0E0,0E0,0E0,0E0,0E0,0E0,0E0,0E0,0E0,0E0,0E0,0E0,0E0,0E0,0E0,0E0,0E0,0E0,0E0,0E0,0E0,0E0,0E0,0E0,0E0,0E0,0E0,0E0,0E0,0E0,0E0,0E0,0E0,0E0,0E0,0E0,0E0,0E0],"parents":[2147483647,0,0,1,1,2,2,3,3,4,4,5,5,6,6,7,7,8,8,9,9,10,10,11,11,12,12,13,13,14,14,15,15,17,17,19,19,20,20,21,21,22,22,23,23,24,24,25,25,26,26,27,27,28,28,29,29,30,30,31,31,32,32,33,33,35,35,36,36,37,37,38,38,39,39,40,40,41,41,42,42,43,43,44,44,45,45,47,47,48,48,49,49,51,51,52,52,54,54,55,55,56,56],"right_children":[2,4,6,8,10,12,14,16,18,20,22,24,26,28,30,32,-1,34,-1,36,38,40,42,44,46,48,50,52,54,56,58,60,62,64,-1,66,68,70,72,74,76,78,80,82,84,86,-1,88,90,92,-1,94,96,-1,98,100,102,-1,-1,-1,-1,-1,-1,-1,-1,-1,-1,-1,-1,-1,-1,-1,-1,-1,-1,-1,-1,-1,-1,-1,-1,-1,-1,-1,-1,-1,-1,-1,-1,-1,-1,-1,-1,-1,-1,-1,-1,-1,-1,-1,-1,-1,-1],"split_conditions":[1.607511E0,7.6473107E0,7.364624E-1,3.77E2,8.274162E0,1.7380553E0,3.6210318E0,1.523155E0,-5.8019483E-1,3.49E2,3.2460636E-1,3.23E2,4.8263264E0,9.452035E0,1.00157175E1,5.075011E-1,2.1156533E-2,1.5354593E0,1.7754922E-2,8.928654E0,1.2563422E0,1.1692227E1,2.755021E0,1.2865803E1,8.63632E0,1.740265E-1,1.1303762E0,1.3274016E0,1.6114125E0,1.8072575E0,1.5609281E0,7.0328264E0,7.667361E0,2.2030146E0,8.570347E-3,1.2964197E0,1.4267497E0,1.1653546E1,2.5189936E0,7.521971E0,-1.8629926E0,5.728026E-1,9.774437E0,9.122649E0,1.3593911E1,3.3411562E0,-1.6588079E-2,1.3738676E1,9.748059E0,7.8211956E0,1.614293E-3,3.93E2,5.937381E-1,1.725449E-3,7.7770287E-1,9.377277E0,7.822038E0,-9.275254E-3,1.4989703E-2,3.8999452E-3,1.9115128E-2,1.6527334E-2,-1.7385749E-3,-1.8930802E-2,-2.6129992E-3,8.73125E-3,-7.1145343E-3,-1.8592836E-2,3.2485373E-4,-1.6816838E-2,2.373503E-3,-1.1288E-2,-4.889683E-3,-1.0321314E-2,1.340364E-2,1.8691499E-2,2.4708451E-3,-1.4189325E-2,-2.0225767E-2,-1.0433625E-2,-1.646255E-2,1.872037E-2,8.179104E-3,-1.2090416E-2,1.545706E-2,9.787441E-5,1.5303944E-2,1.8079754E-2,5.1784655E-3,1.0126303E-2,-6.22347E-3,1.8992027E-2,1.41511755E-2,1.072775E-2,3.492982E-4,-6.8517057E-3,5.4847016E-3,-4.3732286E-3,-1.7203059E-2,1.41798565E-2,-2.17738E-3,1.4134795E-2,2.0489872E-2],"split_indices":[10,76,79,11,68,10,0,49,74,11,79,11,13,2,60,48,0,21,0,46,83,76,23,46,45,28,29,29,83,32,31,3,46,33,0,19,51,69,33,52,74,80,24,67,16,0,0,69,76,3,0,11,63,0,20,14,14,0,0,0,0,0,0,0,0,0,0,0,0,0,0,0,0,0,0,0,0,0,0,0,0,0,0,0,0,0,0,0,0,0,0,0,0,0,0,0,0,0,0,0,0,0,0],"split_type":[0,0,0,0,0,0,0,0,0,0,0,0,0,0,0,0,0,0,0,0,0,0,0,0,0,0,0,0,0,0,0,0,0,0,0,0,0,0,0,0,0,0,0,0,0,0,0,0,0,0,0,0,0,0,0,0,0,0,0,0,0,0,0,0,0,0,0,0,0,0,0,0,0,0,0,0,0,0,0,0,0,0,0,0,0,0,0,0,0,0,0,0,0,0,0,0,0,0,0,0,0,0,0],"sum_hessian":[1.5479576E3,8.484946E2,6.99463E2,6.557325E1,7.829214E2,4.7551425E2,2.2394873E2,3.95587E1,2.6014547E1,4.238032E2,3.591182E2,8.220559E1,3.9330865E2,1.758754E2,4.8073334E1,3.2399586E1,7.159116E0,2.2901266E1,3.113282E0,1.065344E2,3.1726877E2,3.4726883E1,3.243913E2,4.474493E1,3.746066E1,1.13845795E2,2.7946286E2,1.4370773E2,3.216766E1,3.9062958E1,9.010375E0,1.4154545E1,1.824504E1,1.878665E1,4.1146154E0,4.2652603E1,6.3881798E1,9.338033E1,2.2388844E2,2.5070124E1,9.65676E0,8.824941E1,2.3614189E2,3.6453197E1,8.29173E0,3.298589E1,4.4747677E0,5.31757E1,6.0670094E1,2.7507617E2,4.3866887E0,8.499617E1,5.871157E1,5.361356E0,2.6806305E1,1.712409E1,2.193887E1,5.177508E0,3.8328667E0,3.1573217E0,1.0997223E1,4.7946224E0,1.3450419E1,9.970045E0,8.816605E0,3.6994625E1,5.6579785E0,8.717445E0,5.5164356E1,8.899567E1,4.3846674E0,1.0604509E2,1.1784335E2,2.098029E1,4.089834E0,4.544444E0,5.112316E0,3.2211533E0,8.502826E1,1.0941345E2,1.2672844E2,2.557391E1,1.0879291E1,4.452843E0,3.8388865E0,2.1468369E1,1.1517522E1,4.5657047E1,7.5186534E0,5.403374E1,6.6363525E0,2.318896E2,4.3186573E1,5.79032E1,2.7092974E1,3.3706203E1,2.5005365E1,3.6788418E0,2.3127462E1,1.2967036E1,4.157053E0,3.3580208E0,1.8580849E1],"tree_param":{"num_deleted":"0","num_feature":"84","num_nodes":"103","size_leaf_vector":"1"}},{"base_weights":[-1.7041638E-3,-8.578577E-1,1.0296564E0,-1.4020772E-1,-1.0597452E0,1.3590925E0,2.5042313E-1,5.95388E-1,-6.182097E-1,2.6572657E-1,-1.1438491E0,1.0324227E0,1.6253501E0,2.9385528E-2,1.1936966E0,7.6364183E-1,-2.040361E-1,-1.3261812E0,-2.0297413E-1,7.676397E-1,-6.941054E-1,-8.466535E-1,-1.42793E0,1.5447274E0,7.811406E-1,1.3320514E0,1.7684615E0,2.8696278E-1,-1.2561291E0,7.471414E-1,1.7783606E0,1.172627E0,4.013245E-1,-1.4544615E-2,8.9147985E-1,-2.6426036E-3,-1.4950414E0,-4.3259937E-1,8.6460245E-1,1.1879438E0,-2.448858E-1,-1.6839873E0,7.7471193E-3,-3.534744E-1,-1.0936158E0,-1.4968677E0,-3.9493012E-1,1.6426033E0,5.49318E-1,1.0067317E0,-4.0448508E-1,1.409983E0,-5.139018E-3,1.8368248E0,1.5161388E0,7.8841E-1,-1.2856457E-2,-3.404132E-1,-1.5641841E0,1.1239647E0,-1.093169E-2,1.4017501E-2,2.0300081E-2,1.05362E-3,1.5258411E-2,-1.624018E-4,1.3689809E-2,1.7567819E-2,2.2417358E-3,-1.8919794E-2,-8.881984E-3,1.376575E-2,-6.6586332E-3,1.805377E-2,-4.4222823E-3,1.590902E-2,-2.3016126E-3,-1.5311772E-2,8.0947755E-3,-2.0663055E-2,-1.4222773E-2,-2.0625023E-2,-2.3005703E-3,-1.6074361E-2,-7.945862E-3,-1.9788347E-2,-1.4556998E-2,-8.115795E-3,1.3223639E-2,1.8144751E-2,7.7638505E-3,-4.1680792E-3,1.6987337E-2,2.5322493E-3,1.252772E-2,8.936678E-3,-1.1032294E-2,1.8283278E-2,1.23927025E-2,1.4742655E-2,1.9835452E-2,1.7916158E-2,2.2778856E-3,1.1155937E-2,-6.3878708E-3,-1.2222538E-2,1.654015E-3,-1.5560719E-2,1.1431016E-2,-2.057534E-2,-8.943721E-3,1.628973E-3,1.715698E-2],"categories":[],"categories_nodes":[],"categories_segments":[],"categories_sizes":[],"default_left":[0,1,1,0,1,0,0,1,0,0,0,0,0,0,0,1,0,0,0,1,0,0,1,1,0,0,0,0,0,0,0,0,0,0,0,0,0,0,0,1,0,1,0,0,0,0,0,1,0,0,0,0,0,0,1,0,0,0,0,0,0,0,0,0,0,0,0,0,0,0,0,0,0,0,0,0,0,0,0,0,0,0,0,0,0,0,0,0,0,0,0,0,0,0,0,0,0,0,0,0,0,0,0,0,0,0,0,0,0,0,0,0,0],"id":6,"left_children":[1,3,5,7,9,11,13,15,17,19,21,23,25,27,29,31,33,35,37,39,41,43,45,47,49,51,53,55,57,59,61,63,65,-1,67,-1,69,71,73,75,77,79,-1,81,83,85,87,89,91,93,95,97,-1,99,101,103,105,107,109,111,-1,-1,-1,-1,-1,-1,-1,-1,-1,-1,-1,-1,-1,-1,-1,-1,-1,-1,-1,-1,-1,-1,-1,-1,-1,-1,-1,-1,-1,-1,-1,-1,-1,-1,-1,-1,-1,-1,-1,-1,-1,-1,-1,-1,-1,-1,-1,-1,-1,-1,-1,-1,-1],"loss_changes":[1.3674487E3,1.2259918E2,1.8032043E2,6.532579E1,7.362152E1,4.2938843E1,4.3518753E1,9.84317E0,3.310346E1,1.8983507E1,5.2427002E1,2.8538345E1,1.1412781E1,5.5993313E1,1.0342403E1,8.956467E0,1.60599E1,7.588814E0,1.7400679E1,1.1012599E1,1.8972258E1,3.6963806E1,2.2608337E1,7.10553E0,3.978681E1,1.25924835E1,3.1482544E0,2.1180786E1,7.9606094E0,1.4956508E1,9.207573E-1,7.6279182E0,1.1684732E1,0E0,3.3210359E0,0E0,6.455719E0,1.8872921E1,1.3137507E1,7.577614E0,8.975881E0,6.868248E-1,0E0,2.2087795E1,2.8899384E1,1.4460327E1,1.1700039E1,3.0003967E0,6.3415384E0,1.5538239E1,1.837132E1,6.4112396E0,0E0,8.352356E-1,7.842407E0,1.8369694E1,1.6598536E1,1.1100121E1,5.460518E0,8.562727E0,0E0,0E0,0E0,0E0,0E0,0E0,0E0,0E0,0E0,0E0,0E0,0E0,0E0,0E0,0E0,0E0,0E0,0E0,0E0,0E0,0E0,0E0,0E0,0E0,0E0,0E0,0E0,0E0,0E0,0E0,0E0,0E0,0E0,0E0,0E0,0E0,0E0,0E0,0E0,0E0,0E0,0E0,0E0,0E0,0E0,0E0,0E0,0E0,0E0,0E0,0E0,0E0,0E0],"parents":[2147483647,0,0,1,1,2,2,3,3,4,4,5,5,6,6,7,7,8,8,9,9,10,10,11,11,12,12,13,13,14,14,15,15,16,16,17,17,18,18,19,19,20,20,21,21,22,22,23,23,24,24,25,25,26,26,27,27,28,28,29,29,30,30,31,31,32,32,34,34,36,36,37,37,38,38,39,39,40,40,41,41,43,43,44,44,45,45,46,46,47,47,48,48,49,49,50,50,51,51,53,53,54,54,55,55,56,56,57,57,58,58,59,59],"right_children":[2,4,6,8,10,12,14,16,18,20,22,24,26,28,30,32,34,36,38,40,42,44,46,48,50,52,54,56,58,60,62,64,66,-1,68,-1,70,72,74,76,78,80,-1,82,84,86,88,90,92,94,96,98,-1,100,102,104,106,108,110,112,-1,-1,-1,-1,-1,-1,-1,-1,-1,-1,-1,-1,-1,-1,-1,-1,-1,-1,-1,-1,-1,-1,-1,-1,-1,-1,-1,-1,-1,-1,-1,-1,-1,-1,-1,-1,-1,-1,-1,-1,-1,-1,-1,-1,-1,-1,-1,-1,-1,-1,-1,-1,-1],"split_conditions":[1.607511E0,8.114641E0,7.631755E-1,3.52E2,4.0088722E-1,1.6997006E0,3.6210318E0,8.118379E0,1.1819891E0,8.858424E0,8.308368E0,2.45E2,5.824406E0,9.529395E0,1.930025E0,5.66388E-1,1.2271465E1,7.477788E0,-5.405673E-1,2.5873944E-1,1.3224914E1,1.1012375E0,1.5411993E0,9.575661E0,8.63632E0,9.750164E-1,7.80889E0,3.79E2,1.434403E0,9.986006E0,1.0024372E0,6.722233E-1,1.4961978E0,-1.4544615E-2,8.439173E0,-2.6426036E-3,1.3071115E0,1.2123966E0,7.8E1,1.3592824E1,1.7935461E-1,2.609921E-1,7.7471193E-3,1.5421365E0,3.1077259E0,2.755021E0,6.019704E-1,1.3806476E1,9.851986E0,3.7282274E0,2.9159158E-1,7.268069E0,-5.139018E-3,7.0173445E0,1.3516986E1,8.142544E0,3.3891514E-1,1.0520979E0,1.3566471E0,8.6271393E-1,-1.093169E-2,1.4017501E-2,2.0300081E-2,1.05362E-3,1.5258411E-2,-1.624018E-4,1.3689809E-2,1.7567819E-2,2.2417358E-3,-1.8919794E-2,-8.881984E-3,1.376575E-2,-6.6586332E-3,1.805377E-2,-4.4222823E-3,1.590902E-2,-2.3016126E-3,-1.5311772E-2,8.0947755E-3,-2.0663055E-2,-1.4222773E-2,-2.0625023E-2,-2.3005703E-3,-1.6074361E-2,-7.945862E-3,-1.9788347E-2,-1.4556998E-2,-8.115795E-3,1.3223639E-2,1.8144751E-2,7.7638505E-3,-4.1680792E-3,1.6987337E-2,2.5322493E-3,1.252772E-2,8.936678E-3,-1.1032294E-2,1.8283278E-2,1.23927025E-2,1.4742655E-2,1.9835452E-2,1.7916158E-2,2.2778856E-3,1.1155937E-2,-6.3878708E-3,-1.2222538E-2,1.654015E-3,-1.5560719E-2,1.1431016E-2,-2.057534E-2,-8.943721E-3,1.628973E-3,1.715698E-2],"split_indices":[10,44,79,11,80,47,0,77,73,15,68,11,1,44,58,72,26,53,74,27,62,80,58,75,45,18,54,11,30,76,80,56,49,0,25,0,10,73,22,62,63,70,0,33,43,23,28,26,23,13,70,15,0,61,46,61,63,72,65,27,0,0,0,0,0,0,0,0,0,0,0,0,0,0,0,0,0,0,0,0,0,0,0,0,0,0,0,0,0,0,0,0,0,0,0,0,0,0,0,0,0,0,0,0,0,0,0,0,0,0,0,0,0],"split_type":[0,0,0,0,0,0,0,0,0,0,0,0,0,0,0,0,0,0,0,0,0,0,0,0,0,0,0,0,0,0,0,0,0,0,0,0,0,0,0,0,0,0,0,0,0,0,0,0,0,0,0,0,0,0,0,0,0,0,0,0,0,0,0,0,0,0,0,0,0,0,0,0,0,0,0,0,0,0,0,0,0,0,0,0,0,0,0,0,0,0,0,0,0,0,0,0,0,0,0,0,0,0,0,0,0,0,0,0,0,0,0,0,0],"sum_hessian":[1.5486328E3,8.4619226E2,7.024406E2,1.8578545E2,6.604068E2,4.937124E2,2.0872821E2,7.317491E1,1.12610535E2,3.9403255E1,6.2100354E2,2.2170776E2,2.7200464E2,1.6910378E2,3.9624435E1,6.045258E1,1.2722329E1,4.162931E1,7.0981224E1,2.5874191E1,1.3529064E1,3.0349927E2,3.1750427E2,7.29574E1,1.4875037E2,8.920276E1,1.8280188E2,1.4087755E2,2.822622E1,2.2467474E1,1.715696E1,2.8395521E1,3.2057056E1,6.2012725E0,6.5210567E0,5.6306534E0,3.5998657E1,5.8417454E1,1.2563768E1,1.828476E1,7.589432E0,7.9639134E0,5.5651507E0,1.01270096E2,2.0222917E2,2.9763998E2,1.986428E1,6.642469E1,6.532711E0,1.2497244E2,2.3777924E1,8.5523544E1,3.6792164E0,1.438259E2,3.8975986E1,5.271431E1,8.8163246E1,7.1063747E0,2.1119844E1,1.8517876E1,3.9495995E0,3.354625E0,1.3802334E1,5.3621483E0,2.3033373E1,2.172027E1,1.0336788E1,3.1131873E0,3.4078696E0,2.5648626E1,1.0350033E1,5.773822E0,5.264363E1,7.6556025E0,4.9081664E0,1.5103979E1,3.1807811E0,3.476486E0,4.1129456E0,4.742468E0,3.2214453E0,8.235596E0,9.30345E1,9.4119225E1,1.0810995E2,8.516269E1,2.124773E2,1.6253109E1,3.6111722E0,6.3045734E1,3.3789551E0,3.426231E0,3.1064801E0,2.1637781E1,1.0333466E2,7.970537E0,1.5807386E1,3.962322E1,4.5900322E1,3.8309622E0,1.3999493E2,3.4848972E1,4.127016E0,4.4601505E1,8.112804E0,1.1384662E1,7.677858E1,3.9710777E0,3.135297E0,1.42194E1,6.900444E0,6.0858383E0,1.2432036E1],"tree_param":{"num_deleted":"0","num_feature":"84","num_nodes":"113","size_leaf_vector":"1"}},{"base_weights":[4.654092E-3,-8.364133E-1,1.0229418E0,-1.2106241E-1,-1.035923E0,1.3463761E0,2.5914717E-1,5.9824073E-1,-5.968522E-1,2.7688104E-1,-1.1182629E0,6.9541305E-1,1.4866995E0,3.0005451E-2,1.1869518E0,7.7638716E-1,-2.3500653E-1,-1.3095047E0,-1.7564166E-1,7.5967014E-1,-6.6388744E-1,-8.307747E-1,-1.3928485E0,1.0088576E0,-3.859262E-2,1.1128023E0,1.6383764E0,2.826219E-1,-1.1065885E0,1.428329E0,6.329888E-2,1.156107E0,3.8496578E-1,-1.3644145E0,8.821259E-1,-8.6869156E-1,-1.7207093E0,-4.012731E-1,8.556678E-1,1.1756898E0,-2.4230364E-1,-1.6591675E0,7.664795E-3,-3.3901492E-1,-1.0770835E0,-1.4597259E0,-3.7124637E-1,1.4864155E0,5.8628064E-1,2.048809E-2,-3.716782E-1,1.3633543E0,4.622735E-1,1.699179E0,1.005863E0,7.7205706E-1,-1.31047545E-2,2.8586653E-3,-1.3842396E0,1.0169461E0,1.7696685E0,-1.5554295E-2,2.0063303E-2,3.3790955E-5,1.5154953E-2,6.2910607E-4,1.7425088E-2,-8.218705E-3,-2.09511E-2,2.2024282E-3,1.740239E-2,-1.4870267E-2,6.8982495E-3,-2.0324795E-2,-1.018462E-2,1.3621021E-2,-6.307847E-3,1.7870843E-2,-4.3751905E-3,1.5746338E-2,-2.276897E-3,-1.5151154E-2,8.009091E-3,-1.4030546E-2,-2.0488018E-2,-2.0424236E-2,-2.2070154E-3,-1.6879508E-2,-8.447973E-3,-1.9601695E-2,-1.4090663E-2,-7.834499E-3,1.3077027E-2,1.7426735E-2,3.921967E-3,-4.0109493E-3,1.1956339E-2,-1.2339049E-2,5.1085027E-3,1.625051E-2,6.6351327E-3,1.0069671E-2,-4.9673025E-3,1.8469414E-2,2.8554297E-3,-6.670685E-3,1.733066E-2,1.0571664E-2,-6.562512E-3,-1.24763055E-2,1.8579363E-3,-3.0669929E-3,-1.6693285E-2,1.4903808E-2,-8.5442705E-4,1.378738E-2,2.0122211E-2],"categories":[],"categories_nodes":[],"categories_segments":[],"categories_sizes":[],"default_left":[0,1,1,0,1,0,0,1,0,0,0,1,0,0,0,1,0,0,0,1,0,0,1,1,0,1,1,0,0,0,0,0,0,0,0,0,0,0,0,1,0,0,0,0,0,0,0,1,0,0,0,1,0,0,0,0,0,0,0,0,0,0,0,0,0,0,0,0,0,0,0,0,0,0,0,0,0,0,0,0,0,0,0,0,0,0,0,0,0,0,0,0,0,0,0,0,0,0,0,0,0,0,0,0,0,0,0,0,0,0,0,0,0,0,0,0,0],"id":7,"left_children":[1,3,5,7,9,11,13,15,17,19,21,23,25,27,29,31,33,35,37,39,41,43,45,47,49,51,53,55,57,59,61,63,65,67,69,71,73,75,77,79,81,83,-1,85,87,89,91,93,95,-1,97,99,101,103,105,107,109,-1,111,113,115,-1,-1,-1,-1,-1,-1,-1,-1,-1,-1,-1,-1,-1,-1,-1,-1,-1,-1,-1,-1,-1,-1,-1,-1,-1,-1,-1,-1,-1,-1,-1,-1,-1,-1,-1,-1,-1,-1,-1,-1,-1,-1,-1,-1,-1,-1,-1,-1,-1,-1,-1,-1,-1,-1,-1,-1],"loss_changes":[1.3263092E3,1.21040405E2,1.7304974E2,6.329855E1,7.168555E1,4.4949768E1,4.430284E1,1.0930777E1,3.341475E1,1.7777052E1,4.925714E1,2.0079548E1,2.2955566E1,4.7983448E1,1.1192909E1,9.015026E0,1.6365152E1,7.492531E0,1.6281458E1,1.0783048E1,1.821362E1,3.6923355E1,2.1804382E1,1.2339436E1,1.6952475E1,1.9041779E1,1.1072693E1,1.9791048E1,1.158704E1,4.7669144E0,1.9972061E1,9.120552E0,1.2083983E1,2.269063E0,3.26582E0,1.5628044E1,2.8727722E0,1.7930313E1,1.2866425E1,7.4219265E0,8.7863035E0,6.747761E-1,0E0,2.1215675E1,2.9196716E1,1.6077576E1,1.1206456E1,4.452759E0,1.6469501E1,0E0,1.4731898E1,9.5355835E0,1.4331474E1,8.623962E0,2.5087193E1,1.5228111E1,1.8268354E1,0E0,4.7800674E0,6.2988234E0,9.529381E-1,0E0,0E0,0E0,0E0,0E0,0E0,0E0,0E0,0E0,0E0,0E0,0E0,0E0,0E0,0E0,0E0,0E0,0E0,0E0,0E0,0E0,0E0,0E0,0E0,0E0,0E0,0E0,0E0,0E0,0E0,0E0,0E0,0E0,0E0,0E0,0E0,0E0,0E0,0E0,0E0,0E0,0E0,0E0,0E0,0E0,0E0,0E0,0E0,0E0,0E0,0E0,0E0,0E0,0E0,0E0,0E0],"parents":[2147483647,0,0,1,1,2,2,3,3,4,4,5,5,6,6,7,7,8,8,9,9,10,10,11,11,12,12,13,13,14,14,15,15,16,16,17,17,18,18,19,19,20,20,21,21,22,22,23,23,24,24,25,25,26,26,27,27,28,28,29,29,30,30,31,31,32,32,33,33,34,34,35,35,36,36,37,37,38,38,39,39,40,40,41,41,43,43,44,44,45,45,46,46,47,47,48,48,50,50,51,51,52,52,53,53,54,54,55,55,56,56,58,58,59,59,60,60],"right_children":[2,4,6,8,10,12,14,16,18,20,22,24,26,28,30,32,34,36,38,40,42,44,46,48,50,52,54,56,58,60,62,64,66,68,70,72,74,76,78,80,82,84,-1,86,88,90,92,94,96,-1,98,100,102,104,106,108,110,-1,112,114,116,-1,-1,-1,-1,-1,-1,-1,-1,-1,-1,-1,-1,-1,-1,-1,-1,-1,-1,-1,-1,-1,-1,-1,-1,-1,-1,-1,-1,-1,-1,-1,-1,-1,-1,-1,-1,-1,-1,-1,-1,-1,-1,-1,-1,-1,-1,-1,-1,-1,-1,-1,-1,-1,-1,-1,-1],"split_conditions":[1.607511E0,8.114641E0,7.631755E-1,3.52E2,4.0088722E-1,1.7380553E0,3.6210318E0,8.118379E0,1.1819891E0,8.858424E0,8.308368E0,9.45735E0,4.8263264E0,9.452035E0,1.00157175E1,6.0375035E-1,1.2271465E1,9.1793495E-1,-5.405673E-1,2.5873944E-1,1.3224914E1,1.1012375E0,1.5411993E0,1.4369256E0,1.1889805E-1,2.8212446E-1,9.245182E0,3.79E2,1.6114125E0,1.8072575E0,1.7076111E0,6.722233E-1,7.6602054E0,1.2056907E0,1.312513E1,1.1645594E0,6.87845E-1,1.2123966E0,7.8E1,1.3592824E1,1.7935461E-1,1.1153539E1,7.664795E-3,1.5421365E0,1.1171687E0,2.755021E0,5.8868563E-1,1.2294591E1,4.8815E0,2.048809E-2,3.4331832E0,8.664274E0,8.5060625E0,1.1550999E0,1.5329887E0,1.4935894E0,3.33342E-1,2.8586653E-3,7.7770287E-1,1.6799723E0,2.353881E-1,-1.5554295E-2,2.0063303E-2,3.3790955E-5,1.5154953E-2,6.2910607E-4,1.7425088E-2,-8.218705E-3,-2.09511E-2,2.2024282E-3,1.740239E-2,-1.4870267E-2,6.8982495E-3,-2.0324795E-2,-1.018462E-2,1.3621021E-2,-6.307847E-3,1.7870843E-2,-4.3751905E-3,1.5746338E-2,-2.276897E-3,-1.5151154E-2,8.009091E-3,-1.4030546E-2,-2.0488018E-2,-2.0424236E-2,-2.2070154E-3,-1.6879508E-2,-8.447973E-3,-1.9601695E-2,-1.4090663E-2,-7.834499E-3,1.3077027E-2,1.7426735E-2,3.921967E-3,-4.0109493E-3,1.1956339E-2,-1.2339049E-2,5.1085027E-3,1.625051E-2,6.6351327E-3,1.0069671E-2,-4.9673025E-3,1.8469414E-2,2.8554297E-3,-6.670685E-3,1.733066E-2,1.0571664E-2,-6.562512E-3,-1.24763055E-2,1.8579363E-3,-3.0669929E-3,-1.6693285E-2,1.4903808E-2,-8.5442705E-4,1.378738E-2,2.0122211E-2],"split_indices":[10,44,79,11,80,10,0,77,73,15,68,44,13,2,60,72,26,19,74,27,62,80,58,81,28,63,45,11,83,32,56,56,61,58,60,49,63,73,22,62,63,69,0,33,81,23,28,46,1,0,51,25,60,29,72,80,63,0,20,66,5,0,0,0,0,0,0,0,0,0,0,0,0,0,0,0,0,0,0,0,0,0,0,0,0,0,0,0,0,0,0,0,0,0,0,0,0,0,0,0,0,0,0,0,0,0,0,0,0,0,0,0,0,0,0,0,0],"split_type":[0,0,0,0,0,0,0,0,0,0,0,0,0,0,0,0,0,0,0,0,0,0,0,0,0,0,0,0,0,0,0,0,0,0,0,0,0,0,0,0,0,0,0,0,0,0,0,0,0,0,0,0,0,0,0,0,0,0,0,0,0,0,0,0,0,0,0,0,0,0,0,0,0,0,0,0,0,0,0,0,0,0,0,0,0,0,0,0,0,0,0,0,0,0,0,0,0,0,0,0,0,0,0,0,0,0,0,0,0,0,0,0,0,0,0,0,0],"sum_hessian":[1.5486133E3,8.481076E2,7.005057E2,1.849536E2,6.63154E2,4.9211456E2,2.0839108E2,7.3632866E1,1.11320724E2,3.913797E1,6.2401605E2,8.727139E1,4.0484317E2,1.6711908E2,4.1272003E1,6.0664055E1,1.296881E1,4.135236E1,6.996837E1,2.586529E1,1.327268E1,3.0484882E2,3.1916724E2,6.11564E1,2.6114996E1,1.1683836E2,2.8800482E2,1.3673096E2,3.0388136E1,3.397313E1,7.2988734E0,3.0790426E1,2.9873629E1,6.449243E0,6.5195665E0,1.9959848E1,2.1392513E1,5.7409515E1,1.255885E1,1.827724E1,7.588048E0,7.7080717E0,5.564608E0,1.017361E2,2.0311272E2,2.9955615E2,1.9611067E1,2.870858E1,3.244782E1,3.8108916E0,2.2304106E1,8.434906E1,3.2489307E1,2.627448E2,2.5259998E1,5.149945E1,8.52315E1,5.1106076E0,2.5277529E1,1.5408473E1,1.8564655E1,3.9721632E0,3.3267102E0,5.612028E0,2.5178398E1,2.365029E1,6.2233396E0,3.2017107E0,3.2475324E0,3.4074297E0,3.112137E0,1.4868173E1,5.0916753E0,1.7445179E1,3.9473338E0,5.7726035E0,5.1636913E1,7.6510506E0,4.9077997E0,1.5096409E1,3.1808326E0,3.4756722E0,4.1123757E0,3.2185643E0,4.489507E0,7.9786215E0,9.375748E1,7.476579E1,1.2834692E2,8.505682E1,2.1449934E2,1.599857E1,3.612496E0,2.5550932E1,3.1576486E0,1.15187025E1,2.0929115E1,1.1626635E1,1.067747E1,7.006144E1,1.4287623E1,2.1445206E1,1.1044101E1,2.5860922E2,4.1355767E0,6.885522E0,1.8374475E1,4.4613148E1,6.886304E0,1.1883006E1,7.3348495E1,3.42781E0,2.1849718E1,1.1500515E1,3.9079578E0,3.351544E0,1.5213112E1],"tree_param":{"num_deleted":"0","num_feature":"84","num_nodes":"117","size_leaf_vector":"1"}},{"base_weights":[8.9518557E-4,-8.340642E-1,1.0138946E0,-3.0736342E-1,-1.1064306E0,1.3463087E0,3.021361E-1,4.4361112E-1,-6.722461E-1,-6.98615E-2,-1.216984E0,7.126068E-1,1.4771965E0,6.2693425E-2,1.1864821E0,8.1135404E-1,2.3170039E-2,-1.033405E0,-8.348042E-2,-3.4782436E-1,1.2950892E0,-1.6578813E0,-1.0440489E0,1.0023055E0,2.3134816E-3,1.1006337E0,1.6304624E0,3.2860655E-1,-1.1341194E0,6.658555E-1,1.7369274E0,6.156977E-1,1.622634E0,-1.8640275E-1,1.6835228E-2,-7.8561306E-1,-1.5249784E0,4.7960582E-1,-6.2850964E-1,1.9063052E-2,-5.874746E-1,3.970114E-3,1.9127842E-2,-1.7125527E0,-8.803018E-1,-7.7975863E-1,-1.3937664E0,1.4457479E0,5.74586E-1,2.0290075E-2,-3.60118E-1,1.3126966E0,5.1168656E-1,1.6521747E0,-2.152021E-4,8.298637E-1,1.1768423E-2,-5.8275867E-1,-1.7601526E0,1.2708931E0,-4.4974878E-1,1.1399887E-2,1.9964306E-2,8.7031685E-3,-5.2228644E-3,2.0631472E-2,1.0521496E-2,1.3299841E-2,-5.34284E-3,-1.4625899E-2,-4.968619E-3,-1.76359E-2,-1.3344983E-3,3.2125335E-4,1.335685E-2,-1.8013216E-3,-1.7362744E-2,1.448009E-2,-8.191315E-3,-1.8875798E-2,-1.2498672E-2,5.610434E-3,-1.7081281E-2,7.250231E-3,-9.231733E-3,7.471059E-3,-1.5591272E-2,4.0415046E-3,1.7313335E-2,-9.456665E-3,9.291782E-3,-1.2935865E-2,5.6313374E-3,1.5616281E-2,6.5652104E-3,9.138642E-3,-1.3169432E-2,1.8471811E-2,1.32866E-2,1.6190762E-2,4.915668E-3,-1.23447785E-2,2.075835E-3,-1.1431371E-2,1.2883406E-2,-1.3870432E-2,-2.0251261E-2,1.8532099E-3,1.6855365E-2,1.087903E-2,-1.385158E-2],"categories":[],"categories_nodes":[],"categories_segments":[],"categories_sizes":[],"default_left":[0,1,1,0,1,0,0,0,0,0,0,1,0,0,0,0,0,0,0,0,0,0,0,0,0,1,1,0,0,0,0,1,0,1,0,0,0,0,0,0,1,0,0,0,0,0,0,0,0,0,0,1,1,0,0,0,0,0,0,0,0,0,0,0,0,0,0,0,0,0,0,0,0,0,0,0,0,0,0,0,0,0,0,0,0,0,0,0,0,0,0,0,0,0,0,0,0,0,0,0,0,0,0,0,0,0,0,0,0,0,0],"id":8,"left_children":[1,3,5,7,9,11,13,15,17,19,21,23,25,27,29,31,33,35,37,39,41,43,45,47,49,51,53,55,57,59,61,63,65,67,-1,69,71,73,75,-1,77,-1,-1,79,81,83,85,87,89,-1,91,93,95,97,-1,99,101,103,105,107,109,-1,-1,-1,-1,-1,-1,-1,-1,-1,-1,-1,-1,-1,-1,-1,-1,-1,-1,-1,-1,-1,-1,-1,-1,-1,-1,-1,-1,-1,-1,-1,-1,-1,-1,-1,-1,-1,-1,-1,-1,-1,-1,-1,-1,-1,-1,-1,-1,-1,-1],"loss_changes":[1.309833E3,1.2177844E2,1.6554742E2,7.928889E1,6.412097E1,3.9557556E1,4.716713E1,1.4628641E1,4.1407692E1,2.0460104E1,3.854834E1,1.6800488E1,2.2810852E1,5.578667E1,1.3598251E1,8.008759E0,1.4310344E1,1.4699127E1,2.2723316E1,2.2819962E1,4.119067E0,6.052246E0,3.3564575E1,1.0997612E1,1.6201984E1,1.4280182E1,1.006958E1,2.2778168E1,1.0996731E1,1.646611E1,1.9324722E0,8.780027E0,1.890091E0,1.7290691E1,0E0,1.4952274E1,6.762192E0,1.253863E1,1.7160065E1,0E0,1.3753828E1,0E0,0E0,3.4497375E0,9.359204E0,2.4395256E1,1.9596283E1,5.1277046E0,1.2545922E1,0E0,1.4865745E1,8.442154E0,1.7929588E1,8.034851E0,0E0,1.4026222E1,1.8575563E1,1.4605921E1,8.8765717E-1,5.220951E0,1.0572808E1,0E0,0E0,0E0,0E0,0E0,0E0,0E0,0E0,0E0,0E0,0E0,0E0,0E0,0E0,0E0,0E0,0E0,0E0,0E0,0E0,0E0,0E0,0E0,0E0,0E0,0E0,0E0,0E0,0E0,0E0,0E0,0E0,0E0,0E0,0E0,0E0,0E0,0E0,0E0,0E0,0E0,0E0,0E0,0E0,0E0,0E0,0E0,0E0,0E0,0E0],"parents":[2147483647,0,0,1,1,2,2,3,3,4,4,5,5,6,6,7,7,8,8,9,9,10,10,11,11,12,12,13,13,14,14,15,15,16,16,17,17,18,18,19,19,20,20,21,21,22,22,23,23,24,24,25,25,26,26,27,27,28,28,29,29,30,30,31,31,32,32,33,33,35,35,36,36,37,37,38,38,40,40,43,43,44,44,45,45,46,46,47,47,48,48,50,50,51,51,52,52,53,53,55,55,56,56,57,57,58,58,59,59,60,60],"right_children":[2,4,6,8,10,12,14,16,18,20,22,24,26,28,30,32,34,36,38,40,42,44,46,48,50,52,54,56,58,60,62,64,66,68,-1,70,72,74,76,-1,78,-1,-1,80,82,84,86,88,90,-1,92,94,96,98,-1,100,102,104,106,108,110,-1,-1,-1,-1,-1,-1,-1,-1,-1,-1,-1,-1,-1,-1,-1,-1,-1,-1,-1,-1,-1,-1,-1,-1,-1,-1,-1,-1,-1,-1,-1,-1,-1,-1,-1,-1,-1,-1,-1,-1,-1,-1,-1,-1,-1,-1,-1,-1,-1,-1],"split_conditions":[1.607511E0,8.496076E0,7.364624E-1,3.52E2,3.606079E-1,1.7380553E0,3.6210318E0,7.350989E0,1.4228951E0,6.6639566E0,2.9320712E0,9.45735E0,4.8263264E0,9.452035E0,1.8756492E0,3.317931E-1,1.5506732E0,1.3467162E0,7.4671965E0,9.4875345E0,7.7515855E0,1.4819194E0,9.74527E0,3.6E1,1.1889805E-1,2.8212446E-1,7.753554E-1,3.79E2,1.0080392E1,4.0741463E0,5.725024E0,1.2158768E1,9.140379E0,8.2576865E-1,1.6835228E-2,1.2381821E0,1.4332626E0,1.4775566E0,1.254625E0,1.9063052E-2,4.416448E-1,3.970114E-3,1.9127842E-2,2.1801295E0,1.4614534E0,3.4149295E-1,7.0633388E0,1.4700638E0,7.6904054E0,2.0290075E-2,3.4331832E0,8.664274E0,8.786427E0,7.913643E0,-2.152021E-4,7.757955E0,3.33342E-1,2.9158049E0,1.2691809E0,2.9849172E-1,1.5564917E0,1.1399887E-2,1.9964306E-2,8.7031685E-3,-5.2228644E-3,2.0631472E-2,1.0521496E-2,1.3299841E-2,-5.34284E-3,-1.4625899E-2,-4.968619E-3,-1.76359E-2,-1.3344983E-3,3.2125335E-4,1.335685E-2,-1.8013216E-3,-1.7362744E-2,1.448009E-2,-8.191315E-3,-1.8875798E-2,-1.2498672E-2,5.610434E-3,-1.7081281E-2,7.250231E-3,-9.231733E-3,7.471059E-3,-1.5591272E-2,4.0415046E-3,1.7313335E-2,-9.456665E-3,9.291782E-3,-1.2935865E-2,5.6313374E-3,1.5616281E-2,6.5652104E-3,9.138642E-3,-1.3169432E-2,1.8471811E-2,1.32866E-2,1.6190762E-2,4.915668E-3,-1.23447785E-2,2.075835E-3,-1.1431371E-2,1.2883406E-2,-1.3870432E-2,-2.0251261E-2,1.8532099E-3,1.6855365E-2,1.087903E-2,-1.385158E-2],"split_indices":[10,44,79,11,79,10,0,25,42,43,52,44,13,2,49,63,32,39,77,37,68,66,24,59,28,63,70,11,67,0,13,55,62,66,0,21,58,49,71,0,64,0,0,12,21,70,25,66,67,0,51,25,44,3,0,67,63,12,56,5,81,0,0,0,0,0,0,0,0,0,0,0,0,0,0,0,0,0,0,0,0,0,0,0,0,0,0,0,0,0,0,0,0,0,0,0,0,0,0,0,0,0,0,0,0,0,0,0,0,0,0],"split_type":[0,0,0,0,0,0,0,0,0,0,0,0,0,0,0,0,0,0,0,0,0,0,0,0,0,0,0,0,0,0,0,0,0,0,0,0,0,0,0,0,0,0,0,0,0,0,0,0,0,0,0,0,0,0,0,0,0,0,0,0,0,0,0,0,0,0,0,0,0,0,0,0,0,0,0,0,0,0,0,0,0,0,0,0,0,0,0,0,0,0,0,0,0,0,0,0,0,0,0,0,0,0,0,0,0,0,0,0,0,0,0],"sum_hessian":[1.5486058E3,8.489021E2,6.9970374E2,2.8935452E2,5.5954755E2,4.7695053E2,2.2275322E2,9.461746E1,1.9473708E2,5.3926945E1,5.056206E2,8.164966E1,3.9530087E2,1.752932E2,4.7460022E1,5.047036E1,4.41471E1,1.20697296E2,7.403978E1,4.4804108E1,9.122839E0,1.4244522E2,3.6317538E2,5.7994617E1,2.365504E1,1.1435396E2,2.809469E2,1.4342719E2,3.1866005E1,2.4392355E1,2.3067665E1,4.0665512E1,9.804849E0,3.887883E1,5.268269E0,8.024916E1,4.0448135E1,3.641596E1,3.7623825E1,4.539373E0,4.0264732E1,3.1536274E0,5.9692116E0,1.3308594E2,9.359282E0,2.068549E2,1.5632048E2,2.8472065E1,2.9522552E1,3.8068414E0,1.98482E1,8.4077644E1,3.0276314E1,2.772996E2,3.6473117E0,5.5546055E1,8.7881134E1,1.6945038E1,1.4920967E1,1.5815551E1,8.576804E0,3.6000214E0,1.9467644E1,3.453465E1,6.130863E0,6.671589E0,3.1332598E0,6.972231E0,3.1906597E1,2.872547E1,5.152369E1,3.727019E1,3.177944E0,2.2945082E1,1.3470877E1,2.568264E1,1.1941185E1,3.3569796E0,3.6907753E1,1.2246729E2,1.06186495E1,3.150855E0,6.208427E0,1.09031925E1,1.959517E2,4.358603E0,1.5196187E2,3.8790584E0,2.4593006E1,4.926936E0,2.4595617E1,1.0148906E1,9.699294E0,6.9792694E1,1.4284949E1,2.532222E1,4.954094E0,2.3706682E2,4.023277E1,1.9628319E1,3.5917736E1,1.1880035E1,7.60011E1,1.3334805E1,3.6102324E0,3.2154295E0,1.1705538E1,3.4007525E0,1.2414799E1,3.1305888E0,5.446215E0],"tree_param":{"num_deleted":"0","num_feature":"84","num_nodes":"111","size_leaf_vector":"1"}},{"base_weights":[-2.6973567E-4,-8.30602E-1,9.977247E-1,-1.2615822E-1,-1.027942E0,1.3175471E0,2.4720761E-1,5.7791996E-1,-5.9559476E-1,2.5996748E-1,-1.109755E0,1.013276E0,1.6001859E0,-4.8644263E-1,5.303167E-1,7.5080174E-1,-2.3398161E-1,-1.2894627E0,-1.7916946E-1,-7.375924E-2,1.6450565E0,-1.6219276E0,-9.619709E-1,1.2009766E0,2.745831E-1,1.6231089E0,2.3303716E-4,-1.7974086E-1,-1.59445E0,6.482677E-1,-1.1569468E0,-3.2835406E-1,8.8218176E-1,-1.3491583E0,8.6908424E-1,-1.0085204E0,-2.012768E-2,-4.2010903E-1,9.6365047E-1,2.0369882E-2,-3.8201874E-1,1.3941025E-2,2.0532709E-2,-1.6805573E0,-4.0282345E-1,-6.402662E-1,-1.2435824E0,1.5916435E0,9.382018E-1,1.1017277E0,-3.8776883E-1,1.6811365E0,1.0964452E0,1.3812436E0,-4.487545E-1,-7.882176E-3,-1.8848369E0,2.9093578E-1,1.0696121E0,1.8342093E-4,-2.0620326E-2,7.853241E-3,-1.5441887E-2,1.4310651E-2,6.078193E-3,-8.089326E-3,-2.0753607E-2,1.7246678E-2,2.077818E-3,-1.5509372E-2,-2.9697518E-3,1.3533065E-2,-6.5317396E-3,1.7665261E-2,-2.3783199E-3,2.719867E-3,-1.2414539E-2,-1.8429313E-2,-5.553362E-3,5.4119728E-3,-1.3867332E-2,-1.0028571E-2,-1.9265487E-3,9.969149E-4,-1.3830852E-2,3.3360594E-3,1.7663917E-2,-2.811116E-4,1.2217269E-2,1.8034438E-2,6.3354545E-3,1.0985041E-2,-1.2039443E-2,1.4425369E-2,1.8811824E-2,-6.3586463E-3,1.5143184E-2,8.3548715E-3,2.1345226E-2,4.6923026E-3,-9.6222125E-3,-2.057415E-2,-2.0000326E-2,9.907763E-3,-3.7854488E-3,5.489476E-3,1.640919E-2],"categories":[],"categories_nodes":[],"categories_segments":[],"categories_sizes":[],"default_left":[0,1,1,0,1,0,0,1,0,0,0,1,0,0,0,0,0,0,0,1,1,0,0,1,0,0,0,0,0,0,0,0,1,0,0,0,0,0,0,0,0,0,0,0,0,0,0,0,0,1,0,1,0,0,0,0,0,0,0,0,0,0,0,0,0,0,0,0,0,0,0,0,0,0,0,0,0,0,0,0,0,0,0,0,0,0,0,0,0,0,0,0,0,0,0,0,0,0,0,0,0,0,0,0,0,0,0],"id":9,"left_children":[1,3,5,7,9,11,13,15,17,19,21,23,25,27,29,31,33,35,37,39,41,43,45,47,49,51,-1,53,55,57,59,61,63,65,67,69,-1,71,73,-1,75,-1,-1,77,79,81,83,85,87,89,91,93,95,97,99,-1,101,103,105,-1,-1,-1,-1,-1,-1,-1,-1,-1,-1,-1,-1,-1,-1,-1,-1,-1,-1,-1,-1,-1,-1,-1,-1,-1,-1,-1,-1,-1,-1,-1,-1,-1,-1,-1,-1,-1,-1,-1,-1,-1,-1,-1,-1,-1,-1,-1,-1],"loss_changes":[1.2805516E3,1.17259766E2,1.6845361E2,6.101104E1,6.94303E1,4.231653E1,4.3556324E1,1.0365055E1,3.1999294E1,1.8193981E1,4.6892273E1,3.2857162E1,9.229492E0,1.9840885E1,3.0113956E1,8.632038E0,1.5947014E1,6.8489532E0,1.9058046E1,1.928942E1,7.0606613E-1,9.9140625E0,4.355899E1,1.9395569E1,2.630835E1,7.6812134E0,0E0,1.9204185E1,3.156063E0,2.129211E1,8.889249E0,7.789876E0,7.7386627E0,2.2436876E0,3.2507405E0,8.9936905E0,0E0,1.8163073E1,9.765067E0,0E0,1.3522829E1,0E0,0E0,5.8144836E0,5.144879E0,3.0476875E1,1.5766663E1,5.383316E0,2.1894783E1,6.324127E0,2.7667484E1,5.5439453E0,1.3305025E1,2.4620047E0,1.5504512E1,0E0,3.1661987E-4,3.1186298E1,1.666323E1,0E0,0E0,0E0,0E0,0E0,0E0,0E0,0E0,0E0,0E0,0E0,0E0,0E0,0E0,0E0,0E0,0E0,0E0,0E0,0E0,0E0,0E0,0E0,0E0,0E0,0E0,0E0,0E0,0E0,0E0,0E0,0E0,0E0,0E0,0E0,0E0,0E0,0E0,0E0,0E0,0E0,0E0,0E0,0E0,0E0,0E0,0E0,0E0],"parents":[2147483647,0,0,1,1,2,2,3,3,4,4,5,5,6,6,7,7,8,8,9,9,10,10,11,11,12,12,13,13,14,14,15,15,16,16,17,17,18,18,19,19,20,20,21,21,22,22,23,23,24,24,25,25,27,27,28,28,29,29,30,30,31,31,32,32,33,33,34,34,35,35,37,37,38,38,40,40,43,43,44,44,45,45,46,46,47,47,48,48,49,49,50,50,51,51,52,52,53,53,54,54,56,56,57,57,58,58],"right_children":[2,4,6,8,10,12,14,16,18,20,22,24,26,28,30,32,34,36,38,40,42,44,46,48,50,52,-1,54,56,58,60,62,64,66,68,70,-1,72,74,-1,76,-1,-1,78,80,82,84,86,88,90,92,94,96,98,100,-1,102,104,106,-1,-1,-1,-1,-1,-1,-1,-1,-1,-1,-1,-1,-1,-1,-1,-1,-1,-1,-1,-1,-1,-1,-1,-1,-1,-1,-1,-1,-1,-1,-1,-1,-1,-1,-1,-1,-1,-1,-1,-1,-1,-1,-1,-1,-1,-1,-1,-1],"split_conditions":[1.607511E0,8.114641E0,7.631755E-1,3.52E2,4.0088722E-1,1.6810468E0,2.3493977E0,8.118379E0,1.1819891E0,6.6639566E0,2.8860078E0,1.0023603E1,1.0973482E0,9.395404E0,6.8921953E-1,7.0353255E0,1.2271465E1,-1.0380338E0,-5.405673E-1,4.416448E-1,1.1047825E0,1.5515423E0,9.260054E0,1.8572533E-1,3.1454077E-1,9.112533E0,2.3303716E-4,2.503259E-1,8.042552E-1,1.8294135E0,1.3507152E0,6.054463E-1,7.667361E0,1.941938E0,8.439173E0,1.3048748E0,-2.012768E-2,1.2123966E0,7.8E1,2.0369882E-2,8.316805E0,1.3941025E-2,2.0532709E-2,1.0572815E0,8.844984E-1,1.4225867E0,7.0954227E0,8.435691E0,3.667772E0,7.636143E0,7.556354E0,2.1796694E0,1.13804455E1,8.657493E0,3.8409346E-1,-7.882176E-3,9.694399E0,1.4387658E0,4.841453E0,1.8342093E-4,-2.0620326E-2,7.853241E-3,-1.5441887E-2,1.4310651E-2,6.078193E-3,-8.089326E-3,-2.0753607E-2,1.7246678E-2,2.077818E-3,-1.5509372E-2,-2.9697518E-3,1.3533065E-2,-6.5317396E-3,1.7665261E-2,-2.3783199E-3,2.719867E-3,-1.2414539E-2,-1.8429313E-2,-5.553362E-3,5.4119728E-3,-1.3867332E-2,-1.0028571E-2,-1.9265487E-3,9.969149E-4,-1.3830852E-2,3.3360594E-3,1.7663917E-2,-2.811116E-4,1.2217269E-2,1.8034438E-2,6.3354545E-3,1.0985041E-2,-1.2039443E-2,1.4425369E-2,1.8811824E-2,-6.3586463E-3,1.5143184E-2,8.3548715E-3,2.1345226E-2,4.6923026E-3,-9.6222125E-3,-2.057415E-2,-2.0000326E-2,9.907763E-3,-3.7854488E-3,5.489476E-3,1.640919E-2],"split_indices":[10,44,79,11,80,71,33,77,73,43,1,44,29,2,5,45,26,74,74,64,30,42,2,28,6,25,0,63,20,21,82,20,46,33,25,83,0,73,22,0,54,0,0,48,41,10,3,26,13,77,45,51,69,76,5,0,24,8,13,0,0,0,0,0,0,0,0,0,0,0,0,0,0,0,0,0,0,0,0,0,0,0,0,0,0,0,0,0,0,0,0,0,0,0,0,0,0,0,0,0,0,0,0,0,0,0,0],"split_type":[0,0,0,0,0,0,0,0,0,0,0,0,0,0,0,0,0,0,0,0,0,0,0,0,0,0,0,0,0,0,0,0,0,0,0,0,0,0,0,0,0,0,0,0,0,0,0,0,0,0,0,0,0,0,0,0,0,0,0,0,0,0,0,0,0,0,0,0,0,0,0,0,0,0,0,0,0,0,0,0,0,0,0,0,0,0,0,0,0,0,0,0,0,0,0,0,0,0,0,0,0,0,0,0,0,0,0],"sum_hessian":[1.5453136E3,8.435119E2,7.0180164E2,1.8458932E2,6.5892255E2,4.9209888E2,2.0970277E2,7.383978E1,1.1074954E2,3.9356567E1,6.19566E2,2.3698372E2,2.5511517E2,5.8389217E1,1.5131355E2,6.0877857E1,1.2961926E1,4.1536217E1,6.9213326E1,3.171522E1,7.6413465E0,1.387364E2,4.808296E2,1.8896611E2,4.8017605E1,2.514628E2,3.652373E0,4.5732056E1,1.2657162E1,1.414278E2,9.885762E0,6.6063E0,5.4271557E1,6.445853E0,6.516073E0,2.8097685E1,1.3438534E1,5.716295E1,1.2050375E1,4.2845554E0,2.7430664E1,3.3530288E0,4.2883177E0,1.3236946E2,6.366948E0,2.244407E2,2.563889E2,7.5987854E1,1.1297826E2,2.1352854E1,2.6664751E1,2.2650336E2,2.4959442E1,6.721765E0,3.9010292E1,3.197779E0,9.459383E0,7.652886E1,6.489893E1,3.9022071E0,5.983555E0,3.3802636E0,3.2260363E0,2.2301258E1,3.1970299E1,3.1999896E0,3.245864E0,3.1102982E0,3.405775E0,1.7580845E1,1.051684E1,5.771196E0,5.139175E1,7.643679E0,4.406696E0,1.5074751E1,1.2355913E1,1.282014E2,4.1680574E0,3.1526184E0,3.2143297E0,1.3685385E2,8.758686E1,8.531357E0,2.4785753E2,3.1486766E0,7.283918E1,1.9479904E1,9.349836E1,1.0001453E1,1.13514E1,9.126092E0,1.753866E1,4.036616E1,1.8613719E2,3.927426E0,2.1032015E1,3.381236E0,3.340529E0,1.3105886E1,2.5904404E1,3.4923515E0,5.967031E0,3.8595345E1,3.7933514E1,2.9347136E1,3.55518E1],"tree_param":{"num_deleted":"0","num_feature":"84","num_nodes":"107","size_leaf_vector":"1"}},{"base_weights":[-1.2800021E-3,-8.21128E-1,9.915455E-1,-3.65192E-1,-1.1204854E0,1.3189205E0,2.942601E-1,4.0602827E-1,-7.1026045E-1,2.2222456E-1,-1.2088363E0,6.730264E-1,1.4416345E0,6.6070646E-2,1.1316857E0,4.808685E-1,-2.0556195E-2,-1.0046535E0,-1.6046788E-1,8.910433E-1,-6.7344844E-1,-1.3397089E0,-7.0244133E-1,8.92348E-1,-3.2512972E-1,1.068311E0,1.5969384E0,3.2763276E-1,-1.1162757E0,5.816642E-1,1.5532377E0,3.2404533E-1,1.6720031E0,-1.3387649E0,-6.7834735E-1,1.9563194E-1,-1.0457977E0,1.2400545E0,-5.1056454E-3,-1.6420861E0,7.6309033E-3,-1.4176905E0,-6.259483E-1,-1.89813E-1,-1.1239123E0,1.3211683E0,4.8474386E-1,1.8440805E-2,-1.5035304E0,1.4346809E0,7.369467E-1,1.6202906E0,1.2268991E-3,6.419339E-1,-1.2540548E-1,1.8305581E-3,-1.3767861E0,1.0678525E0,-1.582362E-2,1.1145494E0,1.78329E0,1.6520474E-3,1.2706372E-2,2.0430818E-2,1.2323184E-2,-1.6170073E-2,-4.418399E-3,-3.3345271E-3,-1.4914401E-2,-2.2400813E-3,1.1605217E-2,6.5946504E-3,-1.5335202E-2,1.804906E-2,6.26904E-3,-1.3678964E-2,-2.0275451E-2,-1.3317421E-2,-1.7262697E-2,-2.688835E-3,-2.0049036E-2,1.3855378E-2,-5.3620497E-3,-1.3873786E-2,1.3392431E-2,1.455485E-3,1.5770307E-2,-1.5192687E-4,1.4732078E-2,-8.0899745E-3,-2.080294E-2,1.6639385E-2,6.4354076E-4,1.148097E-2,-5.8219796E-3,1.799232E-2,1.2880205E-2,1.0145258E-2,2.7585612E-4,-1.0798269E-2,2.6616754E-3,-8.570225E-3,-1.775133E-2,1.8776592E-2,5.715789E-3,1.3634306E-3,1.8007485E-2,1.9726489E-2,1.6260972E-2],"categories":[],"categories_nodes":[],"categories_segments":[],"categories_sizes":[],"default_left":[0,1,1,0,1,0,0,0,0,0,1,1,0,0,0,0,0,0,0,0,0,0,0,0,0,1,0,0,0,0,0,0,0,0,0,0,0,0,0,0,0,0,0,0,0,0,0,0,0,0,1,0,0,0,0,0,0,0,0,0,0,0,0,0,0,0,0,0,0,0,0,0,0,0,0,0,0,0,0,0,0,0,0,0,0,0,0,0,0,0,0,0,0,0,0,0,0,0,0,0,0,0,0,0,0,0,0,0,0],"id":10,"left_children":[1,3,5,7,9,11,13,15,17,19,21,23,25,27,29,31,-1,33,35,37,39,41,43,45,47,49,51,53,55,57,59,61,63,65,67,69,71,73,-1,75,-1,77,79,81,83,85,87,-1,89,91,93,95,-1,97,99,-1,101,103,-1,105,107,-1,-1,-1,-1,-1,-1,-1,-1,-1,-1,-1,-1,-1,-1,-1,-1,-1,-1,-1,-1,-1,-1,-1,-1,-1,-1,-1,-1,-1,-1,-1,-1,-1,-1,-1,-1,-1,-1,-1,-1,-1,-1,-1,-1,-1,-1,-1,-1],"loss_changes":[1.2592526E3,1.15650696E2,1.5972455E2,8.937653E1,6.068036E1,3.7737854E1,4.271895E1,1.8046034E1,3.7553917E1,1.8918016E1,3.1803589E1,1.6643791E1,2.3195618E1,5.4332047E1,1.1097137E1,1.8785383E1,0E0,1.6472244E1,2.5511307E1,8.627657E0,1.8112316E1,2.1224304E1,2.1293983E1,1.0892616E1,3.2998146E1,1.4269104E1,9.781372E0,2.0485146E1,1.0671028E1,2.0776358E1,2.7309265E0,1.3003757E1,1.4212914E0,1.1687363E1,2.0006824E1,2.0692272E1,1.4805737E1,4.1786823E0,0E0,7.190132E-1,0E0,1.160498E1,1.7524769E1,2.0437346E1,2.1777191E1,5.372669E0,1.4173425E1,0E0,2.8357315E0,8.960686E0,2.6351341E1,6.682251E0,0E0,1.5911076E1,1.9404037E1,0E0,4.253029E0,6.1350307E0,0E0,5.196308E0,2.6089478E-1,0E0,0E0,0E0,0E0,0E0,0E0,0E0,0E0,0E0,0E0,0E0,0E0,0E0,0E0,0E0,0E0,0E0,0E0,0E0,0E0,0E0,0E0,0E0,0E0,0E0,0E0,0E0,0E0,0E0,0E0,0E0,0E0,0E0,0E0,0E0,0E0,0E0,0E0,0E0,0E0,0E0,0E0,0E0,0E0,0E0,0E0,0E0,0E0],"parents":[2147483647,0,0,1,1,2,2,3,3,4,4,5,5,6,6,7,7,8,8,9,9,10,10,11,11,12,12,13,13,14,14,15,15,17,17,18,18,19,19,20,20,21,21,22,22,23,23,24,24,25,25,26,26,27,27,28,28,29,29,30,30,31,31,32,32,33,33,34,34,35,35,36,36,37,37,39,39,41,41,42,42,43,43,44,44,45,45,46,46,48,48,49,49,50,50,51,51,53,53,54,54,56,56,57,57,59,59,60,60],"right_children":[2,4,6,8,10,12,14,16,18,20,22,24,26,28,30,32,-1,34,36,38,40,42,44,46,48,50,52,54,56,58,60,62,64,66,68,70,72,74,-1,76,-1,78,80,82,84,86,88,-1,90,92,94,96,-1,98,100,-1,102,104,-1,106,108,-1,-1,-1,-1,-1,-1,-1,-1,-1,-1,-1,-1,-1,-1,-1,-1,-1,-1,-1,-1,-1,-1,-1,-1,-1,-1,-1,-1,-1,-1,-1,-1,-1,-1,-1,-1,-1,-1,-1,-1,-1,-1,-1,-1,-1,-1,-1,-1],"split_conditions":[1.607511E0,8.678166E0,7.364624E-1,3.52E2,4.0088722E-1,1.7248261E0,3.6210318E0,5.681559E-1,1.399191E0,8.858424E0,1.3611488E0,8.666453E0,4.8263264E0,9.452035E0,1.8596231E0,7.036694E-1,-2.0556195E-2,1.1483088E0,9.8989135E-1,-8.004193E-1,1.1608449E1,5.5693345E0,9.540359E-1,3.23E2,1.5723203E-1,1.8034455E-1,1.1303762E0,1.3274016E0,1.6114125E0,9.986006E0,2.5396279E-1,1.5173389E0,7.1846714E0,1.3799673E0,7.775763E0,1.5449225E0,7.1350102E0,2.39E2,-5.1056454E-3,-1.5250808E0,7.6309033E-3,9.774437E0,8.544871E0,7.310291E0,8.1425387E-1,8.024845E0,3.3411562E0,1.8440805E-2,1.0025275E0,2.662488E0,8.786427E0,8.16336E0,1.2268991E-3,3.93E2,2.222783E0,1.8305581E-3,9.812416E-1,1.5564917E0,-1.582362E-2,7.421156E0,2.162322E0,1.6520474E-3,1.2706372E-2,2.0430818E-2,1.2323184E-2,-1.6170073E-2,-4.418399E-3,-3.3345271E-3,-1.4914401E-2,-2.2400813E-3,1.1605217E-2,6.5946504E-3,-1.5335202E-2,1.804906E-2,6.26904E-3,-1.3678964E-2,-2.0275451E-2,-1.3317421E-2,-1.7262697E-2,-2.688835E-3,-2.0049036E-2,1.3855378E-2,-5.3620497E-3,-1.3873786E-2,1.3392431E-2,1.455485E-3,1.5770307E-2,-1.5192687E-4,1.4732078E-2,-8.0899745E-3,-2.080294E-2,1.6639385E-2,6.4354076E-4,1.148097E-2,-5.8219796E-3,1.799232E-2,1.2880205E-2,1.0145258E-2,2.7585612E-4,-1.0798269E-2,2.6616754E-3,-8.570225E-3,-1.775133E-2,1.8776592E-2,5.715789E-3,1.3634306E-3,1.8007485E-2,1.9726489E-2,1.6260972E-2],"split_indices":[10,44,79,11,80,10,0,38,66,15,73,45,13,2,21,6,0,73,41,74,76,1,41,11,63,28,29,29,83,76,5,32,36,83,68,42,77,11,0,74,0,24,54,68,28,46,0,0,57,73,44,15,0,11,51,0,20,81,0,52,83,0,0,0,0,0,0,0,0,0,0,0,0,0,0,0,0,0,0,0,0,0,0,0,0,0,0,0,0,0,0,0,0,0,0,0,0,0,0,0,0,0,0,0,0,0,0,0,0],"split_type":[0,0,0,0,0,0,0,0,0,0,0,0,0,0,0,0,0,0,0,0,0,0,0,0,0,0,0,0,0,0,0,0,0,0,0,0,0,0,0,0,0,0,0,0,0,0,0,0,0,0,0,0,0,0,0,0,0,0,0,0,0,0,0,0,0,0,0,0,0,0,0,0,0,0,0,0,0,0,0,0,0,0,0,0,0,0,0,0,0,0,0,0,0,0,0,0,0,0,0,0,0,0,0,0,0,0,0,0,0],"sum_hessian":[1.5470565E3,8.47344E2,6.9971246E2,3.3584302E2,5.1150098E2,4.7615576E2,2.235567E2,1.03815414E2,2.3202762E2,3.1578451E1,4.7992252E2,7.6023766E1,4.00132E2,1.7568602E2,4.7870686E1,1.0057573E2,3.239682E0,1.5111116E2,8.091645E1,1.8079214E1,1.3499238E1,3.813608E2,9.8561714E1,6.232926E1,1.3694505E1,1.1755696E2,2.82575E2,1.4386177E2,3.1824238E1,2.0772099E1,2.7098587E1,8.887615E1,1.1699581E1,7.4660126E1,7.6451035E1,5.770565E1,2.32108E1,1.4402906E1,3.6763084E0,7.9437847E0,5.555453E0,3.4379742E2,3.7563385E1,4.4473022E1,5.4088696E1,3.0372257E1,3.1957006E1,5.0066996E0,8.687805E0,5.5827057E1,6.1729908E1,2.7819244E2,4.382575E0,8.493704E1,5.8924736E1,5.3570166E0,2.646722E1,1.6801773E1,3.9703252E0,9.325012E0,1.7773575E1,7.421821E1,1.4657941E1,8.091459E0,3.6081219E0,6.3148186E1,1.151194E1,5.043551E1,2.601553E1,3.9624184E1,1.8081465E1,4.3591294E0,1.8851671E1,8.594422E0,5.8084836E0,3.2115662E0,4.7322187E0,1.7933977E2,1.6445766E2,2.8856665E1,8.706721E0,7.6968384E0,3.6776184E1,5.047933E1,3.6093655E0,3.3972075E0,2.6975048E1,2.0468388E1,1.148862E1,3.1980827E0,5.489723E0,5.1455303E1,4.371752E0,4.8968456E1,1.2761451E1,2.4473747E2,3.3454983E1,5.6875534E1,2.8061508E1,1.7540474E1,4.1384262E1,8.607985E0,1.7859236E1,7.37865E0,9.423123E0,3.392678E0,5.9323344E0,1.4686227E1,3.087348E0],"tree_param":{"num_deleted":"0","num_feature":"84","num_nodes":"109","size_leaf_vector":"1"}},{"base_weights":[1.9588927E-3,-8.1092143E-1,9.84649E-1,-1.3064665E-1,-1.0018495E0,1.281568E0,1.946821E-1,5.75286E-1,-5.9566927E-1,2.548838E-1,-1.0814875E0,9.771725E-1,1.5465525E0,-5.0253874E-1,5.606497E-1,7.4845153E-1,-2.3445827E-1,-1.2654464E0,-2.0000654E-1,-7.4148215E-2,1.6213638E0,-7.8886175E-1,-1.3448074E0,1.0863514E0,-3.4147286E-1,1.6002418E0,8.2259905E-1,-2.643361E-1,-1.5544809E0,2.1527104E-2,9.7039765E-1,-3.2791E-1,8.801636E-1,-1.336961E0,8.5616124E-1,-8.4738505E-1,-1.6701907E0,-4.266981E-1,8.4175575E-1,2.0115536E-2,-3.784657E-1,1.372912E-2,2.0246137E-2,-3.0385447E-1,-1.029466E0,-1.7529224E0,-1.1913174E0,1.4031513E0,8.254886E-1,1.6007515E-2,-1.0920252E0,1.6527438E0,1.0368636E0,1.7314897E0,1.6912599E-1,7.692898E-1,-4.8458543E-1,-7.408702E-3,-1.9973613E-2,2.4736397E-1,-1.57847E0,1.0621405E0,-8.900647E-3,7.727674E-3,-1.5291867E-2,1.4102407E-2,6.1629307E-3,-7.99708E-3,-2.0586768E-2,1.9656538E-3,1.7085819E-2,-1.4493395E-2,7.168087E-3,-1.980129E-2,-9.691386E-3,1.3401958E-2,-6.5760952E-3,1.7515207E-2,-4.1863034E-3,2.5571561E-3,-1.4495878E-2,-1.9948633E-2,-1.8761414E-3,-1.5421767E-2,-7.4077025E-3,-7.073606E-3,-1.923379E-2,-9.687631E-3,-1.5382235E-2,1.651992E-2,1.0275384E-2,-3.218761E-3,1.0043473E-2,3.7905918E-3,-1.675541E-2,1.4335965E-2,1.8545596E-2,3.72347E-3,1.867747E-2,1.6304241E-2,2.0040292E-2,-1.4380303E-2,1.6510092E-2,-1.0000957E-3,1.8201327E-2,-7.535393E-3,1.0283886E-2,5.765388E-3,-1.17973E-2,-2.012421E-2,-1.3450011E-2,4.787601E-3,1.4485536E-2],"categories":[],"categories_nodes":[],"categories_segments":[],"categories_sizes":[],"default_left":[0,1,1,0,1,0,0,1,0,0,0,0,0,0,0,0,0,0,0,1,1,0,0,0,0,0,0,0,0,0,0,0,1,0,0,0,0,0,0,0,0,0,0,0,0,0,0,1,0,0,1,1,0,0,1,0,0,0,0,0,0,0,0,0,0,0,0,0,0,0,0,0,0,0,0,0,0,0,0,0,0,0,0,0,0,0,0,0,0,0,0,0,0,0,0,0,0,0,0,0,0,0,0,0,0,0,0,0,0,0,0,0,0],"id":11,"left_children":[1,3,5,7,9,11,13,15,17,19,21,23,25,27,29,31,33,35,37,39,41,43,45,47,49,51,53,55,57,59,61,63,65,67,69,71,73,75,77,-1,79,-1,-1,81,83,85,87,89,91,-1,93,95,97,99,101,103,105,-1,-1,107,109,111,-1,-1,-1,-1,-1,-1,-1,-1,-1,-1,-1,-1,-1,-1,-1,-1,-1,-1,-1,-1,-1,-1,-1,-1,-1,-1,-1,-1,-1,-1,-1,-1,-1,-1,-1,-1,-1,-1,-1,-1,-1,-1,-1,-1,-1,-1,-1,-1,-1,-1,-1],"loss_changes":[1.2333317E3,1.0974902E2,1.6394739E2,6.0791805E1,6.603656E1,4.097406E1,4.8723076E1,1.031266E1,2.958474E1,1.7680056E1,4.780841E1,3.4039917E1,1.0553284E1,1.6467966E1,2.766145E1,8.590092E0,1.5580061E1,7.011986E0,1.6574783E1,1.8801863E1,6.891384E-1,3.4294342E1,2.0454285E1,1.804245E1,2.4887262E1,7.4750366E0,1.11367E1,1.22010355E1,3.223446E0,1.9539076E1,1.1751892E1,7.604944E0,7.168228E0,2.21632E0,3.2280478E0,1.5582375E1,2.8394928E0,1.8016981E1,1.2231091E1,0E0,1.6457241E1,0E0,0E0,1.9549616E1,2.7179703E1,3.9434204E0,1.6604095E1,6.016449E0,1.4958397E1,0E0,8.722169E0,5.5839233E0,1.0474049E1,2.220478E-1,2.2577671E1,7.5349135E0,1.3903934E1,0E0,0E0,1.8529104E1,6.4188004E-1,1.2023788E1,0E0,0E0,0E0,0E0,0E0,0E0,0E0,0E0,0E0,0E0,0E0,0E0,0E0,0E0,0E0,0E0,0E0,0E0,0E0,0E0,0E0,0E0,0E0,0E0,0E0,0E0,0E0,0E0,0E0,0E0,0E0,0E0,0E0,0E0,0E0,0E0,0E0,0E0,0E0,0E0,0E0,0E0,0E0,0E0,0E0,0E0,0E0,0E0,0E0,0E0,0E0],"parents":[2147483647,0,0,1,1,2,2,3,3,4,4,5,5,6,6,7,7,8,8,9,9,10,10,11,11,12,12,13,13,14,14,15,15,16,16,17,17,18,18,19,19,20,20,21,21,22,22,23,23,24,24,25,25,26,26,27,27,28,28,29,29,30,30,31,31,32,32,33,33,34,34,35,35,36,36,37,37,38,38,40,40,43,43,44,44,45,45,46,46,47,47,48,48,50,50,51,51,52,52,53,53,54,54,55,55,56,56,59,59,60,60,61,61],"right_children":[2,4,6,8,10,12,14,16,18,20,22,24,26,28,30,32,34,36,38,40,42,44,46,48,50,52,54,56,58,60,62,64,66,68,70,72,74,76,78,-1,80,-1,-1,82,84,86,88,90,92,-1,94,96,98,100,102,104,106,-1,-1,108,110,112,-1,-1,-1,-1,-1,-1,-1,-1,-1,-1,-1,-1,-1,-1,-1,-1,-1,-1,-1,-1,-1,-1,-1,-1,-1,-1,-1,-1,-1,-1,-1,-1,-1,-1,-1,-1,-1,-1,-1,-1,-1,-1,-1,-1,-1,-1,-1,-1,-1,-1,-1],"split_conditions":[1.607511E0,8.114641E0,1.0547631E0,3.52E2,4.0088722E-1,1.663285E0,2.4834049E0,8.118379E0,1.1819891E0,6.6639566E0,8.274162E0,8.704257E0,9.179882E0,9.533524E0,1.6813675E0,7.0353255E0,1.2271465E1,9.1793495E-1,-5.405673E-1,4.416448E-1,1.1548675E0,1.0938182E0,2.755021E0,2.9E2,1.3067442E-1,9.184656E-1,2.2575285E-1,4E1,9.1288155E-1,1.0071177E1,6.554686E-1,6.054463E-1,7.667361E0,3.4564116E0,1.4884343E0,1.1645594E0,6.87845E-1,1.2123966E0,7.8E1,2.0115536E-2,8.858424E0,1.372912E-2,2.0246137E-2,1.5259887E0,3.1077259E0,3.5658586E-1,9.774437E0,7.7526255E0,3.3026633E0,1.6007515E-2,1.0077438E1,2.1796694E0,6.1280513E0,1.1092248E1,-7.718495E-1,9.734359E0,1.9566799E0,-7.408702E-3,-1.9973613E-2,1.5205218E0,1.3812603E0,4.7020016E0,-8.900647E-3,7.727674E-3,-1.5291867E-2,1.4102407E-2,6.1629307E-3,-7.99708E-3,-2.0586768E-2,1.9656538E-3,1.7085819E-2,-1.4493395E-2,7.168087E-3,-1.980129E-2,-9.691386E-3,1.3401958E-2,-6.5760952E-3,1.7515207E-2,-4.1863034E-3,2.5571561E-3,-1.4495878E-2,-1.9948633E-2,-1.8761414E-3,-1.5421767E-2,-7.4077025E-3,-7.073606E-3,-1.923379E-2,-9.687631E-3,-1.5382235E-2,1.651992E-2,1.0275384E-2,-3.218761E-3,1.0043473E-2,3.7905918E-3,-1.675541E-2,1.4335965E-2,1.8545596E-2,3.72347E-3,1.867747E-2,1.6304241E-2,2.0040292E-2,-1.4380303E-2,1.6510092E-2,-1.0000957E-3,1.8201327E-2,-7.535393E-3,1.0283886E-2,5.765388E-3,-1.17973E-2,-2.012421E-2,-1.3450011E-2,4.787601E-3,1.4485536E-2],"split_indices":[10,44,80,11,80,71,0,77,73,43,68,3,15,24,49,45,26,19,74,64,81,80,23,11,63,39,79,59,65,76,5,20,46,75,21,49,63,73,22,0,15,0,0,33,43,79,24,77,13,0,46,51,13,2,74,4,49,0,0,40,29,52,0,0,0,0,0,0,0,0,0,0,0,0,0,0,0,0,0,0,0,0,0,0,0,0,0,0,0,0,0,0,0,0,0,0,0,0,0,0,0,0,0,0,0,0,0,0,0,0,0,0,0],"split_type":[0,0,0,0,0,0,0,0,0,0,0,0,0,0,0,0,0,0,0,0,0,0,0,0,0,0,0,0,0,0,0,0,0,0,0,0,0,0,0,0,0,0,0,0,0,0,0,0,0,0,0,0,0,0,0,0,0,0,0,0,0,0,0,0,0,0,0,0,0,0,0,0,0,0,0,0,0,0,0,0,0,0,0,0,0,0,0,0,0,0,0,0,0,0,0,0,0,0,0,0,0,0,0,0,0,0,0,0,0,0,0,0,0],"sum_hessian":[1.5439607E3,8.449873E2,6.989734E2,1.8518408E2,6.598032E2,5.0802438E2,1.9094897E2,7.3541565E1,1.1164251E2,3.931876E1,6.2048444E2,2.364333E2,2.7159106E2,6.572703E1,1.25221954E2,6.058615E1,1.2955414E1,4.145823E1,7.018428E1,3.168869E1,7.6300697E0,2.9389124E2,3.265932E2,2.1835509E2,1.8078217E1,2.5283821E2,1.8752867E1,5.3593155E1,1.2133872E1,5.407546E1,7.11465E1,6.604693E0,5.3981457E1,6.442885E0,6.512529E0,2.0395859E1,2.106237E1,5.764235E1,1.2541934E1,4.277348E0,2.7411343E1,3.3484015E0,4.281668E0,9.745263E1,1.9643861E2,8.925602E1,2.3733719E2,9.8602455E1,1.1975264E2,5.249321E0,1.2828896E1,2.312817E2,2.1556517E1,7.842471E0,1.0910396E1,9.41289E0,4.4180264E1,3.1899343E0,8.943937E0,4.7387936E1,6.687522E0,6.769743E1,3.4490626E0,3.378222E0,3.226471E0,2.2277302E1,3.1704155E1,3.199024E0,3.243861E0,3.4052904E0,3.1072388E0,1.5306949E1,5.0889106E0,1.7126186E1,3.936183E0,5.7689614E0,5.1873386E1,7.637069E0,4.9048653E0,1.6776217E1,1.0635125E1,7.4546156E0,8.999802E1,8.90567E1,1.0738191E2,3.1845624E0,8.607146E1,1.08588165E2,1.2874904E2,7.537017E1,2.3232285E1,1.0745409E1,1.0900723E2,3.148744E0,9.680151E0,4.50523E1,1.8622939E2,1.089494E1,1.0661575E1,3.0921228E0,4.750348E0,5.190387E0,5.7200093E0,4.8779454E0,4.5349455E0,3.8383865E1,5.796398E0,3.8990887E1,8.39705E0,3.4826603E0,3.2048614E0,2.1600115E1,4.609732E1],"tree_param":{"num_deleted":"0","num_feature":"84","num_nodes":"113","size_leaf_vector":"1"}},{"base_weights":[4.265655E-3,-7.9817045E-1,9.7576946E-1,-3.522903E-1,-1.092416E0,1.2846837E0,2.533386E-1,4.2832348E-1,-6.988866E-1,-1.3492924E-1,-1.1966954E0,9.856902E-1,1.5642098E0,-4.3793413E-1,5.19415E-1,-4.4238694E-2,7.5784373E-1,-1.0026983E0,-1.8871677E-1,-4.0110916E-1,1.2824161E0,-1.6705278E0,-1.0462822E0,1.1688567E0,2.5271282E-1,1.6205399E0,8.5111016E-1,-1.460239E-1,-1.5441765E0,6.350253E-1,-1.1321424E0,1.2391798E0,-5.226255E-1,9.570688E-1,-7.751783E-2,-7.501377E-1,-1.5054365E0,4.2846635E-1,-6.88762E-1,1.8536517E-2,-5.9936106E-1,2.012787E-2,4.1421396E-3,-1.7312616E0,-9.709746E-1,-7.992017E-1,-1.3341391E0,1.4445794E0,8.086596E-1,1.0661622E0,-4.158531E-1,1.6457204E0,5.144185E-3,-8.944004E-3,1.2040957E0,1.3574232E0,-4.0344763E-1,-7.4319877E-3,-1.8480186E0,2.8051358E-1,1.0551795E0,-2.1692358E-3,-2.0160964E-2,2.0446738E-2,1.6064938E-3,3.1740174E-3,-1.4488011E-2,1.2786351E-2,1.7142751E-3,-1.0106217E-2,1.3704397E-2,-1.5169471E-2,-4.795603E-3,-1.7198376E-2,-2.189277E-3,7.0831315E-3,-1.2447497E-2,-3.8913118E-3,-2.0297766E-2,2.5378964E-3,-1.0553977E-2,-1.1157664E-2,-1.8943068E-2,2.352168E-3,-1.9375257E-2,8.041555E-3,-9.57243E-3,7.700641E-3,-1.492126E-2,1.8261118E-3,1.6039858E-2,1.523937E-4,1.106927E-2,1.6923172E-2,5.3798994E-3,1.1099479E-2,-1.1902493E-2,1.4171916E-2,1.8500771E-2,1.8614482E-2,4.178186E-3,2.1126984E-2,8.065672E-3,5.1645697E-3,-9.3516605E-3,-2.020866E-2,-1.9535977E-2,9.554792E-3,-3.486117E-3,5.582726E-3,1.6022515E-2],"categories":[],"categories_nodes":[],"categories_segments":[],"categories_sizes":[],"default_left":[0,1,1,0,1,0,0,0,0,0,0,1,0,0,0,0,0,0,0,0,0,0,0,1,0,0,0,0,0,0,0,1,0,1,0,0,0,0,0,0,0,0,0,0,0,0,0,0,0,0,0,1,0,0,0,0,0,0,0,0,0,0,0,0,0,0,0,0,0,0,0,0,0,0,0,0,0,0,0,0,0,0,0,0,0,0,0,0,0,0,0,0,0,0,0,0,0,0,0,0,0,0,0,0,0,0,0,0,0,0,0],"id":12,"left_children":[1,3,5,7,9,11,13,15,17,19,21,23,25,27,29,31,33,35,37,39,41,43,45,47,49,51,53,55,57,59,61,63,65,67,69,71,73,75,77,-1,79,-1,-1,81,83,85,87,89,91,93,95,97,-1,-1,99,101,103,-1,105,107,109,-1,-1,-1,-1,-1,-1,-1,-1,-1,-1,-1,-1,-1,-1,-1,-1,-1,-1,-1,-1,-1,-1,-1,-1,-1,-1,-1,-1,-1,-1,-1,-1,-1,-1,-1,-1,-1,-1,-1,-1,-1,-1,-1,-1,-1,-1,-1,-1,-1,-1],"loss_changes":[1.2020975E3,1.1079297E2,1.5566339E2,9.083639E1,5.0795227E1,4.0831726E1,3.842846E1,1.6075823E1,3.6035995E1,1.8850805E1,3.2693787E1,3.1693954E1,1.0140137E1,1.874955E1,2.8805141E1,2.6038935E1,1.0123127E1,1.8499939E1,2.678315E1,1.7759785E1,4.2052546E0,4.6929626E0,2.4765533E1,1.8755585E1,2.567137E1,6.720703E0,1.0998625E1,1.7781403E1,3.1322384E0,2.0999435E1,6.8595953E0,8.36912E0,2.0947763E1,9.204796E0,1.3728162E1,1.952068E1,6.2211456E0,1.4317586E1,1.880809E1,0E0,1.2377977E1,0E0,0E0,2.4551697E0,8.787004E0,2.7092812E1,1.885553E1,6.9483185E0,1.4536907E1,6.149769E0,2.6083914E1,5.8841553E0,0E0,0E0,6.61635E0,2.4868307E0,1.6265928E1,0E0,2.7313232E-3,2.8266201E1,1.5133247E1,0E0,0E0,0E0,0E0,0E0,0E0,0E0,0E0,0E0,0E0,0E0,0E0,0E0,0E0,0E0,0E0,0E0,0E0,0E0,0E0,0E0,0E0,0E0,0E0,0E0,0E0,0E0,0E0,0E0,0E0,0E0,0E0,0E0,0E0,0E0,0E0,0E0,0E0,0E0,0E0,0E0,0E0,0E0,0E0,0E0,0E0,0E0,0E0,0E0,0E0],"parents":[2147483647,0,0,1,1,2,2,3,3,4,4,5,5,6,6,7,7,8,8,9,9,10,10,11,11,12,12,13,13,14,14,15,15,16,16,17,17,18,18,19,19,20,20,21,21,22,22,23,23,24,24,25,25,26,26,27,27,28,28,29,29,30,30,31,31,32,32,33,33,34,34,35,35,36,36,37,37,38,38,40,40,43,43,44,44,45,45,46,46,47,47,48,48,49,49,50,50,51,51,54,54,55,55,56,56,58,58,59,59,60,60],"right_children":[2,4,6,8,10,12,14,16,18,20,22,24,26,28,30,32,34,36,38,40,42,44,46,48,50,52,54,56,58,60,62,64,66,68,70,72,74,76,78,-1,80,-1,-1,82,84,86,88,90,92,94,96,98,-1,-1,100,102,104,-1,106,108,110,-1,-1,-1,-1,-1,-1,-1,-1,-1,-1,-1,-1,-1,-1,-1,-1,-1,-1,-1,-1,-1,-1,-1,-1,-1,-1,-1,-1,-1,-1,-1,-1,-1,-1,-1,-1,-1,-1,-1,-1,-1,-1,-1,-1,-1,-1,-1,-1,-1,-1],"split_conditions":[1.607511E0,8.678166E0,7.631755E-1,3.52E2,3.606079E-1,1.6810468E0,2.3493977E0,1.3262823E0,1.4228951E0,6.6639566E0,2.9002185E0,1.0023603E1,9.179882E0,9.395404E0,6.8921953E-1,2.3316379E-1,3.8E1,1.3467162E0,7.4520345E0,9.4875345E0,1.0248814E1,2.1008067E0,9.774437E0,2.2813165E-1,3.1454077E-1,3.7341464E-1,1.1870173E1,2.503259E-1,9.1288155E-1,1.8294135E0,7.3599114E0,4.367319E-1,8.928654E0,9.4643766E-1,1.1662648E0,1.0863637E0,4.28643E0,7.6508236E0,1.0739342E0,1.8536517E-2,4.6042335E-1,2.012787E-2,4.1421396E-3,7.2732263E0,8.322049E0,3.4149295E-1,7.0633388E0,8.399735E0,3.667772E0,7.993692E0,7.556354E0,2.1796694E0,5.144185E-3,-8.944004E-3,1.06883135E1,9.9776405E-1,3.8409346E-1,-7.4319877E-3,9.694399E0,1.4387658E0,4.841453E0,-2.1692358E-3,-2.0160964E-2,2.0446738E-2,1.6064938E-3,3.1740174E-3,-1.4488011E-2,1.2786351E-2,1.7142751E-3,-1.0106217E-2,1.3704397E-2,-1.5169471E-2,-4.795603E-3,-1.7198376E-2,-2.189277E-3,7.0831315E-3,-1.2447497E-2,-3.8913118E-3,-2.0297766E-2,2.5378964E-3,-1.0553977E-2,-1.1157664E-2,-1.8943068E-2,2.352168E-3,-1.9375257E-2,8.041555E-3,-9.57243E-3,7.700641E-3,-1.492126E-2,1.8261118E-3,1.6039858E-2,1.523937E-4,1.106927E-2,1.6923172E-2,5.3798994E-3,1.1099479E-2,-1.1902493E-2,1.4171916E-2,1.8500771E-2,1.8614482E-2,4.178186E-3,2.1126984E-2,8.065672E-3,5.1645697E-3,-9.3516605E-3,-2.020866E-2,-1.9535977E-2,9.554792E-3,-3.486117E-3,5.582726E-3,1.6022515E-2],"split_indices":[10,44,79,11,79,71,33,10,42,43,1,44,15,2,5,41,59,39,77,37,14,12,24,63,6,5,4,63,65,21,61,79,46,48,47,49,75,68,9,0,41,0,0,61,68,70,25,26,13,61,45,51,0,0,77,72,5,0,24,8,13,0,0,0,0,0,0,0,0,0,0,0,0,0,0,0,0,0,0,0,0,0,0,0,0,0,0,0,0,0,0,0,0,0,0,0,0,0,0,0,0,0,0,0,0,0,0,0,0,0,0],"split_type":[0,0,0,0,0,0,0,0,0,0,0,0,0,0,0,0,0,0,0,0,0,0,0,0,0,0,0,0,0,0,0,0,0,0,0,0,0,0,0,0,0,0,0,0,0,0,0,0,0,0,0,0,0,0,0,0,0,0,0,0,0,0,0,0,0,0,0,0,0,0,0,0,0,0,0,0,0,0,0,0,0,0,0,0,0,0,0,0,0,0,0,0,0,0,0,0,0,0,0,0,0,0,0,0,0,0,0,0,0,0,0],"sum_hessian":[1.5419995E3,8.444805E2,6.97519E2,3.357349E2,5.087456E2,4.8859293E2,2.0892604E2,1.0323151E2,2.325034E2,4.9966442E1,4.5877917E2,2.3607893E2,2.5251399E2,5.80659E1,1.5086015E2,4.2409977E1,6.082153E1,1.4572198E2,8.678142E1,4.2067295E1,7.899146E0,1.1054047E2,3.482387E2,1.888779E2,4.7201035E1,2.3402536E2,1.8488623E1,4.5944057E1,1.2121842E1,1.4099162E2,9.8685255E0,1.1514855E1,3.089512E1,4.9110126E1,1.1711404E1,9.699718E1,4.87248E1,3.884066E1,4.794076E1,3.5819988E0,3.8485294E1,4.748449E0,3.1506975E0,1.01708015E2,8.832451E0,1.8739507E2,1.6084364E2,1.0698137E2,8.189652E1,2.1293629E1,2.5907404E1,2.2897073E2,5.054633E0,3.201617E0,1.5287006E1,6.715638E0,3.9228416E1,3.1901054E0,8.931737E0,7.647117E1,6.4520454E1,4.399256E0,5.469269E0,7.1400504E0,4.374805E0,1.55380125E1,1.5357108E1,3.792365E1,1.1186477E1,7.150034E0,4.5613704E0,3.038267E1,6.661451E1,4.530703E1,3.4177704E0,3.3893967E1,4.9466934E0,3.772758E1,1.0213181E1,1.2127858E1,2.6357437E1,4.905062E0,9.680295E1,3.6428268E0,5.189624E0,1.0648709E1,1.7674635E2,4.3551226E0,1.5648853E2,4.1158924E0,1.0286548E2,1.797833E1,6.3918194E1,1.1167427E1,1.0126202E1,8.382034E0,1.752537E1,4.498712E1,1.8398361E2,9.249357E0,6.037649E0,3.3367076E0,3.3789303E0,1.3578017E1,2.56504E1,3.7337837E0,5.197953E0,3.8084595E1,3.8386574E1,2.9084122E1,3.5436333E1],"tree_param":{"num_deleted":"0","num_feature":"84","num_nodes":"111","size_leaf_vector":"1"}},{"base_weights":[3.3231408E-3,-7.8894883E-1,9.6495837E-1,-3.4896117E-1,-1.0782254E0,1.2745299E0,2.4146233E-1,4.061396E-1,-6.878317E-1,-1.04996614E-1,-1.1866148E0,9.883021E-1,1.5399126E0,-5.109591E-1,5.002056E-1,4.7978416E-1,-2.0240692E-2,-9.799716E-1,-1.3780928E-1,-3.8103834E-1,1.3059045E0,-1.6010019E0,-1.0193834E0,1.1649232E0,2.5276554E-1,1.5943309E0,8.666872E-1,-2.27838E-1,-1.5298676E0,1.0420634E0,1.04531944E-1,3.2726553E-1,1.6425967E0,-7.407595E-1,-1.4659822E0,2.2996306E-1,-1.0315639E0,1.8493582E-2,-6.01581E-1,1.9940877E-2,6.2411893E-3,-1.6613109E0,-7.321792E-1,-7.5310236E-1,-1.322485E0,1.5548383E0,9.0189385E-1,1.1548239E0,-3.6004815E-1,1.6231599E0,3.7356268E-3,-8.847273E-3,1.210842E0,6.634403E-1,-6.4331496E-1,-7.3861615E-3,-1.847896E0,1.5254252E0,6.387411E-1,-2.8767288E-1,9.722311E-1,1.4011454E-2,1.988363E-3,2.0336889E-2,1.2535679E-2,-1.5891986E-2,-5.107909E-3,-1.777196E-2,-3.8540082E-3,-1.9977784E-3,1.2459475E-2,6.486476E-3,-1.5073586E-2,2.058973E-3,-1.0450588E-2,-1.0815833E-2,-1.824484E-2,6.283272E-3,-1.601454E-2,7.967967E-3,-9.122012E-3,7.68641E-3,-1.4824311E-2,3.0194842E-3,1.7262165E-2,-4.812861E-4,1.17829675E-2,1.1950876E-3,1.490749E-2,1.1405892E-2,-1.1266237E-2,1.3997161E-2,1.8229963E-2,1.848946E-2,4.134522E-3,1.6494881E-2,-6.5871887E-3,4.9491104E-4,-1.2426025E-2,-2.0485645E-2,-1.9397276E-2,1.808948E-2,1.0387614E-2,-5.6593763E-3,1.0086657E-2,-1.3511117E-2,5.7620567E-4,1.8346504E-3,1.8538918E-2],"categories":[],"categories_nodes":[],"categories_segments":[],"categories_sizes":[],"default_left":[0,1,1,0,1,0,0,0,0,0,0,1,0,0,0,0,0,0,0,0,0,0,0,1,0,0,0,0,0,0,0,0,1,0,0,0,0,0,0,0,0,0,0,0,0,0,0,0,0,1,0,0,0,0,0,0,0,0,0,0,0,0,0,0,0,0,0,0,0,0,0,0,0,0,0,0,0,0,0,0,0,0,0,0,0,0,0,0,0,0,0,0,0,0,0,0,0,0,0,0,0,0,0,0,0,0,0,0,0],"id":13,"left_children":[1,3,5,7,9,11,13,15,17,19,21,23,25,27,29,31,-1,33,35,37,39,41,43,45,47,49,51,53,55,57,59,61,63,65,67,69,71,-1,73,-1,-1,75,77,79,81,83,85,87,89,91,-1,-1,93,95,97,-1,99,101,103,105,107,-1,-1,-1,-1,-1,-1,-1,-1,-1,-1,-1,-1,-1,-1,-1,-1,-1,-1,-1,-1,-1,-1,-1,-1,-1,-1,-1,-1,-1,-1,-1,-1,-1,-1,-1,-1,-1,-1,-1,-1,-1,-1,-1,-1,-1,-1,-1,-1],"loss_changes":[1.1755061E3,1.0766919E2,1.5609937E2,8.5864975E1,5.3838196E1,3.7073242E1,4.0660854E1,1.7555355E1,3.7216476E1,1.9919983E1,3.1820984E1,3.050621E1,9.275696E0,1.54151325E1,3.3319313E1,1.7859219E1,0E0,1.7584091E1,2.6411476E1,1.9863457E1,3.3501415E0,6.915741E0,2.6405731E1,1.9417694E1,2.5138138E1,8.415405E0,1.1030138E1,1.5487765E1,3.105503E0,1.27840805E1,3.0569492E1,1.2366867E1,1.3987598E0,1.9867462E1,1.0548172E1,2.2078323E1,1.4333538E1,0E0,1.1457829E1,0E0,0E0,3.207672E0,8.60057E0,2.5390472E1,1.864038E1,5.309723E0,2.1065872E1,4.5122166E0,2.6613834E1,5.57605E0,0E0,0E0,6.6646423E0,1.4859231E1,1.013572E1,0E0,1.47304535E-2,2.6752243E0,1.2585704E1,2.0531612E1,1.6942516E1,0E0,0E0,0E0,0E0,0E0,0E0,0E0,0E0,0E0,0E0,0E0,0E0,0E0,0E0,0E0,0E0,0E0,0E0,0E0,0E0,0E0,0E0,0E0,0E0,0E0,0E0,0E0,0E0,0E0,0E0,0E0,0E0,0E0,0E0,0E0,0E0,0E0,0E0,0E0,0E0,0E0,0E0,0E0,0E0,0E0,0E0,0E0,0E0],"parents":[2147483647,0,0,1,1,2,2,3,3,4,4,5,5,6,6,7,7,8,8,9,9,10,10,11,11,12,12,13,13,14,14,15,15,17,17,18,18,19,19,20,20,21,21,22,22,23,23,24,24,25,25,26,26,27,27,28,28,29,29,30,30,31,31,32,32,33,33,34,34,35,35,36,36,38,38,41,41,42,42,43,43,44,44,45,45,46,46,47,47,48,48,49,49,52,52,53,53,54,54,56,56,57,57,58,58,59,59,60,60],"right_children":[2,4,6,8,10,12,14,16,18,20,22,24,26,28,30,32,-1,34,36,38,40,42,44,46,48,50,52,54,56,58,60,62,64,66,68,70,72,-1,74,-1,-1,76,78,80,82,84,86,88,90,92,-1,-1,94,96,98,-1,100,102,104,106,108,-1,-1,-1,-1,-1,-1,-1,-1,-1,-1,-1,-1,-1,-1,-1,-1,-1,-1,-1,-1,-1,-1,-1,-1,-1,-1,-1,-1,-1,-1,-1,-1,-1,-1,-1,-1,-1,-1,-1,-1,-1,-1,-1,-1,-1,-1,-1,-1],"split_conditions":[1.607511E0,8.678166E0,7.631755E-1,3.52E2,3.606079E-1,1.6810468E0,2.3167522E0,5.681559E-1,1.399191E0,6.6639566E0,2.9320712E0,1.0023603E1,9.179882E0,9.448703E0,8.374943E0,7.036694E-1,-2.0240692E-2,1.3467162E0,9.8989135E-1,9.4875345E0,1.0248814E1,1.4819194E0,9.74527E0,1.8572533E-1,1.4933664E-1,3.7341464E-1,1.1870173E1,3.61E2,9.1288155E-1,5.407431E-1,3.6210318E0,2.587313E-1,9.2367965E-1,1.0568999E0,1.4103725E0,1.5449225E0,7.1350102E0,1.8493582E-2,4.6042335E-1,1.9940877E-2,6.2411893E-3,1.9491878E-1,1.5163033E0,3.4149295E-1,7.0633388E0,8.435691E0,3.667772E0,-1.3550814E0,7.556354E0,2.1796694E0,3.7356268E-3,-8.847273E-3,1.06883135E1,1.8362426E0,1.3148813E0,-7.3861615E-3,9.687038E0,1.5974487E0,8.2050997E-1,7.2451887E0,1.8317926E0,1.4011454E-2,1.988363E-3,2.0336889E-2,1.2535679E-2,-1.5891986E-2,-5.107909E-3,-1.777196E-2,-3.8540082E-3,-1.9977784E-3,1.2459475E-2,6.486476E-3,-1.5073586E-2,2.058973E-3,-1.0450588E-2,-1.0815833E-2,-1.824484E-2,6.283272E-3,-1.601454E-2,7.967967E-3,-9.122012E-3,7.68641E-3,-1.4824311E-2,3.0194842E-3,1.7262165E-2,-4.812861E-4,1.17829675E-2,1.1950876E-3,1.490749E-2,1.1405892E-2,-1.1266237E-2,1.3997161E-2,1.8229963E-2,1.848946E-2,4.134522E-3,1.6494881E-2,-6.5871887E-3,4.9491104E-4,-1.2426025E-2,-2.0485645E-2,-1.9397276E-2,1.808948E-2,1.0387614E-2,-5.6593763E-3,1.0086657E-2,-1.3511117E-2,5.7620567E-4,1.8346504E-3,1.8538918E-2],"split_indices":[10,44,79,11,79,71,33,38,66,43,52,44,15,76,67,6,0,39,41,37,14,66,24,28,28,5,4,11,65,28,0,20,79,49,42,42,77,0,41,0,0,5,66,70,25,26,13,74,45,51,0,0,77,42,82,0,2,47,6,15,58,0,0,0,0,0,0,0,0,0,0,0,0,0,0,0,0,0,0,0,0,0,0,0,0,0,0,0,0,0,0,0,0,0,0,0,0,0,0,0,0,0,0,0,0,0,0,0,0],"split_type":[0,0,0,0,0,0,0,0,0,0,0,0,0,0,0,0,0,0,0,0,0,0,0,0,0,0,0,0,0,0,0,0,0,0,0,0,0,0,0,0,0,0,0,0,0,0,0,0,0,0,0,0,0,0,0,0,0,0,0,0,0,0,0,0,0,0,0,0,0,0,0,0,0,0,0,0,0,0,0,0,0,0,0,0,0,0,0,0,0,0,0,0,0,0,0,0,0,0,0,0,0,0,0,0,0,0,0,0,0],"sum_hessian":[1.5429069E3,8.459472E2,6.9695966E2,3.355629E2,5.1038434E2,4.881058E2,2.0885384E2,1.0394376E2,2.3161911E2,5.114675E1,4.5923758E2,2.3483354E2,2.5327226E2,5.3441845E1,1.5541199E2,1.0071078E2,3.2329926E0,1.5127077E2,8.034835E1,4.2778374E1,8.368379E0,1.3204004E2,3.2719754E2,1.8936143E2,4.5472103E1,2.3432861E2,1.8943655E1,4.1822544E1,1.1619299E1,6.5588295E1,8.98237E1,8.9034454E1,1.1676321E1,1.0137717E2,4.98936E1,5.6924225E1,2.3424124E1,4.055335E0,3.872304E1,4.741616E0,3.6267624E0,1.2346788E2,8.572169E0,1.7418121E2,1.5301633E2,7.627868E1,1.13082756E2,1.8395145E1,2.707696E1,2.290287E2,5.2999086E0,3.2019162E0,1.5741739E1,1.3296513E1,2.8526031E1,3.1891642E0,8.430135E0,2.9831911E1,3.5756386E1,6.186155E1,2.7962147E1,1.1266006E1,7.776845E1,7.6024213E0,4.0738997E0,2.6665316E1,7.4711845E1,4.2546215E1,7.3473864E0,3.9346935E1,1.7577293E1,4.3562717E0,1.9067852E1,1.2377099E1,2.634594E1,7.1036983E0,1.1636418E2,3.1374469E0,5.4347224E0,1.0649701E1,1.6353152E2,4.3542285E0,1.486621E2,3.1420283E0,7.313665E1,1.945613E1,9.3626625E1,3.384118E0,1.5011026E1,8.842809E0,1.823415E1,4.445871E1,1.8456999E2,9.705748E0,6.035991E0,7.8937025E0,5.4028106E0,1.2200647E1,1.6325384E1,3.2408705E0,5.1892643E0,2.3131338E1,6.700574E0,7.3480487E0,2.8408335E1,1.6078745E1,4.5782806E1,1.3579678E1,1.4382469E1],"tree_param":{"num_deleted":"0","num_feature":"84","num_nodes":"109","size_leaf_vector":"1"}},{"base_weights":[3.5604322E-3,-7.7957934E-1,9.5365864E-1,-3.370974E-1,-1.0681055E0,1.2593178E0,2.4162465E-1,4.0152922E-1,-6.6959184E-1,2.1806505E-1,-1.1528319E0,9.668761E-1,1.5320458E0,3.9182734E-1,-1.0431366E0,-5.9365608E-2,7.1355164E-1,-8.7792E-1,9.2765756E-2,1.1771265E0,-2.9710233E-1,-1.2838421E0,-6.4774066E-1,1.1493723E0,2.3281637E-1,1.1697732E0,1.6280746E0,1.5676524E-1,1.2197833E0,-1.5426189E0,1.6461583E-2,9.0028447E-1,-7.429836E-1,1.1948388E0,3.1642193E-1,-6.617254E-1,-1.3252314E0,5.628581E-1,-8.0065334E-1,1.5917309E-3,1.8543937E0,-7.926251E-1,1.1217094E-2,-1.3642322E0,-5.5952126E-1,-1.5676314E-1,-1.0500673E0,1.5275158E0,8.9255774E-1,1.0315696E0,-4.0863416E-1,1.4437758E0,5.212379E-1,1.6488459E0,7.953064E-3,5.634702E-1,-1.7925996E-1,8.149227E-1,1.6669128E0,-1.8443277E0,-5.5311634E-3,4.193862E-3,2.0741178E-2,5.494452E-3,-1.4841828E-2,9.295259E-3,2.0709667E-2,-7.016366E-4,1.3709434E-2,-1.1778137E-2,-3.4235623E-3,-1.559177E-2,2.8932807E-3,-7.5610084E-3,9.243478E-3,