{"learner":{"attributes":{"scikit_learn":"{\"_estimator_type\": \"classifier\"}"},"feature_names":[],"feature_types":[],"gradient_booster":{"model":{"cats":{"enc":[],"feature_segments":[],"sorted_idx":[]},"gbtree_model_param":{"num_parallel_tree":"1","num_trees":"13"},"iteration_indptr":[0,1,2,3,4,5,6,7,8,9,10,11,12,13],"tree_info":[0,0,0,0,0,0,0,0,0,0,0,0,0],"trees":[{"base_weights":[-1.1083296E-2,-8.897697E-1,5.587876E-1,-2.2031252E-1,-1.1874808E0,1.1003273E0,1.0085303E-1,4.1354984E-2,-3.87066E-1,-1.4009246E0,-8.0053174E-1,2.9019088E-1,1.2533332E0,-1.9750036E-1,8.257325E-1,-8.1180924E-1,3.435471E-1,-2.799757E-1,-1.4987679E0,-2.0686053E-2,-1.0272871E0,4.0234283E-2,-9.9913396E-2,7.232456E-1,1.4635297E0,9.8289825E-2,-6.5212214E-1,1.1486222E0,4.6116937E-2,-9.774832E-1,1.5313532E-2,7.800587E-1,-3.0141646E-2,-3.88373E-2,2.0694135E-2,-1.5693023E0,-7.8495627E-4,-6.2310183E-1,3.2144878E-2,-6.4474577E-1,-1.5316142E0,3.269772E-2,-6.537508E-1,1.3482822E0,2.377886E-1,1.6043391E0,5.861365E-1,2.6678196E-1,-7.869309E-1,-9.0467966E-1,9.118058E-3,9.3400484E-1,5.5028863E-2,-3.9111897E-1,4.20693E-2,-2.7816528E-3,-3.7992775E-2,3.6427755E-2,-9.868284E-4,-4.4170655E-2,-5.6810122E-2,-4.982792E-2,1.4102578E-2,-3.5666943E-2,-5.041174E-3,-5.664552E-2,-3.416244E-2,-3.4648787E-2,6.5862387E-3,6.0130537E-2,3.0479936E-2,2.5635445E-2,-1.8160217E-2,2.4212265E-2,5.150373E-2,4.7841534E-2,-4.5775175E-3,-1.8788563E-2,1.14584435E-2,-3.9682765E-2,2.352757E-3,-1.0702496E-2,-4.1224197E-2,-3.800423E-2,1.5010425E-2,3.4911986E-2,9.889677E-4,-4.8984434E-2,5.969042E-3],"categories":[],"categories_nodes":[],"categories_segments":[],"categories_sizes":[],"default_left":[0,1,0,0,0,0,0,0,1,0,0,1,0,1,1,1,1,0,0,0,0,0,0,0,1,0,0,0,0,1,0,0,0,0,0,0,0,0,0,0,0,0,0,0,0,0,1,0,0,0,0,0,0,0,0,0,0,0,0,0,0,0,0,0,0,0,0,0,0,0,0,0,0,0,0,0,0,0,0,0,0,0,0,0,0,0,0,0,0],"id":0,"left_children":[1,3,5,7,9,11,13,-1,15,17,19,21,23,25,27,29,31,33,35,37,39,-1,41,43,45,47,49,51,53,55,-1,57,-1,-1,-1,59,-1,61,-1,63,65,-1,67,69,71,73,75,77,79,81,83,85,-1,87,-1,-1,-1,-1,-1,-1,-1,-1,-1,-1,-1,-1,-1,-1,-1,-1,-1,-1,-1,-1,-1,-1,-1,-1,-1,-1,-1,-1,-1,-1,-1,-1,-1,-1,-1],"loss_changes":[4.9018158E2,7.646225E1,1.4696063E2,3.0888367E1,2.1409302E1,3.333673E1,6.978121E1,0E0,3.3558113E1,1.836914E1,1.6663612E1,1.7509867E1,2.486325E1,3.0780695E1,2.3452057E1,1.4981113E1,2.2892345E1,1.3382719E1,1.6029114E1,1.40119095E1,1.3652023E1,0E0,2.0274473E1,1.949236E1,1.9588165E1,2.052128E1,1.5229015E1,8.298424E0,1.6354824E1,1.3514652E1,0E0,9.993389E0,0E0,0E0,0E0,4.556671E0,0E0,1.5533747E1,0E0,1.01761875E1,3.204605E0,0E0,8.997731E0,5.289917E0,1.8385723E1,7.0219727E0,1.6622324E1,1.069419E1,9.727177E0,1.5406364E1,1.4714729E1,8.775955E0,0E0,1.5003984E1,0E0,0E0,0E0,0E0,0E0,0E0,0E0,0E0,0E0,0E0,0E0,0E0,0E0,0E0,0E0,0E0,0E0,0E0,0E0,0E0,0E0,0E0,0E0,0E0,0E0,0E0,0E0,0E0,0E0,0E0,0E0,0E0,0E0,0E0,0E0],"parents":[2147483647,0,0,1,1,2,2,3,3,4,4,5,5,6,6,8,8,9,9,10,10,11,11,12,12,13,13,14,14,15,15,16,16,17,17,18,18,19,19,20,20,22,22,23,23,24,24,25,25,26,26,27,27,28,28,29,29,31,31,35,35,37,37,39,39,40,40,42,42,43,43,44,44,45,45,46,46,47,47,48,48,49,49,50,50,51,51,53,53],"right_children":[2,4,6,8,10,12,14,-1,16,18,20,22,24,26,28,30,32,34,36,38,40,-1,42,44,46,48,50,52,54,56,-1,58,-1,-1,-1,60,-1,62,-1,64,66,-1,68,70,72,74,76,78,80,82,84,86,-1,88,-1,-1,-1,-1,-1,-1,-1,-1,-1,-1,-1,-1,-1,-1,-1,-1,-1,-1,-1,-1,-1,-1,-1,-1,-1,-1,-1,-1,-1,-1,-1,-1,-1,-1,-1],"split_conditions":[1.5559703E0,9.078982E-1,5.163491E-1,6.7826755E-2,1.1332029E0,3.6084578E0,3.208255E0,4.1354984E-2,1.3891156E0,7.5667944E0,1.3583717E0,8.196225E-1,1.8111981E0,8.855326E0,8.016685E0,1.1962348E1,8.70966E0,8.476475E0,3.5417109E0,1.347754E0,8.057383E0,4.0234283E-2,1.4666538E0,8.691644E0,1.1050608E1,1.5870252E0,1.858467E0,1.8672016E0,2.0027585E0,8.7771094E-1,1.5313532E-2,9.774368E-1,-3.0141646E-2,-3.88373E-2,2.0694135E-2,1.1033931E0,-7.8495627E-4,1.2142329E0,3.2144878E-2,1.4754199E0,1.4571177E0,3.269772E-2,1.9787294E0,1.402586E0,1.1134094E0,1.6788703E0,3.958352E-1,1.5741233E0,1.4932783E0,1.3989952E0,9.542029E0,1.6768262E0,5.5028863E-2,3.5417109E0,4.20693E-2,-2.7816528E-3,-3.7992775E-2,3.6427755E-2,-9.868284E-4,-4.4170655E-2,-5.6810122E-2,-4.982792E-2,1.4102578E-2,-3.5666943E-2,-5.041174E-3,-5.664552E-2,-3.416244E-2,-3.4648787E-2,6.5862387E-3,6.0130537E-2,3.0479936E-2,2.5635445E-2,-1.8160217E-2,2.4212265E-2,5.150373E-2,4.7841534E-2,-4.5775175E-3,-1.8788563E-2,1.14584435E-2,-3.9682765E-2,2.352757E-3,-1.0702496E-2,-4.1224197E-2,-3.800423E-2,1.5010425E-2,3.4911986E-2,9.889677E-4,-4.8984434E-2,5.969042E-3],"split_indices":[8,53,17,7,31,34,21,0,44,28,26,49,8,28,46,15,29,47,0,26,46,0,27,40,28,53,26,31,54,33,0,19,0,0,0,42,0,31,0,54,44,0,0,6,7,21,53,21,37,12,47,12,0,0,0,0,0,0,0,0,0,0,0,0,0,0,0,0,0,0,0,0,0,0,0,0,0,0,0,0,0,0,0,0,0,0,0,0,0],"split_type":[0,0,0,0,0,0,0,0,0,0,0,0,0,0,0,0,0,0,0,0,0,0,0,0,0,0,0,0,0,0,0,0,0,0,0,0,0,0,0,0,0,0,0,0,0,0,0,0,0,0,0,0,0,0,0,0,0,0,0,0,0,0,0,0,0,0,0,0,0,0,0,0,0,0,0,0,0,0,0,0,0,0,0,0,0,0,0,0,0],"sum_hessian":[9.7848553E2,3.850395E2,5.93446E2,1.18801476E2,2.6623804E2,2.7161264E2,3.2183337E2,1.12424E1,1.07559074E2,1.7101082E2,9.52272E1,4.341755E1,2.2819508E2,2.2788658E2,9.39468E1,6.817135E1,3.9387726E1,1.393275E1,1.5707808E2,2.167895E1,7.354825E1,1.2085675E1,3.1331875E1,6.524563E1,1.6294945E2,1.3787955E2,9.000703E1,6.62082E1,2.77386E1,6.067515E1,7.4962E0,2.9764626E1,9.6231E0,6.93655E0,6.9962E0,1.4976843E2,7.30965E0,1.3996201E1,7.68275E0,4.22386E1,3.130965E1,9.962575E0,2.13693E1,2.8231E1,3.7014626E1,1.4011758E2,2.2831875E1,1.1610352E2,2.1776026E1,6.529825E1,2.4708775E1,5.003305E1,1.617515E1,2.0805851E1,6.93275E0,1.3776025E1,4.6899124E1,2.0018425E1,9.746201E0,1.012386E2,4.8529823E1,7.343275E0,6.652925E0,2.0152925E1,2.2085674E1,1.7593275E1,1.3716375E1,1.3966375E1,7.402925E0,1.0085675E1,1.8145325E1,2.167515E1,1.5339475E1,1.0962575E1,1.29155E2,9.899125E0,1.293275E1,1.21529255E1,1.039506E2,1.38731E1,7.902925E0,2.88655E1,3.643275E1,6.68655E0,1.8022224E1,4.078685E1,9.246201E0,6.843275E0,1.3962575E1],"tree_param":{"num_deleted":"0","num_feature":"55","num_nodes":"89","size_leaf_vector":"1"}},{"base_weights":[4.9668658E-3,-7.667804E-1,6.367937E-1,-4.1344762E-1,-1.1362524E0,1.1796677E0,1.9742413E-1,-9.959787E-3,-7.3101586E-1,-1.3627058E0,-5.8927226E-1,4.3372378E-1,1.3481799E0,4.0214935E-1,-5.428775E-1,-3.8934076E-1,3.8381568E-1,-8.765938E-1,4.7989014E-1,-1.5249797E0,-6.817688E-1,-7.147871E-2,-1.377633E0,4.4627007E-2,4.106266E-2,1.0570195E0,1.6776116E0,6.330306E-1,-3.4539834E-1,-9.3152297E-1,3.4568854E-2,2.8612247E-2,-6.706634E-1,6.3942504E-1,-2.0947758E-2,1.004062E-2,-1.0241537E0,-1.2206822E-2,3.83722E-2,-7.865357E-1,-1.6209778E0,-6.6483274E-2,-5.2602436E-2,2.892641E-1,-5.912206E-2,-1.2492156E-2,-5.5406913E-2,3.6465713E-1,-3.7330747E-2,1.2700086E0,3.078134E-1,1.8198445E0,1.361173E0,2.1528433E-1,9.0318304E-1,-5.433318E-1,2.9072875E-2,1.32218525E-2,-1.2467172E0,-5.8582053E-2,-1.2399272E-2,1.2880751E-2,5.4181352E-2,-4.383548E-2,-1.9831158E-2,-6.9212713E-3,-4.616063E-2,-1.1913299E-2,-5.21728E-2,-2.4995299E-2,1.6177425E-2,2.1468388E-2,-3.743164E-2,-1.9265523E-2,2.3166021E-2,3.0075872E-2,4.6226937E-2,3.469897E-2,-1.6635973E-2,5.7277065E-2,4.3023307E-2,1.5654743E-2,4.8928976E-2,-1.9216508E-2,1.5283009E-2,1.9948123E-2,4.231771E-2,1.2943855E-2,-2.2673087E-2,-5.968157E-2,-2.959244E-2],"categories":[],"categories_nodes":[],"categories_segments":[],"categories_sizes":[],"default_left":[1,1,1,1,0,0,0,0,1,0,0,0,0,1,0,0,0,0,0,0,0,0,0,0,0,0,1,0,0,0,0,0,0,0,0,0,1,0,0,0,0,0,0,0,0,0,0,0,0,0,0,1,0,1,0,0,0,0,0,0,0,0,0,0,0,0,0,0,0,0,0,0,0,0,0,0,0,0,0,0,0,0,0,0,0,0,0,0,0,0,0],"id":1,"left_children":[1,3,5,7,9,11,13,15,17,19,21,23,25,27,29,31,33,35,37,39,41,43,45,-1,47,49,51,53,55,57,-1,-1,59,61,-1,-1,63,-1,-1,65,67,69,-1,71,-1,-1,-1,73,-1,75,77,79,81,83,85,87,-1,-1,89,-1,-1,-1,-1,-1,-1,-1,-1,-1,-1,-1,-1,-1,-1,-1,-1,-1,-1,-1,-1,-1,-1,-1,-1,-1,-1,-1,-1,-1,-1,-1,-1],"loss_changes":[4.7633307E2,5.702466E1,1.27857376E2,2.871746E1,2.608017E1,2.975238E1,4.5070152E1,1.4905912E1,2.2310913E1,1.6145447E1,2.5563545E1,1.7505556E1,1.7965271E1,4.0339493E1,4.170918E1,1.8976055E1,1.3302254E1,2.0139114E1,9.259362E0,7.9852905E0,1.833881E1,2.6074356E1,9.666355E0,0E0,1.3081771E1,1.6321663E1,3.1161804E0,1.989344E1,1.4017043E1,2.2661587E1,0E0,0E0,1.3401554E1,9.25704E0,0E0,0E0,1.467971E1,0E0,0E0,5.4366074E0,9.064819E0,8.39874E0,0E0,1.9814896E1,0E0,0E0,0E0,1.0086601E1,0E0,4.7927094E0,1.6534058E1,4.8828125E-4,5.1418E0,1.6633999E1,1.2470146E1,8.977759E0,0E0,0E0,7.5812683E0,0E0,0E0,0E0,0E0,0E0,0E0,0E0,0E0,0E0,0E0,0E0,0E0,0E0,0E0,0E0,0E0,0E0,0E0,0E0,0E0,0E0,0E0,0E0,0E0,0E0,0E0,0E0,0E0,0E0,0E0,0E0,0E0],"parents":[2147483647,0,0,1,1,2,2,3,3,4,4,5,5,6,6,7,7,8,8,9,9,10,10,11,11,12,12,13,13,14,14,15,15,16,16,17,17,18,18,19,19,20,20,21,21,22,22,24,24,25,25,26,26,27,27,28,28,29,29,32,32,33,33,36,36,39,39,40,40,41,41,43,43,47,47,49,49,50,50,51,51,52,52,53,53,54,54,55,55,58,58],"right_children":[2,4,6,8,10,12,14,16,18,20,22,24,26,28,30,32,34,36,38,40,42,44,46,-1,48,50,52,54,56,58,-1,-1,60,62,-1,-1,64,-1,-1,66,68,70,-1,72,-1,-1,-1,74,-1,76,78,80,82,84,86,88,-1,-1,90,-1,-1,-1,-1,-1,-1,-1,-1,-1,-1,-1,-1,-1,-1,-1,-1,-1,-1,-1,-1,-1,-1,-1,-1,-1,-1,-1,-1,-1,-1,-1,-1],"split_conditions":[1.6065643E0,1.2391921E0,6.981481E-1,7.7614512E0,1.4928278E0,3.9909632E0,1.4982961E0,1.3891156E0,7.026194E0,1.1765993E0,8.057383E0,1.0070927E0,2.025802E0,8.210281E0,3.2122695E0,3.400276E-1,1.3705481E0,2.6499203E-1,1.4458343E0,1.1262391E0,1.4426134E0,1.3615372E0,1.4069223E0,4.4627007E-2,5.896397E-1,1.0584941E1,9.592632E0,4.286761E0,2.0961602E0,8.812565E0,3.4568854E-2,2.8612247E-2,7.0657682E0,1.3276435E0,-2.0947758E-2,1.004062E-2,3.7433894E0,-1.2206822E-2,3.83722E-2,8.457159E0,7.6195154E0,2.453314E0,-5.2602436E-2,1.1758631E0,-5.912206E-2,-1.2492156E-2,-5.5406913E-2,7.3943377E0,-3.7330747E-2,1.8456424E0,1.5620118E0,1.063786E1,6.5903907E0,1.563224E0,1.9350972E0,1.1548728E0,2.9072875E-2,1.32218525E-2,1.5193007E0,-5.8582053E-2,-1.2399272E-2,1.2880751E-2,5.4181352E-2,-4.383548E-2,-1.9831158E-2,-6.9212713E-3,-4.616063E-2,-1.1913299E-2,-5.21728E-2,-2.4995299E-2,1.6177425E-2,2.1468388E-2,-3.743164E-2,-1.9265523E-2,2.3166021E-2,3.0075872E-2,4.6226937E-2,3.469897E-2,-1.6635973E-2,5.7277065E-2,4.3023307E-2,1.5654743E-2,4.8928976E-2,-1.9216508E-2,1.5283009E-2,1.9948123E-2,4.231771E-2,1.2943855E-2,-2.2673087E-2,-5.968157E-2,-2.959244E-2],"split_indices":[14,53,53,29,8,9,53,44,34,31,46,19,33,29,0,19,24,43,44,8,14,37,53,0,5,35,51,34,54,36,0,0,29,48,0,0,34,0,0,29,35,0,0,17,0,0,0,46,0,8,12,28,34,50,50,31,0,0,33,0,0,0,0,0,0,0,0,0,0,0,0,0,0,0,0,0,0,0,0,0,0,0,0,0,0,0,0,0,0,0,0],"split_type":[0,0,0,0,0,0,0,0,0,0,0,0,0,0,0,0,0,0,0,0,0,0,0,0,0,0,0,0,0,0,0,0,0,0,0,0,0,0,0,0,0,0,0,0,0,0,0,0,0,0,0,0,0,0,0,0,0,0,0,0,0,0,0,0,0,0,0,0,0,0,0,0,0,0,0,0,0,0,0,0,0,0,0,0,0,0,0,0,0,0,0],"sum_hessian":[9.766144E2,4.3947784E2,5.3713654E2,2.2507607E2,2.1440176E2,2.3995747E2,2.9717905E2,9.9462616E1,1.2561345E2,1.5121812E2,6.318365E1,4.4528343E1,1.9542914E2,2.3305675E2,6.41223E1,5.0904655E1,4.8557957E1,1.1231112E2,1.3302328E1,1.2173622E2,2.94819E1,3.8383404E1,2.4800245E1,1.2174748E1,3.2353592E1,1.0439196E2,9.103718E1,1.782749E2,5.4781845E1,5.2133232E1,1.198907E1,8.773577E0,4.2131077E1,3.934334E1,9.214617E0,1.2114634E1,1.0019649E2,6.1210985E0,7.1812296E0,1.4396534E1,1.0733969E2,1.8643188E1,1.083871E1,3.213418E1,6.2492237E0,7.7141924E0,1.7086054E1,2.5918583E1,6.43501E0,8.100248E1,2.3389475E1,6.188605E1,2.915113E1,7.039822E1,1.07876686E2,4.769422E1,7.087624E0,9.681436E0,4.2451797E1,7.247446E0,3.4883633E1,3.3161892E1,6.181449E0,4.8507862E1,5.1688625E1,8.306229E0,6.090305E0,6.120965E0,1.0121873E2,8.370243E0,1.0272944E1,2.5449669E1,6.6845107E0,7.1213727E0,1.879721E1,3.6278618E1,4.4723866E1,1.199032E1,1.1399155E1,5.5799923E1,6.0861254E0,6.3991733E0,2.2751957E1,1.7430891E1,5.2967323E1,7.035439E1,3.7522293E1,7.7452E0,3.994902E1,1.1997193E1,3.0454603E1],"tree_param":{"num_deleted":"0","num_feature":"55","num_nodes":"91","size_leaf_vector":"1"}},{"base_weights":[2.579474E-2,-6.844284E-1,6.1284536E-1,-2.9489473E-1,-1.1004986E0,8.27165E-2,1.066795E0,1.3995914E-1,-7.4227184E-1,-5.2718735E-1,-1.2768763E0,-5.2240286E-2,1.0089413E0,7.92655E-1,1.4988669E0,-2.5782424E-1,5.939284E-1,-1.1157339E0,-6.587319E-2,4.247531E-2,-1.2969157E0,-1.6263282E0,-9.26351E-1,1.6913421E-1,-5.4180396E-1,1.366607E0,4.284456E-1,1.1101532E0,1.8950002E-1,1.5818932E0,8.6896694E-1,-5.0414205E-1,2.9772393E-2,1.1376714E0,-0E0,-1.3394217E0,-4.9889076E-1,2.80347E-1,-4.8758596E-2,-4.3704683E-1,3.4374833E-2,-1.4155469E-2,-5.9209563E-2,-1.6898493E0,-2.8607361E-2,-7.24007E-1,-1.5504296E0,8.0326986E-1,2.3775058E-2,-1.3543229E0,-2.7254003E-1,1.6474739E-2,5.656477E-2,-2.588161E-3,2.9519254E-2,1.3671452E0,8.0558896E-1,1.362695E0,-4.2764923E-1,1.659317E0,2.1991719E-2,8.839216E-3,4.3820456E-2,-7.1145804E-3,-5.144058E-2,5.8417164E-2,2.5765318E-2,1.9982854E-2,-2.069995E-2,-6.280303E-3,-4.635803E-2,1.1337426E-2,-5.732503E-2,1.8805005E-2,-3.428783E-2,-3.1844854E-2,2.03481E-2,-3.3948578E-2,-5.4395E-2,-2.88794E-2,1.1091028E-2,-5.8270387E-2,-2.2056857E-2,1.4439804E-2,5.0203748E-2,-1.3531582E-2,1.1349537E-2,-1.3235379E-2,-5.8433697E-2,6.2222765E-3,-2.3496412E-2,4.517943E-2,1.9587776E-2,-5.709971E-3,3.7360054E-2,5.592176E-2,2.25627E-2,-2.3056501E-4,-3.871988E-2,5.464667E-2,3.954742E-2],"categories":[],"categories_nodes":[],"categories_segments":[],"categories_sizes":[],"default_left":[1,1,0,0,1,1,0,1,0,0,0,1,0,1,1,0,1,0,0,0,0,0,0,1,0,0,0,0,0,1,0,1,0,0,0,0,0,0,0,0,0,0,0,0,0,0,0,0,0,0,0,0,0,0,0,0,0,0,0,0,0,0,0,0,0,0,0,0,0,0,0,0,0,0,0,0,0,0,0,0,0,0,0,0,0,0,0,0,0,0,0,0,0,0,0,0,0,0,0,0,0],"id":2,"left_children":[1,3,5,7,9,11,13,15,17,19,21,23,25,27,29,31,33,35,37,39,41,43,45,47,49,51,53,55,57,59,61,63,-1,65,67,69,71,73,-1,75,-1,-1,-1,77,-1,79,81,83,85,87,89,-1,-1,-1,-1,91,93,95,97,99,-1,-1,-1,-1,-1,-1,-1,-1,-1,-1,-1,-1,-1,-1,-1,-1,-1,-1,-1,-1,-1,-1,-1,-1,-1,-1,-1,-1,-1,-1,-1,-1,-1,-1,-1,-1,-1,-1,-1,-1,-1],"loss_changes":[4.1163388E2,7.20726E1,1.2988081E2,4.509453E1,2.13609E1,3.1411762E1,3.3855164E1,2.123663E1,2.8601818E1,2.272322E1,1.9439423E1,2.3708256E1,6.201523E0,3.3935234E1,5.2066193E0,1.8770672E1,1.7731148E1,9.668861E0,2.1818296E1,1.5364493E1,1.0889561E1,2.8919067E0,9.847809E0,1.3661215E1,1.4549007E1,7.0040245E0,3.600095E0,8.559219E0,4.516508E1,6.0187836E0,4.026948E0,1.6165981E1,0E0,5.790951E0,1.1583536E1,9.650986E0,2.3984947E1,1.5344251E1,0E0,1.3494137E1,0E0,0E0,0E0,2.4608765E0,0E0,1.4726051E1,4.9511833E0,7.1425896E0,1.9529478E1,7.8278923E0,1.2119767E1,0E0,0E0,0E0,0E0,4.001335E0,2.2065845E1,5.4424477E0,1.3912188E1,2.9481354E0,0E0,0E0,0E0,0E0,0E0,0E0,0E0,0E0,0E0,0E0,0E0,0E0,0E0,0E0,0E0,0E0,0E0,0E0,0E0,0E0,0E0,0E0,0E0,0E0,0E0,0E0,0E0,0E0,0E0,0E0,0E0,0E0,0E0,0E0,0E0,0E0,0E0,0E0,0E0,0E0,0E0],"parents":[2147483647,0,0,1,1,2,2,3,3,4,4,5,5,6,6,7,7,8,8,9,9,10,10,11,11,12,12,13,13,14,14,15,15,16,16,17,17,18,18,19,19,20,20,21,21,22,22,23,23,24,24,25,25,26,26,27,27,28,28,29,29,30,30,31,31,33,33,34,34,35,35,36,36,37,37,39,39,43,43,45,45,46,46,47,47,48,48,49,49,50,50,55,55,56,56,57,57,58,58,59,59],"right_children":[2,4,6,8,10,12,14,16,18,20,22,24,26,28,30,32,34,36,38,40,42,44,46,48,50,52,54,56,58,60,62,64,-1,66,68,70,72,74,-1,76,-1,-1,-1,78,-1,80,82,84,86,88,90,-1,-1,-1,-1,92,94,96,98,100,-1,-1,-1,-1,-1,-1,-1,-1,-1,-1,-1,-1,-1,-1,-1,-1,-1,-1,-1,-1,-1,-1,-1,-1,-1,-1,-1,-1,-1,-1,-1,-1,-1,-1,-1,-1,-1,-1,-1,-1,-1],"split_conditions":[1.6065643E0,8.005553E0,4.7477517E0,1.2498515E0,4.8919666E-1,2.1002827E0,2.0421376E0,1.0412737E1,1.4928278E0,7.7047455E-1,1.0655028E0,1.4170878E0,8.878623E0,7.940226E0,1.3175193E1,1.5700482E0,8.242949E0,2.659147E0,1.3839056E0,7.4614745E-1,9.991203E0,4.8936133E0,1.3324643E0,1.1795082E0,1.5193007E0,8.602499E0,1.1682347E1,4.3608123E-1,3.1841406E-1,1.0915813E1,1.0515452E1,9.9949875E0,2.9772393E-2,3.2127392E-1,1.150402E0,8.065947E0,4.1930637E0,1.1680931E0,-4.8758596E-2,1.1417164E1,3.4374833E-2,-1.4155469E-2,-5.9209563E-2,1.014412E0,-2.8607361E-2,1.3037988E0,1.0488409E1,4.0584393E0,3.663627E0,1.5719224E0,1.5134666E0,1.6474739E-2,5.656477E-2,-2.588161E-3,2.9519254E-2,1.0117628E1,2.9943414E0,3.7288654E-1,8.8979645E0,5.6535786E-1,2.1991719E-2,8.839216E-3,4.3820456E-2,-7.1145804E-3,-5.144058E-2,5.8417164E-2,2.5765318E-2,1.9982854E-2,-2.069995E-2,-6.280303E-3,-4.635803E-2,1.1337426E-2,-5.732503E-2,1.8805005E-2,-3.428783E-2,-3.1844854E-2,2.03481E-2,-3.3948578E-2,-5.4395E-2,-2.88794E-2,1.1091028E-2,-5.8270387E-2,-2.2056857E-2,1.4439804E-2,5.0203748E-2,-1.3531582E-2,1.1349537E-2,-1.3235379E-2,-5.8433697E-2,6.2222765E-3,-2.3496412E-2,4.517943E-2,1.9587776E-2,-5.709971E-3,3.7360054E-2,5.592176E-2,2.25627E-2,-2.3056501E-4,-3.871988E-2,5.464667E-2,3.954742E-2],"split_indices":[14,46,1,53,17,39,20,36,8,49,31,53,51,46,30,8,45,21,24,53,45,9,24,48,33,30,36,4,4,28,2,30,0,7,42,30,1,17,0,15,0,0,0,54,0,48,40,9,1,39,12,0,0,0,0,34,21,53,46,4,0,0,0,0,0,0,0,0,0,0,0,0,0,0,0,0,0,0,0,0,0,0,0,0,0,0,0,0,0,0,0,0,0,0,0,0,0,0,0,0,0],"split_type":[0,0,0,0,0,0,0,0,0,0,0,0,0,0,0,0,0,0,0,0,0,0,0,0,0,0,0,0,0,0,0,0,0,0,0,0,0,0,0,0,0,0,0,0,0,0,0,0,0,0,0,0,0,0,0,0,0,0,0,0,0,0,0,0,0,0,0,0,0,0,0,0,0,0,0,0,0,0,0,0,0,0,0,0,0,0,0,0,0,0,0,0,0,0,0,0,0,0,0,0,0],"sum_hessian":[9.870046E2,4.464871E2,5.4051746E2,2.3096982E2,2.1551727E2,2.4961528E2,2.9090216E2,1.1696182E2,1.14008E2,5.1103203E1,1.6441406E2,2.1781747E2,3.1797802E1,1.7851587E2,1.123863E2,6.2150265E1,5.4811554E1,7.32064E1,4.0801613E1,2.9309593E1,2.179361E1,8.177989E1,8.263418E1,1.4979398E2,6.802349E1,1.9342844E1,1.2454958E1,1.16660614E2,6.1855255E1,9.882479E1,1.3561514E1,5.1943233E1,1.0207031E1,2.8525845E1,2.628571E1,5.336493E1,1.9841467E1,3.3217297E1,7.584315E0,2.0197235E1,9.11236E0,9.553263E0,1.2240347E1,7.450731E1,7.272588E0,6.2883797E1,1.9750378E1,2.7558752E1,1.2223523E2,1.6600773E1,5.142272E1,7.238003E0,1.2104842E1,6.2122445E0,6.242713E0,6.264069E1,5.4019928E1,2.136443E1,4.0490826E1,9.040333E1,8.421459E0,6.888932E0,6.672581E0,4.235714E1,9.586095E0,7.7070894E0,2.0818756E1,1.33903475E1,1.2895361E1,6.957686E0,4.640724E1,1.2105832E1,7.7356343E0,2.703775E1,6.1795454E0,1.3204291E1,6.9929433E0,9.017016E0,6.549029E1,5.2714424E1,1.0169374E1,1.372726E1,6.023117E0,1.9947378E1,7.611373E0,5.1904152E1,7.033108E1,6.3653226E0,1.0235449E1,2.5972336E1,2.5450386E1,5.4810608E1,7.8300815E0,1.5609883E1,3.8410046E1,1.2099117E1,9.265311E0,2.7125456E1,1.3365369E1,6.854056E1,2.186277E1],"tree_param":{"num_deleted":"0","num_feature":"55","num_nodes":"101","size_leaf_vector":"1"}},{"base_weights":[-2.2759002E-2,-7.6137275E-1,5.048451E-1,-2.9461578E-1,-1.0930285E0,1.1156014E0,1.7808747E-1,1.8190947E-1,-6.356112E-1,-1.4380808E0,-8.127789E-1,6.951009E-1,1.3455868E0,-1.2505269E-1,7.544628E-1,-7.4375723E-3,3.4466207E-2,-8.5700965E-1,7.3187786E-1,-1.1626283E0,-1.693163E0,-5.0049953E-2,-9.656929E-1,8.048465E-1,-1.3290886E-2,9.6543527E-1,1.5310065E0,2.8018457E-1,-4.312843E-1,4.0037423E-1,1.4120684E0,-2.9340401E-2,2.3064536E-1,1.0653714E-2,-9.687897E-1,4.996781E-2,-1.1009691E-2,-5.3686753E-2,-8.302841E-1,-1.7641255E0,-3.316383E-2,3.7717915E-1,-3.4713086E-2,2.934651E-3,-1.0798643E0,5.7346606E-1,1.301953E0,1.5119396E0,5.1827985E-1,1.6399661E0,9.696546E-1,-2.6906097E-1,6.533369E-1,-8.1270653E-1,1.609676E-1,1.0671844E0,-0E0,1.5785335E0,2.6796078E-2,1.5547905E-2,-1.4524341E-2,-4.3519042E-2,-1.438726E-2,-8.428889E-3,-4.067461E-2,-5.7321023E-2,-4.0270895E-2,-1.4735173E-2,3.080508E-2,-3.861636E-2,-1.0779216E-2,2.6750848E-2,-7.227664E-3,4.6399806E-2,2.694307E-2,5.4763984E-2,3.228396E-2,-1.3194676E-2,2.9554402E-2,3.2998744E-2,5.2143097E-2,1.2153288E-2,4.7325633E-2,-3.4522034E-2,1.3682616E-2,2.7252777E-2,-9.23261E-4,1.9275231E-2,-2.8593974E-2,1.31188445E-2,-2.6743364E-2,5.069324E-2,2.1381633E-2,3.6097627E-2,-6.669716E-3,2.3782898E-2,5.415422E-2],"categories":[],"categories_nodes":[],"categories_segments":[],"categories_sizes":[],"default_left":[0,0,0,1,0,0,0,1,0,0,0,0,0,1,0,0,0,0,0,0,0,0,0,1,0,1,1,0,0,0,1,0,1,0,0,0,0,0,0,0,0,0,0,0,0,0,1,0,0,0,0,0,0,0,0,0,0,0,0,0,0,0,0,0,0,0,0,0,0,0,0,0,0,0,0,0,0,0,0,0,0,0,0,0,0,0,0,0,0,0,0,0,0,0,0,0,0],"id":3,"left_children":[1,3,5,7,9,11,13,15,17,19,21,23,25,27,29,31,-1,33,35,37,39,41,43,45,-1,47,49,51,53,55,57,-1,59,-1,61,-1,-1,-1,63,65,-1,67,-1,-1,69,71,73,75,77,79,81,83,85,87,89,91,93,95,-1,-1,-1,-1,-1,-1,-1,-1,-1,-1,-1,-1,-1,-1,-1,-1,-1,-1,-1,-1,-1,-1,-1,-1,-1,-1,-1,-1,-1,-1,-1,-1,-1,-1,-1,-1,-1,-1,-1],"loss_changes":[3.8353204E2,6.3183304E1,1.1425098E2,2.7864164E1,2.2550598E1,1.878775E1,6.5523865E1,1.2829238E1,3.0350185E1,6.658737E0,1.5289909E1,8.932125E0,8.367432E0,3.0472353E1,2.9658463E1,1.3477933E1,0E0,1.1749153E1,1.3775011E1,9.344177E0,1.5639648E0,1.0579332E1,1.3578629E1,7.0187225E0,0E0,9.986755E0,4.51149E0,2.1692604E1,3.1764055E1,2.2654188E1,3.383957E0,0E0,9.1212E0,0E0,1.711988E1,0E0,0E0,0E0,8.82476E0,1.1549988E0,0E0,8.762577E0,0E0,0E0,1.22595825E1,1.0859939E1,1.1124649E0,1.5205917E0,1.0195843E1,1.3126068E0,4.3013067E0,2.6015326E1,1.0109982E1,1.42883415E1,1.4889284E1,6.2323036E0,1.3313879E1,4.207947E0,0E0,0E0,0E0,0E0,0E0,0E0,0E0,0E0,0E0,0E0,0E0,0E0,0E0,0E0,0E0,0E0,0E0,0E0,0E0,0E0,0E0,0E0,0E0,0E0,0E0,0E0,0E0,0E0,0E0,0E0,0E0,0E0,0E0,0E0,0E0,0E0,0E0,0E0,0E0],"parents":[2147483647,0,0,1,1,2,2,3,3,4,4,5,5,6,6,7,7,8,8,9,9,10,10,11,11,12,12,13,13,14,14,15,15,17,17,18,18,19,19,20,20,21,21,22,22,23,23,25,25,26,26,27,27,28,28,29,29,30,30,32,32,34,34,38,38,39,39,41,41,44,44,45,45,46,46,47,47,48,48,49,49,50,50,51,51,52,52,53,53,54,54,55,55,56,56,57,57],"right_children":[2,4,6,8,10,12,14,16,18,20,22,24,26,28,30,32,-1,34,36,38,40,42,44,46,-1,48,50,52,54,56,58,-1,60,-1,62,-1,-1,-1,64,66,-1,68,-1,-1,70,72,74,76,78,80,82,84,86,88,90,92,94,96,-1,-1,-1,-1,-1,-1,-1,-1,-1,-1,-1,-1,-1,-1,-1,-1,-1,-1,-1,-1,-1,-1,-1,-1,-1,-1,-1,-1,-1,-1,-1,-1,-1,-1,-1,-1,-1,-1,-1],"split_conditions":[1.5726123E0,1.0497961E0,4.2102614E-1,7.637338E0,1.2387135E0,5.1557083E0,3.1091266E0,1.2371287E1,1.367569E1,9.042519E0,7.201698E0,1.1117314E1,1.8785939E0,8.398998E0,1.9519393E0,7.059603E0,3.4466207E-2,1.8221433E0,6.004745E-1,8.955573E0,3.0943222E0,1.3882532E0,1.3107989E0,2.0651674E0,-1.3290886E-2,8.722688E0,1.3127425E1,8.465549E0,1.7315184E0,8.421409E0,9.827549E0,-2.9340401E-2,8.510605E0,1.0653714E-2,8.547321E-1,4.996781E-2,-1.1009691E-2,-5.3686753E-2,8.722155E0,1.3503522E0,-3.316383E-2,1.4953619E0,-3.4713086E-2,2.934651E-3,1.536532E0,1.8517951E0,2.1062493E0,1.662458E0,1.2654454E1,1.6068053E0,8.6462E0,3.4279788E0,8.388477E0,4.5896438E-1,8.939833E0,1.1961185E0,1.5811104E0,9.569581E0,2.6796078E-2,1.5547905E-2,-1.4524341E-2,-4.3519042E-2,-1.438726E-2,-8.428889E-3,-4.067461E-2,-5.7321023E-2,-4.0270895E-2,-1.4735173E-2,3.080508E-2,-3.861636E-2,-1.0779216E-2,2.6750848E-2,-7.227664E-3,4.6399806E-2,2.694307E-2,5.4763984E-2,3.228396E-2,-1.3194676E-2,2.9554402E-2,3.2998744E-2,5.2143097E-2,1.2153288E-2,4.7325633E-2,-3.4522034E-2,1.3682616E-2,2.7252777E-2,-9.23261E-4,1.9275231E-2,-2.8593974E-2,1.31188445E-2,-2.6743364E-2,5.069324E-2,2.1381633E-2,3.6097627E-2,-6.669716E-3,2.3782898E-2,5.415422E-2],"split_indices":[8,5,17,29,50,9,21,11,11,28,29,22,8,28,50,29,0,9,7,52,21,5,20,39,0,45,30,30,33,28,28,0,45,0,32,0,0,0,22,54,0,8,0,0,33,54,33,50,36,21,9,9,45,17,29,19,20,23,0,0,0,0,0,0,0,0,0,0,0,0,0,0,0,0,0,0,0,0,0,0,0,0,0,0,0,0,0,0,0,0,0,0,0,0,0,0,0],"split_type":[0,0,0,0,0,0,0,0,0,0,0,0,0,0,0,0,0,0,0,0,0,0,0,0,0,0,0,0,0,0,0,0,0,0,0,0,0,0,0,0,0,0,0,0,0,0,0,0,0,0,0,0,0,0,0,0,0,0,0,0,0,0,0,0,0,0,0,0,0,0,0,0,0,0,0,0,0,0,0,0,0,0,0,0,0,0,0,0,0,0,0,0,0,0,0,0,0],"sum_hessian":[9.83752E2,4.100291E2,5.737229E2,1.7068323E2,2.3934589E2,1.9963022E2,3.7409268E2,7.099034E1,9.9692894E1,1.06680534E2,1.3266536E2,7.1093346E1,1.2853688E2,2.450175E2,1.2907516E2,5.9009335E1,1.1981002E1,8.597099E1,1.3721898E1,5.2063343E1,5.461719E1,2.2397717E1,1.1026765E2,6.4975945E1,6.1174006E0,4.279083E1,8.574605E1,1.05198524E2,1.3981898E2,8.4249E1,4.4826168E1,1.1946392E1,4.7062943E1,7.138136E0,7.883286E1,7.607696E0,6.114202E0,1.8527575E1,3.3535767E1,4.8449207E1,6.167982E0,1.5978736E1,6.4189806E0,1.0553763E1,9.971388E1,4.482657E1,2.0149372E1,1.8899256E1,2.3891573E1,7.1275604E1,1.4470445E1,4.236835E1,6.2830177E1,8.520789E1,5.4611084E1,3.1617363E1,5.2631638E1,3.3807163E1,1.1019006E1,3.4080383E1,1.2982562E1,4.1504757E1,3.7328106E1,1.59867935E1,1.7548975E1,3.9309338E1,9.139871E0,6.616418E0,9.362319E0,8.028813E1,1.9425747E1,3.30136E1,1.1812971E1,1.3081971E1,7.0674E0,1.1490251E1,7.409006E0,7.4552817E0,1.643629E1,6.5642786E0,6.471133E1,7.473744E0,6.996701E0,1.9395292E1,2.2973059E1,4.7128807E1,1.5701369E1,6.1450067E0,7.906289E1,4.3653233E1,1.0957849E1,1.200328E1,1.9614082E1,8.020503E0,4.4611137E1,6.475538E0,2.7331625E1],"tree_param":{"num_deleted":"0","num_feature":"55","num_nodes":"97","size_leaf_vector":"1"}},{"base_weights":[1.504037E-3,-5.5394065E-1,6.979989E-1,-2.4179985E-1,-1.0309613E0,1.1936709E0,3.0826002E-1,3.5882196E-1,-4.4721428E-1,-1.4426242E0,-7.968758E-1,3.9033604E-1,1.3347925E0,8.7894015E-3,8.9904517E-1,-3.360368E-2,5.207672E-1,-7.785598E-1,-0E0,-1.0434673E0,-5.429186E-2,-5.8143175E-1,-1.3344365E0,1.091052E0,-2.0442802E-1,1.4272144E0,6.7367864E-1,3.5314727E-1,-7.053256E-1,8.308519E-2,1.292946E0,-1.581814E-1,7.783596E-1,-9.678439E-1,3.2921678E-1,1.3849919E-1,-5.8619853E-2,-1.4654536E0,4.055596E-4,-7.6169944E-1,9.833206E-2,-1.6106658E0,-1.8473597E-2,1.575674E-2,4.8403285E-2,2.8256157E-2,-3.001628E-2,1.4778788E0,1.3459291E-2,1.2858877E0,-7.7349977E-3,6.0626423E-1,-3.9146346E-1,7.022583E-2,-1.0477972E0,-2.9550987E-1,4.2794544E-2,1.5205042E0,8.8473964E-1,1.51477875E-2,-3.3977855E-2,3.362751E-2,3.519069E-3,2.12101E-2,-3.2615718E-2,3.3160925E-2,-2.8987667E-2,3.393732E-2,-8.473945E-4,-2.2961013E-2,-5.267476E-2,-1.8359257E-2,-5.0743513E-2,3.396653E-2,-1.7340254E-2,-3.8640283E-2,-5.724524E-2,4.705126E-2,1.641198E-2,5.1102616E-2,2.636454E-2,2.7541466E-2,-8.029323E-3,-2.7044145E-2,2.0109344E-2,-1.9674538E-2,2.139021E-2,-4.9163062E-2,-1.9575445E-2,9.692543E-3,-4.1714188E-2,3.8248282E-2,5.4009154E-2,7.6753926E-3,4.2201318E-2],"categories":[],"categories_nodes":[],"categories_segments":[],"categories_sizes":[],"default_left":[0,1,0,1,0,0,1,0,0,0,0,1,1,1,0,0,0,0,0,0,0,0,0,0,0,1,0,0,0,0,0,1,0,0,0,0,0,0,0,0,0,0,0,0,0,0,0,1,0,0,0,0,1,0,0,0,0,0,0,0,0,0,0,0,0,0,0,0,0,0,0,0,0,0,0,0,0,0,0,0,0,0,0,0,0,0,0,0,0,0,0,0,0,0,0],"id":4,"left_children":[1,3,5,7,9,11,13,15,17,19,21,23,25,27,29,-1,31,33,35,37,-1,39,41,43,45,47,49,51,53,55,57,59,61,63,65,67,-1,69,-1,71,73,75,-1,-1,-1,-1,-1,77,-1,79,-1,81,83,85,87,89,-1,91,93,-1,-1,-1,-1,-1,-1,-1,-1,-1,-1,-1,-1,-1,-1,-1,-1,-1,-1,-1,-1,-1,-1,-1,-1,-1,-1,-1,-1,-1,-1,-1,-1,-1,-1,-1,-1],"loss_changes":[3.812935E2,8.133417E1,8.415488E1,4.097396E1,2.02603E1,2.1387512E1,4.322283E1,1.9787628E1,3.6717243E1,9.11969E0,1.55748825E1,1.23511505E1,9.427368E0,4.009074E1,2.6171722E1,0E0,1.3453173E1,2.9997292E1,2.7730886E1,1.6020542E1,0E0,1.2333054E1,7.40889E0,3.2482872E0,1.3739878E1,6.704071E0,1.1891822E1,2.0875961E1,1.426104E1,1.3675126E1,4.474228E0,1.3003989E1,1.1268604E1,1.8430702E1,1.9839521E1,1.5943121E1,0E0,3.7906075E0,0E0,1.1006897E1,1.3984828E1,1.540268E0,0E0,0E0,0E0,0E0,0E0,5.761261E0,0E0,1.3095818E0,0E0,2.0741613E1,1.429056E1,7.2385592E0,7.7567825E0,1.3841598E1,0E0,1.3643265E0,5.947424E0,0E0,0E0,0E0,0E0,0E0,0E0,0E0,0E0,0E0,0E0,0E0,0E0,0E0,0E0,0E0,0E0,0E0,0E0,0E0,0E0,0E0,0E0,0E0,0E0,0E0,0E0,0E0,0E0,0E0,0E0,0E0,0E0,0E0,0E0,0E0,0E0],"parents":[2147483647,0,0,1,1,2,2,3,3,4,4,5,5,6,6,7,7,8,8,9,9,10,10,11,11,12,12,13,13,14,14,16,16,17,17,18,18,19,19,21,21,22,22,23,23,24,24,25,25,26,26,27,27,28,28,29,29,30,30,31,31,32,32,33,33,34,34,35,35,37,37,39,39,40,40,41,41,47,47,49,49,51,51,52,52,53,53,54,54,55,55,57,57,58,58],"right_children":[2,4,6,8,10,12,14,16,18,20,22,24,26,28,30,-1,32,34,36,38,-1,40,42,44,46,48,50,52,54,56,58,60,62,64,66,68,-1,70,-1,72,74,76,-1,-1,-1,-1,-1,78,-1,80,-1,82,84,86,88,90,-1,92,94,-1,-1,-1,-1,-1,-1,-1,-1,-1,-1,-1,-1,-1,-1,-1,-1,-1,-1,-1,-1,-1,-1,-1,-1,-1,-1,-1,-1,-1,-1,-1,-1,-1,-1,-1,-1],"split_conditions":[1.6992948E0,1.3390086E0,4.7381473E-1,8.034395E0,1.2387135E0,4.0991282E0,1.9350972E0,1.3167943E0,1.4834553E0,8.872518E0,1.0217449E1,1.298925E0,1.1265679E1,7.912306E0,2.5079777E0,-3.360368E-2,7.7420306E0,1.1660512E1,1.3166525E0,9.727172E0,-5.429186E-2,2.9253109E0,1.1295993E1,9.446374E0,1.6704866E0,1.0061428E1,3.3250633E-1,1.6869434E0,9.425707E0,2.2884188E0,9.167262E0,7.5832744E0,5.6032777E-1,1.6002685E0,1.0831689E0,1.2431189E0,-5.8619853E-2,1.6068053E0,4.055596E-4,1.2805138E0,8.388477E0,1.028839E0,-1.8473597E-2,1.575674E-2,4.8403285E-2,2.8256157E-2,-3.001628E-2,1.3584994E1,1.3459291E-2,3.3385398E0,-7.7349977E-3,8.431577E-1,1.5610174E0,3.541452E0,3.5448582E0,2.1057947E0,4.2794544E-2,1.0015333E0,4.212991E0,1.51477875E-2,-3.3977855E-2,3.362751E-2,3.519069E-3,2.12101E-2,-3.2615718E-2,3.3160925E-2,-2.8987667E-2,3.393732E-2,-8.473945E-4,-2.2961013E-2,-5.267476E-2,-1.8359257E-2,-5.0743513E-2,3.396653E-2,-1.7340254E-2,-3.8640283E-2,-5.724524E-2,4.705126E-2,1.641198E-2,5.1102616E-2,2.636454E-2,2.7541466E-2,-8.029323E-3,-2.7044145E-2,2.0109344E-2,-1.9674538E-2,2.139021E-2,-4.9163062E-2,-1.9575445E-2,9.692543E-3,-4.1714188E-2,3.8248282E-2,5.4009154E-2,7.6753926E-3,4.2201318E-2],"split_indices":[14,53,17,45,50,1,50,21,26,28,47,32,28,29,21,0,51,28,49,52,0,0,30,47,27,27,17,18,52,26,51,28,4,9,37,18,0,21,0,17,45,19,0,0,0,0,0,47,0,0,0,4,49,1,27,26,0,53,21,0,0,0,0,0,0,0,0,0,0,0,0,0,0,0,0,0,0,0,0,0,0,0,0,0,0,0,0,0,0,0,0,0,0,0,0],"split_type":[0,0,0,0,0,0,0,0,0,0,0,0,0,0,0,0,0,0,0,0,0,0,0,0,0,0,0,0,0,0,0,0,0,0,0,0,0,0,0,0,0,0,0,0,0,0,0,0,0,0,0,0,0,0,0,0,0,0,0,0,0,0,0,0,0,0,0,0,0,0,0,0,0,0,0,0,0,0,0,0,0,0,0,0,0,0,0,0,0,0,0,0,0,0,0],"sum_hessian":[9.852208E2,5.479758E2,4.3724506E2,3.3161426E2,2.1636154E2,1.9211067E2,2.4513437E2,8.4244446E1,2.4736983E2,7.784802E1,1.3851352E2,2.8993935E1,1.6311673E2,1.6299223E2,8.2142136E1,8.260317E0,7.598412E1,1.4209026E2,1.0527956E2,3.514825E1,4.2699776E1,9.936524E1,3.9148273E1,1.3399447E1,1.5594487E1,1.4270064E2,2.0416103E1,1.1019788E2,5.2794357E1,2.6961777E1,5.518036E1,2.0711973E1,5.5272152E1,1.21518196E2,2.0572071E1,9.829202E1,6.9875374E0,2.5203506E1,9.944743E0,7.874468E1,2.0620558E1,2.8132008E1,1.1016266E1,6.3909836E0,7.008464E0,6.234067E0,9.36042E0,1.3550105E2,7.199572E0,1.2371343E1,8.04476E0,8.245385E1,2.7744038E1,1.6038914E1,3.6755444E1,2.0880283E1,6.081494E0,3.486027E1,2.0320086E1,1.219451E1,8.517462E0,3.7309956E1,1.7962196E1,6.138327E0,1.1537987E2,1.3062855E1,7.509216E0,1.449588E1,8.379614E1,6.730353E0,1.8473154E1,6.670992E1,1.2034762E1,8.260698E0,1.2359859E1,1.2207156E1,1.5924851E1,1.2854593E2,6.9551287E0,6.1587267E0,6.212616E0,6.2080463E1,2.0373384E1,1.9071022E1,8.673017E0,7.3645244E0,8.67439E0,1.5405018E1,2.1350424E1,1.3198961E1,7.6813216E0,1.6638472E1,1.82218E1,9.062295E0,1.1257791E1],"tree_param":{"num_deleted":"0","num_feature":"55","num_nodes":"95","size_leaf_vector":"1"}},{"base_weights":[2.3118705E-2,-7.630896E-1,5.163852E-1,-8.8398755E-1,1.0143303E-1,7.190567E-1,-2.6983368E-1,-4.8915946E-1,-1.1004585E0,7.8280467E-1,-5.849205E-1,-2.188703E-1,8.483256E-1,-5.230778E-1,6.1350435E-1,-6.9006777E-1,3.1586188E-1,-1.2833568E0,-8.5881495E-1,4.418596E-1,5.179011E-2,1.5381098E-2,-1.1152674E0,4.3191582E-2,-4.1397145E-1,1.2744148E0,6.1672074E-1,4.4203982E-1,-6.936019E-1,9.759334E-1,-1.5543407E-2,9.693921E-2,-8.942851E-1,4.2190086E-2,-5.038203E-1,-4.3420065E-3,-1.3501059E0,1.3129584E-1,-1.0514617E0,-1.7316256E-2,3.4231886E-2,-1.2077538E-2,-5.5862393E-2,-7.909148E-1,5.6012064E-1,9.6567786E-1,1.441047E0,8.105983E-1,-4.62882E-1,3.6346447E-2,-1.4264524E-2,-3.8572508E-1,-1.1436126E0,1.0315564E-2,5.0894383E-2,1.9621799E-2,-2.7337385E-2,-3.303245E-2,8.9721667E-4,-3.6166653E-2,4.974544E-3,-3.1286303E-2,-4.775759E-2,-1.7277684E-2,2.47808E-2,-5.5799887E-2,-2.6399598E-2,-2.52335E-3,-4.2190515E-2,4.0019E-2,-3.209138E-3,8.893089E-3,3.552921E-2,4.6922468E-2,3.416908E-2,2.171459E-2,4.2038705E-2,2.094106E-2,-2.0541657E-2,-2.7313964E-2,8.332621E-3,-4.8079655E-2,-1.4435063E-2],"categories":[],"categories_nodes":[],"categories_segments":[],"categories_sizes":[],"default_left":[0,0,1,1,1,0,0,0,1,0,0,0,1,0,0,1,0,0,0,1,0,0,0,0,0,1,1,0,0,0,0,0,0,0,1,0,0,0,0,0,0,0,0,1,0,0,1,0,0,0,0,0,0,0,0,0,0,0,0,0,0,0,0,0,0,0,0,0,0,0,0,0,0,0,0,0,0,0,0,0,0,0,0],"id":5,"left_children":[1,3,5,7,9,11,13,15,17,19,21,23,25,27,29,31,33,35,37,39,-1,-1,41,-1,43,45,47,49,51,53,-1,55,57,-1,59,-1,61,63,65,-1,-1,-1,-1,67,69,71,73,75,77,-1,-1,79,81,-1,-1,-1,-1,-1,-1,-1,-1,-1,-1,-1,-1,-1,-1,-1,-1,-1,-1,-1,-1,-1,-1,-1,-1,-1,-1,-1,-1,-1,-1],"loss_changes":[3.844437E2,4.0097168E1,9.721391E1,2.8281006E1,2.2004364E1,5.89171E1,2.795158E1,1.9410187E1,8.97702E0,6.7358923E0,1.3583788E1,1.8445652E1,4.157831E1,1.6100124E1,1.139339E1,1.5556175E1,2.078013E1,9.0125885E0,1.8137245E1,1.1979645E1,0E0,0E0,7.4387226E0,0E0,1.941743E1,7.0257263E0,5.8042053E1,9.916199E0,1.1122585E1,8.680279E0,0E0,1.049108E1,1.2709415E1,0E0,6.179702E0,0E0,6.981674E0,7.23752E0,1.0923256E1,0E0,0E0,0E0,0E0,1.5330841E1,7.4198775E0,6.4356003E0,1.8544159E0,1.3227676E1,9.859183E0,0E0,0E0,1.64772E1,8.877628E0,0E0,0E0,0E0,0E0,0E0,0E0,0E0,0E0,0E0,0E0,0E0,0E0,0E0,0E0,0E0,0E0,0E0,0E0,0E0,0E0,0E0,0E0,0E0,0E0,0E0,0E0,0E0,0E0,0E0,0E0],"parents":[2147483647,0,0,1,1,2,2,3,3,4,4,5,5,6,6,7,7,8,8,9,9,10,10,11,11,12,12,13,13,14,14,15,15,16,16,17,17,18,18,19,19,22,22,24,24,25,25,26,26,27,27,28,28,29,29,31,31,32,32,34,34,36,36,37,37,38,38,43,43,44,44,45,45,46,46,47,47,48,48,51,51,52,52],"right_children":[2,4,6,8,10,12,14,16,18,20,22,24,26,28,30,32,34,36,38,40,-1,-1,42,-1,44,46,48,50,52,54,-1,56,58,-1,60,-1,62,64,66,-1,-1,-1,-1,68,70,72,74,76,78,-1,-1,80,82,-1,-1,-1,-1,-1,-1,-1,-1,-1,-1,-1,-1,-1,-1,-1,-1,-1,-1,-1,-1,-1,-1,-1,-1,-1,-1,-1,-1,-1,-1],"split_conditions":[1.5559703E0,1.2584357E1,1.3639269E0,7.6079073E0,8.274928E0,3.1041882E0,1.604693E0,1.4888934E0,1.2457869E0,1.1736238E1,1.0755855E0,1.226422E0,5.247671E-1,7.9197335E0,8.03717E0,7.63248E-1,1.4930378E0,1.229419E0,1.3107989E0,5.297845E0,5.179011E-2,1.5381098E-2,1.3022168E1,4.3191582E-2,1.5618799E0,5.4004517E0,8.531979E0,1.0465167E0,1.4595565E0,4.451343E0,-1.5543407E-2,3.7143307E0,5.1048727E0,4.2190086E-2,3.656264E0,-4.3420065E-3,9.85385E0,1.0178561E1,1.3471556E0,-1.7316256E-2,3.4231886E-2,-1.2077538E-2,-5.5862393E-2,1.0398644E0,1.2952607E0,1.7121934E0,4.4823793E-1,1.7562113E0,1.365902E0,3.6346447E-2,-1.4264524E-2,1.6462463E0,1.254678E0,1.0315564E-2,5.0894383E-2,1.9621799E-2,-2.7337385E-2,-3.303245E-2,8.9721667E-4,-3.6166653E-2,4.974544E-3,-3.1286303E-2,-4.775759E-2,-1.7277684E-2,2.47808E-2,-5.5799887E-2,-2.6399598E-2,-2.52335E-3,-4.2190515E-2,4.0019E-2,-3.209138E-3,8.893089E-3,3.552921E-2,4.6922468E-2,3.416908E-2,2.171459E-2,4.2038705E-2,2.094106E-2,-2.0541657E-2,-2.7313964E-2,8.332621E-3,-4.8079655E-2,-1.4435063E-2],"split_indices":[8,3,53,29,46,1,31,39,50,15,26,6,53,15,46,31,26,0,20,27,0,0,41,0,43,34,46,49,42,34,0,9,27,0,27,0,41,36,39,0,0,0,0,49,0,26,53,32,18,0,0,26,25,0,0,0,0,0,0,0,0,0,0,0,0,0,0,0,0,0,0,0,0,0,0,0,0,0,0,0,0,0,0],"split_type":[0,0,0,0,0,0,0,0,0,0,0,0,0,0,0,0,0,0,0,0,0,0,0,0,0,0,0,0,0,0,0,0,0,0,0,0,0,0,0,0,0,0,0,0,0,0,0,0,0,0,0,0,0,0,0,0,0,0,0,0,0,0,0,0,0,0,0,0,0,0,0,0,0,0,0,0,0,0,0,0,0,0,0],"sum_hessian":[9.9112976E2,3.8192145E2,6.092083E2,3.3525522E2,4.6666237E1,4.845553E2,1.2465303E2,1.1920909E2,2.1604614E2,2.3546627E1,2.3119608E1,5.850237E1,4.2605292E2,9.709542E1,2.7557608E1,9.56073E1,2.360179E1,1.22143425E2,9.390271E1,1.7386435E1,6.160192E0,7.479945E0,1.5639663E1,6.079269E0,5.24231E1,1.4949901E2,2.7655392E2,1.4374808E1,8.272061E1,2.0954233E1,6.603376E0,1.9521872E1,7.608543E1,1.0385909E1,1.321588E1,6.9265385E0,1.1521689E2,1.5141615E1,7.876109E1,6.849216E0,1.0537219E1,7.929954E0,7.709709E0,3.795888E1,1.4464216E1,5.317233E1,9.632668E1,2.3463297E2,4.1920948E1,8.010776E0,6.3640323E0,4.953847E1,3.3182144E1,1.1014126E1,9.940106E0,1.2766795E1,6.755077E0,6.396228E1,1.2123147E1,6.669467E0,6.5464134E0,4.3745327E1,7.1471565E1,7.337784E0,7.8038316E0,1.5618727E1,6.314237E1,1.7277481E1,2.06814E1,6.915455E0,7.548762E0,1.1825507E1,4.1346825E1,7.6425705E1,1.9900978E1,1.9752524E2,3.7107723E1,6.14771E0,3.577324E1,2.8232887E1,2.1305582E1,2.022099E1,1.2961155E1],"tree_param":{"num_deleted":"0","num_feature":"55","num_nodes":"83","size_leaf_vector":"1"}},{"base_weights":[4.3750368E-2,-5.848159E-1,5.563031E-1,7.175749E-2,-7.569418E-1,-3.7963104E-2,8.9417654E-1,-5.578778E-1,4.6426386E-1,-2.682622E-1,-9.7980255E-1,2.4242923E-1,-6.030079E-1,1.2154515E0,5.093903E-1,-8.860718E-1,2.8026264E-2,2.1512237E-1,1.1602474E0,2.8948441E-2,-3.9820516E-1,-1.0419632E0,9.27578E-2,8.403255E-2,1.3052379E0,-4.2172927E-1,-4.8924286E-2,7.898035E-1,1.3340107E0,7.6161015E-1,-2.5876818E-2,-1.5243177E0,-2.34339E-2,3.981317E-2,-0E0,5.0827023E-2,1.4710505E-2,-6.4603734E-1,3.7541434E-1,-1.2320687E0,-6.9644463E-1,-2.4533214E-2,3.3399187E-2,-3.34695E-1,6.218505E-1,1.8672576E-2,5.1769547E-2,-8.491194E-1,-9.4095476E-2,1.0888819E0,-2.6128398E-2,1.4182979E0,7.8235495E-1,-2.5399521E-2,8.587154E-1,-4.4235587E-1,5.5265164E-1,-5.5240374E-2,-3.1305525E-2,2.1430619E-2,-2.3362301E-2,2.2006309E-2,-1.1987519E-2,2.204684E-2,-2.5463156E-2,-3.717084E-3,4.679063E-2,-0E0,-4.00471E-2,-0E0,-3.160787E-2,2.0782981E-2,-1.6448738E-2,-1.6936375E-2,2.4817314E-2,-1.1988494E-2,-5.6779407E-2,2.0664174E-2,-1.6515061E-2,4.817739E-2,2.0407379E-2,3.2812327E-2,4.608674E-2,4.2724557E-2,-9.937829E-3,3.6511865E-2,1.3550706E-2,4.2674122E-3,-4.425475E-2,4.0633517E-5,3.2870162E-2],"categories":[],"categories_nodes":[],"categories_segments":[],"categories_sizes":[],"default_left":[1,1,0,0,0,1,1,0,0,0,0,0,0,0,1,0,0,1,0,0,0,0,0,0,1,0,0,1,1,0,0,1,0,0,0,0,0,0,0,0,0,0,0,1,0,0,0,0,0,0,0,0,0,0,1,0,0,0,0,0,0,0,0,0,0,0,0,0,0,0,0,0,0,0,0,0,0,0,0,0,0,0,0,0,0,0,0,0,0,0,0],"id":6,"left_children":[1,3,5,7,9,11,13,15,17,19,21,23,25,27,29,31,-1,33,35,-1,37,39,41,43,45,47,-1,49,51,53,55,57,59,-1,61,-1,-1,63,65,67,69,-1,-1,71,73,-1,-1,75,77,79,-1,81,83,-1,85,87,89,-1,-1,-1,-1,-1,-1,-1,-1,-1,-1,-1,-1,-1,-1,-1,-1,-1,-1,-1,-1,-1,-1,-1,-1,-1,-1,-1,-1,-1,-1,-1,-1,-1,-1],"loss_changes":[3.167023E2,5.0021362E1,1.0892438E2,2.2657E1,3.7833725E1,3.1187983E1,4.229065E1,1.7000862E1,9.529135E0,1.7230146E1,1.6198029E1,2.17823E1,1.1180786E1,8.916229E0,2.144151E1,1.5573055E1,0E0,9.835676E0,4.385519E0,0E0,1.9193436E1,1.4413818E1,1.174725E1,2.5846302E1,3.818287E0,7.589923E0,0E0,2.0597237E1,6.217102E0,1.66666E1,1.2168611E1,1.4265099E0,6.7181654E0,0E0,9.81063E0,0E0,0E0,1.869299E1,1.3951035E1,1.2259384E1,1.865792E1,0E0,0E0,1.2928787E1,1.0934229E1,0E0,0E0,1.0362314E1,1.0801985E1,6.5827637E0,0E0,2.721405E0,1.3652392E1,0E0,1.347419E1,1.7363998E1,5.743746E0,0E0,0E0,0E0,0E0,0E0,0E0,0E0,0E0,0E0,0E0,0E0,0E0,0E0,0E0,0E0,0E0,0E0,0E0,0E0,0E0,0E0,0E0,0E0,0E0,0E0,0E0,0E0,0E0,0E0,0E0,0E0,0E0,0E0,0E0],"parents":[2147483647,0,0,1,1,2,2,3,3,4,4,5,5,6,6,7,7,8,8,9,9,10,10,11,11,12,12,13,13,14,14,15,15,17,17,18,18,20,20,21,21,22,22,23,23,24,24,25,25,27,27,28,28,29,29,30,30,31,31,32,32,34,34,37,37,38,38,39,39,40,40,43,43,44,44,47,47,48,48,49,49,51,51,52,52,54,54,55,55,56,56],"right_children":[2,4,6,8,10,12,14,16,18,20,22,24,26,28,30,32,-1,34,36,-1,38,40,42,44,46,48,-1,50,52,54,56,58,60,-1,62,-1,-1,64,66,68,70,-1,-1,72,74,-1,-1,76,78,80,-1,82,84,-1,86,88,90,-1,-1,-1,-1,-1,-1,-1,-1,-1,-1,-1,-1,-1,-1,-1,-1,-1,-1,-1,-1,-1,-1,-1,-1,-1,-1,-1,-1,-1,-1,-1,-1,-1,-1],"split_conditions":[1.6065643E0,8.077361E0,4.37125E0,3.336162E0,9.224502E-1,8.883925E0,6.710008E-1,1.0007511E1,3.2206955E0,1.2042348E0,3.5417109E0,1.0565239E1,1.1448628E0,1.738216E0,8.030121E0,1.4524664E0,2.8026264E-2,7.217325E0,8.544489E0,2.8948441E-2,6.3780146E0,1.1435106E0,1.2554156E0,3.593526E0,7.5083175E0,2.677487E0,-4.8924286E-2,8.513984E0,1.1050608E1,1.3523952E0,6.5077243E0,7.999373E0,1.0822451E0,3.981317E-2,9.238473E0,5.0827023E-2,1.4710505E-2,3.1934312E-1,8.547141E-1,7.0877585E0,9.548817E0,-2.4533214E-2,3.3399187E-2,7.271814E-1,8.6125284E-1,1.8672576E-2,5.1769547E-2,2.1961257E0,2.2230198E0,1.1006253E0,-2.6128398E-2,5.4004517E0,3.3250633E-1,-2.5399521E-2,8.558684E0,8.794105E0,9.925237E0,-5.5240374E-2,-3.1305525E-2,2.1430619E-2,-2.3362301E-2,2.2006309E-2,-1.1987519E-2,2.204684E-2,-2.5463156E-2,-3.717084E-3,4.679063E-2,-0E0,-4.00471E-2,-0E0,-3.160787E-2,2.0782981E-2,-1.6448738E-2,-1.6936375E-2,2.4817314E-2,-1.1988494E-2,-5.6779407E-2,2.0664174E-2,-1.6515061E-2,4.817739E-2,2.0407379E-2,3.2812327E-2,4.608674E-2,4.2724557E-2,-9.937829E-3,3.6511865E-2,1.3550706E-2,4.2674122E-3,-4.425475E-2,4.0633517E-5,3.2870162E-2],"split_indices":[14,45,1,1,5,28,53,16,21,21,0,3,17,20,46,20,0,45,2,0,9,31,5,34,46,27,0,46,28,12,9,40,48,0,3,0,0,13,53,46,16,0,0,32,49,0,0,27,0,7,0,34,17,0,28,46,45,0,0,0,0,0,0,0,0,0,0,0,0,0,0,0,0,0,0,0,0,0,0,0,0,0,0,0,0,0,0,0,0,0,0],"split_type":[0,0,0,0,0,0,0,0,0,0,0,0,0,0,0,0,0,0,0,0,0,0,0,0,0,0,0,0,0,0,0,0,0,0,0,0,0,0,0,0,0,0,0,0,0,0,0,0,0,0,0,0,0,0,0,0,0,0,0,0,0,0,0,0,0,0,0,0,0,0,0,0,0,0,0,0,0,0,0,0,0,0,0,0,0,0,0,0,0,0,0],"sum_hessian":[9.827255E2,4.412308E2,5.414947E2,9.1434944E1,3.4979587E2,1.9612112E2,3.4537357E2,3.489993E1,5.653501E1,1.0993345E2,2.3986241E2,1.3091014E2,6.521098E1,1.8776894E2,1.5760464E2,2.8676891E1,6.2230387E0,4.1982254E1,1.4552759E1,1.0443843E1,9.948961E1,2.2689476E2,1.2967644E1,1.1423123E2,1.6678904E1,5.542109E1,9.789892E0,4.1514248E1,1.462547E2,1.0732413E2,5.0280514E1,1.6287182E1,1.23897085E1,6.906682E0,3.507557E1,8.189586E0,6.3631735E0,7.555658E1,2.3933023E1,1.4575354E2,8.114123E1,6.750845E0,6.216799E0,6.405996E1,5.0171276E1,6.137375E0,1.0541529E1,2.3690405E1,3.1730684E1,3.524565E1,6.2685947E0,1.2636047E2,1.9894218E1,6.012697E0,1.01311424E2,2.944735E1,2.0833166E1,1.0161435E1,6.125747E0,6.135268E0,6.2544403E0,1.2271172E1,2.28044E1,8.656932E0,6.689965E1,1.6669643E1,7.2633805E0,7.501658E0,1.3825188E2,2.6080452E1,5.5060776E1,1.0336925E1,5.3723034E1,6.6119576E0,4.355932E1,1.6469244E1,7.2211595E0,1.1432873E1,2.0297812E1,1.6280983E1,1.8964668E1,2.351105E1,1.0284943E2,1.2948021E1,6.9461975E0,5.6554974E1,4.475645E1,1.8547318E1,1.0900032E1,1.0305112E1,1.0528054E1],"tree_param":{"num_deleted":"0","num_feature":"55","num_nodes":"91","size_leaf_vector":"1"}},{"base_weights":[4.039715E-2,-5.7874453E-1,5.409929E-1,9.642933E-3,-7.456489E-1,1.6318506E-1,9.65845E-1,-3.1939656E-1,6.021395E-1,-8.443848E-1,5.994579E-2,5.007046E-1,-2.0707054E-1,7.048442E-1,1.3453718E0,8.5621876E-1,-7.8373694E-1,-1.5338667E-2,1.0315807E0,-1.7351449E-1,-9.991457E-1,5.445565E-1,-8.1972545E-1,2.2298375E-1,9.240272E-1,7.295016E-1,-3.624085E-1,1.1775159E0,3.36167E-1,9.837086E-3,1.4081426E0,4.4938255E-2,-5.5344817E-3,-5.6099046E-2,-4.9097466E-1,1.4914542E0,-1.2332714E-2,-6.3681614E-1,4.9450025E-1,-1.0526781E0,-1.2059965E-1,-6.330515E-3,1.0554451E0,-4.604709E-2,-1.8731669E-3,-2.8872693E-1,5.7084525E-1,3.4146453E-3,1.1153518E0,4.5002364E-2,-9.604791E-3,-7.7000904E-1,-6.612836E-3,1.3636272E0,5.3627354E-1,6.377908E-1,-7.2390807E-1,1.4987409E0,7.6108956E-1,4.975434E-3,-3.6055982E-2,5.407205E-2,3.1932127E-2,-4.7885384E-2,-6.9396785E-3,3.507106E-2,-1.3873476E-2,-3.8700137E-2,-2.5152277E-2,-2.6094316E-2,1.7268816E-2,1.2156726E-2,4.5556746E-2,2.7813872E-2,-1.6508874E-2,1.1275731E-2,4.6630144E-2,3.9260194E-2,1.0409126E-2,-4.7095385E-3,-4.656655E-2,-1.9034248E-2,1.2025979E-2,4.5362394E-2,2.0139545E-2,3.0160472E-2,-5.595805E-4,3.1254083E-2,-1.7270515E-3,-1.7178701E-3,-3.8397178E-2,4.8130225E-2,2.4540294E-2,4.383267E-3,3.946343E-2],"categories":[],"categories_nodes":[],"categories_segments":[],"categories_sizes":[],"default_left":[1,0,0,1,0,1,0,0,0,0,1,1,0,0,0,0,1,0,1,0,0,0,0,0,0,0,0,1,0,0,1,0,0,0,0,0,0,0,0,0,0,0,0,0,0,0,1,0,0,0,0,0,0,0,0,0,0,1,0,0,0,0,0,0,0,0,0,0,0,0,0,0,0,0,0,0,0,0,0,0,0,0,0,0,0,0,0,0,0,0,0,0,0,0,0],"id":7,"left_children":[1,3,5,7,9,11,13,15,17,19,21,23,25,27,29,31,33,-1,35,37,39,41,43,45,47,49,51,53,55,-1,57,-1,-1,-1,59,61,-1,63,65,67,69,-1,71,-1,-1,73,75,-1,77,-1,-1,79,81,83,85,87,89,91,93,-1,-1,-1,-1,-1,-1,-1,-1,-1,-1,-1,-1,-1,-1,-1,-1,-1,-1,-1,-1,-1,-1,-1,-1,-1,-1,-1,-1,-1,-1,-1,-1,-1,-1,-1,-1],"loss_changes":[3.095764E2,4.3978516E1,8.843768E1,1.9294794E1,2.7837524E1,3.6668297E1,2.5195282E1,3.4617367E1,1.692305E1,3.1958588E1,1.6184929E1,1.7796947E1,2.0264423E1,2.658149E1,6.3894653E0,1.1425996E1,1.3243095E1,0E0,1.7200161E1,1.8201859E1,1.1599609E1,9.6548E0,6.54648E0,1.666402E1,9.159119E0,1.5295683E1,1.724269E1,7.572609E0,2.7957024E1,0E0,5.2022095E0,0E0,0E0,0E0,1.6111172E1,1.5316429E0,0E0,1.2750718E1,1.4742956E1,1.0839142E1,7.4667983E0,0E0,3.7069817E0,0E0,0E0,1.106423E1,1.0320887E1,0E0,5.6427E0,0E0,0E0,2.509742E1,1.5706691E1,3.4444656E0,4.025731E0,1.799243E1,6.460615E0,3.1936493E0,3.7972288E0,0E0,0E0,0E0,0E0,0E0,0E0,0E0,0E0,0E0,0E0,0E0,0E0,0E0,0E0,0E0,0E0,0E0,0E0,0E0,0E0,0E0,0E0,0E0,0E0,0E0,0E0,0E0,0E0,0E0,0E0,0E0,0E0,0E0,0E0,0E0,0E0],"parents":[2147483647,0,0,1,1,2,2,3,3,4,4,5,5,6,6,7,7,8,8,9,9,10,10,11,11,12,12,13,13,14,14,15,15,16,16,18,18,19,19,20,20,21,21,22,22,23,23,24,24,25,25,26,26,27,27,28,28,30,30,34,34,35,35,37,37,38,38,39,39,40,40,42,42,45,45,46,46,48,48,51,51,52,52,53,53,54,54,55,55,56,56,57,57,58,58],"right_children":[2,4,6,8,10,12,14,16,18,20,22,24,26,28,30,32,34,-1,36,38,40,42,44,46,48,50,52,54,56,-1,58,-1,-1,-1,60,62,-1,64,66,68,70,-1,72,-1,-1,74,76,-1,78,-1,-1,80,82,84,86,88,90,92,94,-1,-1,-1,-1,-1,-1,-1,-1,-1,-1,-1,-1,-1,-1,-1,-1,-1,-1,-1,-1,-1,-1,-1,-1,-1,-1,-1,-1,-1,-1,-1,-1,-1,-1,-1,-1],"split_conditions":[1.6065643E0,4.3171477E-1,5.1688046E0,1.4154471E0,5.3626795E0,8.452874E0,1.9873078E0,3.656731E-1,3.2528455E0,8.039387E0,5.9243054E0,4.1455173E0,3.3584517E-1,3.8509798E-1,1.656628E0,3.4391856E0,5.610322E-1,-1.5338667E-2,1.1066751E1,1.4658957E0,1.5816078E0,5.884124E0,1.2654454E1,8.465549E0,1.6961199E0,1.5934753E0,1.7613366E0,8.682928E0,8.531979E0,9.837086E-3,1.0915813E1,4.4938255E-2,-5.5344817E-3,-5.6099046E-2,8.150134E-1,1.05001335E1,-1.2332714E-2,2.785339E0,8.869144E0,2.323881E0,3.995758E0,-6.330515E-3,1.2093285E1,-4.604709E-2,-1.8731669E-3,3.7227967E-1,2.1002827E0,3.4146453E-3,8.610913E0,4.5002364E-2,-9.604791E-3,1.4388368E0,3.7143307E0,1.0337367E1,1.052148E1,1.3706032E0,1.3013288E0,1.3230902E1,1.3060199E1,4.975434E-3,-3.6055982E-2,5.407205E-2,3.1932127E-2,-4.7885384E-2,-6.9396785E-3,3.507106E-2,-1.3873476E-2,-3.8700137E-2,-2.5152277E-2,-2.6094316E-2,1.7268816E-2,1.2156726E-2,4.5556746E-2,2.7813872E-2,-1.6508874E-2,1.1275731E-2,4.6630144E-2,3.9260194E-2,1.0409126E-2,-4.7095385E-3,-4.656655E-2,-1.9034248E-2,1.2025979E-2,4.5362394E-2,2.0139545E-2,3.0160472E-2,-5.595805E-4,3.1254083E-2,-1.7270515E-3,-1.7178701E-3,-3.8397178E-2,4.8130225E-2,2.4540294E-2,4.383267E-3,3.946343E-2],"split_indices":[14,4,1,44,1,28,50,7,34,22,27,34,4,4,21,34,13,0,52,14,39,9,36,30,14,48,20,29,46,0,28,0,0,0,7,16,0,1,23,21,34,0,36,0,0,4,39,0,15,0,0,12,9,34,35,19,13,30,16,0,0,0,0,0,0,0,0,0,0,0,0,0,0,0,0,0,0,0,0,0,0,0,0,0,0,0,0,0,0,0,0,0,0,0,0],"split_type":[0,0,0,0,0,0,0,0,0,0,0,0,0,0,0,0,0,0,0,0,0,0,0,0,0,0,0,0,0,0,0,0,0,0,0,0,0,0,0,0,0,0,0,0,0,0,0,0,0,0,0,0,0,0,0,0,0,0,0,0,0,0,0,0,0,0,0,0,0,0,0,0,0,0,0,0,0,0,0,0,0,0,0,0,0,0,0,0,0,0,0,0,0,0,0],"sum_hessian":[9.985411E2,4.462321E2,5.52309E2,9.838803E1,3.4784406E2,2.9269043E2,2.596186E2,6.309684E1,3.5291195E1,3.1007022E2,3.7773827E1,1.5335493E2,1.393355E2,1.5438829E2,1.052303E2,1.7712297E1,4.538454E1,9.778345E0,2.5512848E1,5.841344E1,2.5165678E2,2.453366E1,1.3240167E1,9.301684E1,6.03381E1,1.95666E1,1.1976889E2,6.727788E1,8.711042E1,6.2951055E0,9.8935196E1,1.1278173E1,6.4341245E0,9.673601E0,3.571094E1,1.9406445E1,6.106405E0,3.4664474E1,2.3748966E1,2.3696996E2,1.4686829E1,9.826826E0,1.4706835E1,6.79785E0,6.4423165E0,3.7431934E1,5.5584908E1,1.1728067E1,4.861003E1,1.1567732E1,7.9988694E0,5.5487278E1,6.428161E1,5.1778896E1,1.5498976E1,6.800277E1,1.9107647E1,8.634761E1,1.2587585E1,1.812938E1,1.7581562E1,1.1752456E1,7.653988E0,1.0462651E1,2.4201826E1,1.4227051E1,9.521915E0,1.26669235E2,1.1030071E2,7.224889E0,7.4619403E0,6.0304756E0,8.67636E0,6.2253346E0,3.1206598E1,4.5997536E1,9.587369E0,4.0086544E1,8.523486E0,3.0516647E1,2.4970633E1,2.5465847E1,3.8815765E1,4.4544228E1,7.2346725E0,8.745623E0,6.753353E0,4.4217255E1,2.3785519E1,8.616467E0,1.0491179E1,7.8806076E1,7.5415335E0,6.001702E0,6.5858836E0],"tree_param":{"num_deleted":"0","num_feature":"55","num_nodes":"95","size_leaf_vector":"1"}},{"base_weights":[1.232056E-2,-4.6428758E-1,6.5691686E-1,-1.866343E-1,-9.1553265E-1,3.2208785E-1,1.1534889E0,-5.772789E-1,1.9009267E-1,-1.1745845E0,-5.1330847E-1,-2.03868E-1,5.969817E-1,4.262619E-1,1.287279E0,4.256734E-2,-6.765068E-1,3.5684833E-1,-8.0854356E-1,-1.2724607E0,-2.7357072E-3,1.9927636E-1,-1.0676241E0,-7.5595075E-1,1.571713E-1,1.1848775E0,2.9805917E-1,1.2001687E0,-4.5005095E-1,1.437565E-2,1.3403392E0,4.209004E-1,-7.9696167E-1,4.9574167E-2,8.243148E-1,1.1979011E-2,-1.4983846E0,-7.309176E-3,-1.3393612E0,-3.3540103E-1,9.604729E-1,-1.3264599E0,9.651519E-3,-0E0,-1.1030871E0,8.6017144E-1,-2.8921852E-1,1.4984049E0,9.02061E-1,1.4803759E0,-0E0,1.5285541E-2,5.2374467E-2,8.257118E-3,-3.613092E-2,1.4168913E0,7.262754E-1,3.4742508E-2,-2.003715E-2,-2.8428398E-2,1.2414522E-2,2.2973597E-2,-8.860843E-3,9.516983E-3,3.5127692E-2,-2.4687536E-2,-5.8829542E-2,-3.7915703E-2,-5.1777825E-2,-4.61626E-2,5.394148E-3,4.494272E-2,7.7320845E-3,-4.6681292E-2,-1.1177529E-2,2.6940766E-3,-4.945264E-2,6.241448E-3,4.6282068E-2,3.5521656E-4,-3.39053E-2,3.531138E-2,5.1221386E-2,9.686946E-3,4.474495E-2,5.4768436E-2,2.7217798E-2,4.9357194E-2,-3.801311E-3,4.62571E-2,3.42958E-2,4.356741E-2,4.3498614E-4],"categories":[],"categories_nodes":[],"categories_segments":[],"categories_sizes":[],"default_left":[0,1,0,0,0,0,0,0,0,0,0,0,0,1,0,0,0,0,1,0,0,0,0,0,0,0,0,0,0,0,1,1,1,1,0,0,0,0,0,0,0,0,0,0,0,0,0,0,0,0,0,0,0,0,0,1,1,0,0,0,0,0,0,0,0,0,0,0,0,0,0,0,0,0,0,0,0,0,0,0,0,0,0,0,0,0,0,0,0,0,0,0,0],"id":8,"left_children":[1,3,5,7,9,11,13,15,17,19,21,23,25,27,29,-1,31,33,35,37,-1,39,41,43,45,47,49,51,53,-1,55,57,59,61,63,-1,65,-1,67,69,71,73,-1,-1,75,77,79,81,83,85,87,-1,-1,-1,-1,89,91,-1,-1,-1,-1,-1,-1,-1,-1,-1,-1,-1,-1,-1,-1,-1,-1,-1,-1,-1,-1,-1,-1,-1,-1,-1,-1,-1,-1,-1,-1,-1,-1,-1,-1,-1,-1],"loss_changes":[2.9968668E2,6.99985E1,6.8625595E1,5.1230785E1,2.1803864E1,3.5976006E1,1.58133545E1,3.3220947E1,2.9395199E1,1.3463806E1,3.3416138E1,1.7087948E1,2.8354912E1,1.8105362E1,5.6800537E0,0E0,2.1648972E1,2.1623764E1,2.1095875E1,7.8530273E0,0E0,1.5135885E1,1.7225346E1,8.997011E0,1.6261446E1,4.1902924E0,3.817203E1,4.430044E0,6.6320486E0,0E0,5.624359E0,1.2350274E1,2.2293266E1,2.169749E1,9.419163E0,0E0,3.8596458E0,0E0,3.250885E0,1.3092383E1,5.0448914E0,6.842415E0,0E0,0E0,1.422732E1,8.130662E0,7.857832E0,6.3871384E-1,9.127708E0,3.1198463E0,1.7335144E1,0E0,0E0,0E0,0E0,2.2297974E0,7.1629915E0,0E0,0E0,0E0,0E0,0E0,0E0,0E0,0E0,0E0,0E0,0E0,0E0,0E0,0E0,0E0,0E0,0E0,0E0,0E0,0E0,0E0,0E0,0E0,0E0,0E0,0E0,0E0,0E0,0E0,0E0,0E0,0E0,0E0,0E0,0E0,0E0],"parents":[2147483647,0,0,1,1,2,2,3,3,4,4,5,5,6,6,7,7,8,8,9,9,10,10,11,11,12,12,13,13,14,14,16,16,17,17,18,18,19,19,21,21,22,22,23,23,24,24,25,25,26,26,27,27,28,28,30,30,31,31,32,32,33,33,34,34,36,36,38,38,39,39,40,40,41,41,44,44,45,45,46,46,47,47,48,48,49,49,50,50,55,55,56,56],"right_children":[2,4,6,8,10,12,14,16,18,20,22,24,26,28,30,-1,32,34,36,38,-1,40,42,44,46,48,50,52,54,-1,56,58,60,62,64,-1,66,-1,68,70,72,74,-1,-1,76,78,80,82,84,86,88,-1,-1,-1,-1,90,92,-1,-1,-1,-1,-1,-1,-1,-1,-1,-1,-1,-1,-1,-1,-1,-1,-1,-1,-1,-1,-1,-1,-1,-1,-1,-1,-1,-1,-1,-1,-1,-1,-1,-1,-1,-1],"split_conditions":[1.710303E0,1.3390086E0,1.9937707E0,1.4616753E0,1.1765993E0,4.1930637E0,3.6858065E0,-1.0223044E-2,1.4468608E0,3.099661E0,9.49743E0,2.660973E0,3.8424966E-1,1.7626909E0,1.8223644E0,4.256734E-2,1.2831221E0,1.5991676E0,8.077361E0,8.102639E0,-2.7357072E-3,3.3797984E0,1.664718E0,7.8459234E0,1.1560214E0,4.335465E0,8.609665E0,1.7702426E0,8.960187E0,1.437565E-2,1.0915813E1,7.807396E-1,7.071326E0,7.547337E-1,4.1455173E0,1.1979011E-2,1.154779E0,-7.309176E-3,1.1879021E0,1.5240444E0,8.990421E0,9.326419E0,9.651519E-3,-0E0,1.009819E0,9.150019E-1,3.5583596E0,1.6014421E0,3.799011E0,7.4104033E0,7.657665E0,1.5285541E-2,5.2374467E-2,8.257118E-3,-3.613092E-2,8.016685E0,4.3636686E-1,3.4742508E-2,-2.003715E-2,-2.8428398E-2,1.2414522E-2,2.2973597E-2,-8.860843E-3,9.516983E-3,3.5127692E-2,-2.4687536E-2,-5.8829542E-2,-3.7915703E-2,-5.1777825E-2,-4.61626E-2,5.394148E-3,4.494272E-2,7.7320845E-3,-4.6681292E-2,-1.1177529E-2,2.6940766E-3,-4.945264E-2,6.241448E-3,4.6282068E-2,3.5521656E-4,-3.39053E-2,3.531138E-2,5.1221386E-2,9.686946E-3,4.474495E-2,5.4768436E-2,2.7217798E-2,4.9357194E-2,-3.801311E-3,4.62571E-2,3.42958E-2,4.356741E-2,4.3498614E-4],"split_indices":[14,53,33,8,31,1,9,43,12,0,52,27,17,27,0,0,0,14,45,30,0,27,14,51,53,27,52,12,41,0,28,31,34,49,34,0,49,0,12,53,52,46,0,0,43,53,27,33,0,46,10,0,0,0,0,46,53,0,0,0,0,0,0,0,0,0,0,0,0,0,0,0,0,0,0,0,0,0,0,0,0,0,0,0,0,0,0,0,0,0,0,0,0],"split_type":[0,0,0,0,0,0,0,0,0,0,0,0,0,0,0,0,0,0,0,0,0,0,0,0,0,0,0,0,0,0,0,0,0,0,0,0,0,0,0,0,0,0,0,0,0,0,0,0,0,0,0,0,0,0,0,0,0,0,0,0,0,0,0,0,0,0,0,0,0,0,0,0,0,0,0,0,0,0,0,0,0,0,0,0,0,0,0,0,0,0,0,0,0],"sum_hessian":[9.750529E2,5.6042645E2,4.1462643E2,3.473442E2,2.1308226E2,2.4802551E2,1.6660092E2,1.7073041E2,1.766138E2,1.2913998E2,8.3942276E1,8.491106E1,1.6311446E2,2.620912E1,1.403918E2,8.043852E0,1.6268655E2,1.5159062E2,2.5023182E1,1.18276344E2,1.0863638E1,3.6620544E1,4.732173E1,3.3715115E1,5.119594E1,5.4612564E1,1.085019E2,1.400306E1,1.220606E1,8.834488E0,1.3155731E2,1.5896258E1,1.467903E2,9.181633E1,5.9774284E1,9.070887E0,1.5952294E1,7.394702E0,1.10881645E2,2.141443E1,1.5206114E1,3.997292E1,7.348811E0,1.0568802E1,2.3146313E1,1.999341E1,3.1202528E1,2.526626E1,2.9346302E1,2.1668707E1,8.683319E1,6.0964236E0,7.9066367E0,6.0380325E0,6.168028E0,1.165195E2,1.503781E1,9.680694E0,6.2155647E0,1.330603E2,1.3730001E1,3.0086014E1,6.173032E1,2.3044313E1,3.672997E1,6.253604E0,9.69869E0,8.498301E1,2.5898632E1,6.556492E0,1.4857939E1,8.682025E0,6.5240884E0,3.3197903E1,6.7750173E0,6.7872376E0,1.6359076E1,1.0121073E1,9.872337E0,2.2701305E1,8.501223E0,8.774416E0,1.6491846E1,1.4470643E1,1.4875659E1,1.4056197E1,7.6125107E0,6.123652E0,8.070954E1,9.028225E1,2.623725E1,7.4378366E0,7.5999737E0],"tree_param":{"num_deleted":"0","num_feature":"55","num_nodes":"93","size_leaf_vector":"1"}},{"base_weights":[1.2327701E-2,-6.749098E-1,4.4506848E-1,-2.0293681E-1,-9.220203E-1,5.3626593E-2,8.367649E-1,5.2261543E-1,-3.7732175E-1,-1.0216945E0,-2.258595E-1,2.0444746E-1,-6.191098E-1,5.434504E-1,1.22107E0,5.9307978E-2,4.6919387E-2,5.154923E-1,-5.7283366E-1,3.90734E-3,-1.0680221E0,5.7472056E-1,-1.0089247E0,8.466446E-1,6.570425E-2,-9.287965E-1,3.5017437E-1,1.201011E0,3.2562947E-1,1.304755E0,6.5616494E-1,2.996199E-2,-2.0494822E-2,-4.230756E-3,4.404957E-2,-1.0528748E0,-1.3889521E-1,-1.390009E0,-9.159207E-1,3.4945805E-2,2.5492092E-3,-6.802443E-3,-5.2666765E-2,1.1823423E0,3.618456E-2,-2.6299304E-1,3.202663E-1,6.09228E-4,-1.1012292E0,3.2317054E-2,-1.249394E-2,1.0901275E-2,1.3456619E0,5.6158984E-1,-5.186156E-1,1.3570713E0,1.3212197E-2,-1.0333269E-2,3.9113432E-2,-3.8385563E-2,-1.4406071E-3,-3.4592554E-2,3.7075344E-3,-4.730535E-2,-1.6680673E-2,-1.8164545E-2,-3.8695745E-2,2.0460155E-2,4.9163297E-2,-2.8624522E-2,3.3038255E-2,2.5074909E-2,-1.4153251E-2,1.5261757E-2,-1.3961237E-2,-4.536577E-2,-1.5384594E-2,4.722615E-2,3.070706E-2,3.3306967E-2,9.512518E-3,3.1068197E-3,-4.1760035E-2,3.479029E-2,4.743898E-2],"categories":[],"categories_nodes":[],"categories_segments":[],"categories_sizes":[],"default_left":[0,0,0,0,0,0,0,0,0,1,0,1,0,1,1,0,0,1,0,0,0,0,0,0,0,0,0,1,0,0,0,0,0,0,0,1,0,0,0,0,0,0,0,0,1,0,0,0,0,0,0,0,0,0,0,0,0,0,0,0,0,0,0,0,0,0,0,0,0,0,0,0,0,0,0,0,0,0,0,0,0,0,0,0,0],"id":9,"left_children":[1,3,5,7,9,11,13,15,17,19,21,23,25,27,29,31,-1,33,35,-1,37,39,41,43,45,47,49,51,53,55,57,-1,-1,-1,-1,59,61,63,65,-1,-1,-1,-1,67,69,71,73,-1,75,-1,-1,-1,77,79,81,83,-1,-1,-1,-1,-1,-1,-1,-1,-1,-1,-1,-1,-1,-1,-1,-1,-1,-1,-1,-1,-1,-1,-1,-1,-1,-1,-1,-1,-1],"loss_changes":[2.8675876E2,4.3195496E1,9.058146E1,1.6255417E1,1.6668076E1,3.0020903E1,3.288359E1,1.1147998E1,1.8186575E1,1.1548737E1,1.9616278E1,2.1426344E1,1.6399862E1,2.374197E1,5.5242615E0,1.1533277E1,0E0,1.1352394E1,1.7551027E1,0E0,9.413559E0,3.9676347E0,8.323891E0,1.1413795E1,1.6745823E1,6.9469757E0,7.082809E0,4.698738E0,2.5309917E1,4.6407776E0,1.0615005E1,0E0,0E0,0E0,0E0,7.5682755E0,1.1753972E1,7.496048E0,1.5088142E1,0E0,0E0,0E0,0E0,5.854065E0,1.3047167E1,1.8372698E1,1.5336687E1,0E0,7.332386E0,0E0,0E0,0E0,1.5839539E0,1.2728981E1,1.456112E1,3.5550537E0,0E0,0E0,0E0,0E0,0E0,0E0,0E0,0E0,0E0,0E0,0E0,0E0,0E0,0E0,0E0,0E0,0E0,0E0,0E0,0E0,0E0,0E0,0E0,0E0,0E0,0E0,0E0,0E0,0E0],"parents":[2147483647,0,0,1,1,2,2,3,3,4,4,5,5,6,6,7,7,8,8,9,9,10,10,11,11,12,12,13,13,14,14,15,15,17,17,18,18,20,20,21,21,22,22,23,23,24,24,25,25,26,26,27,27,28,28,29,29,30,30,35,35,36,36,37,37,38,38,43,43,44,44,45,45,46,46,48,48,52,52,53,53,54,54,55,55],"right_children":[2,4,6,8,10,12,14,16,18,20,22,24,26,28,30,32,-1,34,36,-1,38,40,42,44,46,48,50,52,54,56,58,-1,-1,-1,-1,60,62,64,66,-1,-1,-1,-1,68,70,72,74,-1,76,-1,-1,-1,78,80,82,84,-1,-1,-1,-1,-1,-1,-1,-1,-1,-1,-1,-1,-1,-1,-1,-1,-1,-1,-1,-1,-1,-1,-1,-1,-1,-1,-1,-1,-1],"split_conditions":[1.5559703E0,9.4709903E-1,4.8325453E0,3.656731E-1,1.0781356E0,1.453346E0,1.9424236E0,1.1766307E1,9.391134E0,7.036763E0,7.8560667E0,7.514817E0,1.604693E0,8.012001E0,1.08680525E1,7.59732E0,4.6919387E-2,7.6243887E0,4.361711E0,3.90734E-3,2.9226184E0,9.470004E0,1.2893614E0,1.6550024E0,2.9754345E0,8.605124E-1,3.8977857E0,9.983032E-1,6.276329E-1,1.191274E1,1.9673525E0,2.996199E-2,-2.0494822E-2,-4.230756E-3,4.404957E-2,1.1426079E1,4.9839625E-1,1.4399759E0,1.0099044E1,3.4945805E-2,2.5492092E-3,-6.802443E-3,-5.2666765E-2,1.6841266E0,3.7817192E0,1.254771E0,9.606684E0,6.09228E-4,1.2379642E0,3.2317054E-2,-1.249394E-2,1.0901275E-2,1.3001431E0,1.4428041E0,1.4789156E0,6.9725823E0,1.3212197E-2,-1.0333269E-2,3.9113432E-2,-3.8385563E-2,-1.4406071E-3,-3.4592554E-2,3.7075344E-3,-4.730535E-2,-1.6680673E-2,-1.8164545E-2,-3.8695745E-2,2.0460155E-2,4.9163297E-2,-2.8624522E-2,3.3038255E-2,2.5074909E-2,-1.4153251E-2,1.5261757E-2,-1.3961237E-2,-4.536577E-2,-1.5384594E-2,4.722615E-2,3.070706E-2,3.3306967E-2,9.512518E-3,3.1068197E-3,-4.1760035E-2,3.479029E-2,4.743898E-2],"split_indices":[8,5,1,7,49,5,50,28,3,29,29,45,31,28,28,29,0,46,9,0,9,36,42,37,27,19,1,38,4,51,31,0,0,0,0,45,5,39,11,0,0,0,0,14,34,6,22,0,49,0,0,0,25,12,48,34,0,0,0,0,0,0,0,0,0,0,0,0,0,0,0,0,0,0,0,0,0,0,0,0,0,0,0,0,0],"split_type":[0,0,0,0,0,0,0,0,0,0,0,0,0,0,0,0,0,0,0,0,0,0,0,0,0,0,0,0,0,0,0,0,0,0,0,0,0,0,0,0,0,0,0,0,0,0,0,0,0,0,0,0,0,0,0,0,0,0,0,0,0,0,0,0,0,0,0,0,0,0,0,0,0,0,0,0,0,0,0,0,0,0,0,0,0],"sum_hessian":[9.6407074E2,3.722972E2,5.9177356E2,1.2830022E2,2.43997E2,2.96314E2,2.9545956E2,2.458985E1,1.0371036E2,2.1313506E2,3.0861937E1,2.423681E2,5.394589E1,1.6805925E2,1.2740031E2,1.7045866E1,7.5439835E0,1.8410534E1,8.529983E1,8.094107E0,2.0504094E2,1.5160196E1,1.5701741E1,4.2675735E1,1.9969237E2,4.103751E1,1.29083805E1,4.1427288E1,1.2663196E2,1.1049265E2,1.6907656E1,7.634315E0,9.4115505E0,1.0694426E1,7.716108E0,4.0185642E1,4.5114185E1,6.4978645E1,1.400623E2,6.8194194E0,8.340776E0,7.609934E0,8.091807E0,2.9960129E1,1.2715607E1,8.682615E1,1.1286623E2,6.163331E0,3.487418E1,6.80756E0,6.1008205E0,6.3110085E0,3.511628E1,9.918724E1,2.7444714E1,1.0398057E2,6.5120807E0,6.3680983E0,1.0539557E1,3.353462E1,6.6510224E0,9.455202E0,3.5658985E1,5.5194283E1,9.784361E0,7.193161E1,6.813069E1,1.3668493E1,1.6291636E1,6.4959164E0,6.219691E0,1.3163821E1,7.366232E1,9.2285576E1,2.0580648E1,2.1244661E1,1.3629517E1,2.2179632E1,1.2936646E1,3.2074837E1,6.711241E1,1.5715363E1,1.172935E1,4.715251E1,5.682806E1],"tree_param":{"num_deleted":"0","num_feature":"55","num_nodes":"85","size_leaf_vector":"1"}},{"base_weights":[-2.6091626E-2,-5.2823234E-1,6.085699E-1,-6.941472E-1,1.2127632E-1,3.4333218E-2,8.668332E-1,3.3704084E-1,-7.7172834E-1,3.2013834E-1,-7.166734E-1,-1.45558E-1,7.730355E-1,5.895432E-1,1.2228918E0,-2.2048729E-2,6.95944E-1,-1.1405697E0,-5.4453003E-1,5.713667E-1,-4.7542003E-1,-4.712733E-2,-3.4496305E-3,1.5948637E-1,-7.4255043E-1,-5.6322836E-3,1.0831741E0,1.3440268E0,3.3664387E-1,2.025158E-3,1.2892438E0,4.7381356E-2,9.758261E-2,-8.493477E-1,-1.4607999E0,-3.1633452E-1,-9.3815666E-1,-2.83348E-1,8.30814E-1,-3.8055938E-2,2.9505598E-3,7.496235E-1,-2.4191241E-1,4.896449E-3,-1.02775E0,1.4151547E0,1.441189E-2,1.504946E0,1.3238047E-2,1.1109989E0,5.8101613E-2,1.3406444E0,9.637324E-3,-3.1596243E-2,3.358987E-2,-3.1275507E-2,1.0611058E-2,-3.1979E-2,-4.9268402E-2,-7.424374E-3,-5.5792086E-2,-1.2690393E-3,-3.4975566E-2,-3.9124567E-2,1.6987342E-2,1.5683263E-3,3.1214202E-2,3.6489595E-2,-8.6684255E-3,-2.9923074E-2,1.1430368E-2,-1.9915959E-2,-5.0658997E-2,5.078816E-2,3.4568004E-2,2.8685626E-2,5.1179226E-2,1.19896745E-2,3.9028216E-2,1.2136442E-2,-1.2065734E-2,3.659038E-2,4.609444E-2],"categories":[],"categories_nodes":[],"categories_segments":[],"categories_sizes":[],"default_left":[1,0,0,0,1,0,0,0,1,0,1,1,1,0,0,0,0,0,0,0,0,0,0,0,0,0,0,0,0,0,1,0,0,0,0,0,0,0,0,0,0,1,0,0,0,0,0,1,0,1,0,0,0,0,0,0,0,0,0,0,0,0,0,0,0,0,0,0,0,0,0,0,0,0,0,0,0,0,0,0,0,0,0],"id":10,"left_children":[1,3,5,7,9,11,13,15,17,19,21,23,25,27,29,-1,31,33,35,37,39,-1,-1,41,43,-1,45,47,49,-1,51,-1,53,55,57,59,61,63,65,-1,-1,67,69,-1,71,73,-1,75,-1,77,79,81,-1,-1,-1,-1,-1,-1,-1,-1,-1,-1,-1,-1,-1,-1,-1,-1,-1,-1,-1,-1,-1,-1,-1,-1,-1,-1,-1,-1,-1,-1,-1],"loss_changes":[3.0396222E2,5.7525192E1,6.2283066E1,3.4087234E1,1.8003433E1,1.755082E1,2.8201965E1,1.1270254E1,3.268936E1,1.7609163E1,9.800027E0,1.9306042E1,7.8781757E0,3.0860989E1,9.452103E0,0E0,1.0903857E1,1.3369186E1,2.1729797E1,1.4994312E1,9.334555E0,0E0,0E0,1.6613468E1,9.407326E0,0E0,3.5692768E0,5.546562E0,2.6310173E1,0E0,5.6236725E0,0E0,1.5051296E1,1.5854935E1,3.3853302E0,1.708303E1,1.5579529E1,1.3037738E1,7.1173134E0,0E0,0E0,1.2948431E1,1.8647514E1,0E0,5.8433266E0,4.3851852E-2,0E0,2.3563461E0,0E0,3.241665E0,1.3738762E1,1.9111633E0,0E0,0E0,0E0,0E0,0E0,0E0,0E0,0E0,0E0,0E0,0E0,0E0,0E0,0E0,0E0,0E0,0E0,0E0,0E0,0E0,0E0,0E0,0E0,0E0,0E0,0E0,0E0,0E0,0E0,0E0,0E0],"parents":[2147483647,0,0,1,1,2,2,3,3,4,4,5,5,6,6,7,7,8,8,9,9,10,10,11,11,12,12,13,13,14,14,16,16,17,17,18,18,19,19,20,20,23,23,24,24,26,26,27,27,28,28,30,30,32,32,33,33,34,34,35,35,36,36,37,37,38,38,41,41,42,42,44,44,45,45,47,47,49,49,50,50,51,51],"right_children":[2,4,6,8,10,12,14,16,18,20,22,24,26,28,30,-1,32,34,36,38,40,-1,-1,42,44,-1,46,48,50,-1,52,-1,54,56,58,60,62,64,66,-1,-1,68,70,-1,72,74,-1,76,-1,78,80,82,-1,-1,-1,-1,-1,-1,-1,-1,-1,-1,-1,-1,-1,-1,-1,-1,-1,-1,-1,-1,-1,-1,-1,-1,-1,-1,-1,-1,-1,-1,-1],"split_conditions":[1.710303E0,5.1386175E0,4.37125E0,4.3089288E-1,9.478414E0,1.6816826E0,1.9856164E0,8.301762E0,1.2387135E0,1.0629213E0,1.2591513E1,7.896897E0,8.429084E0,9.140312E0,1.4587324E0,-2.2048729E-2,9.26318E-1,8.172525E0,1.0148498E1,5.054505E-1,3.17461E0,-4.712733E-2,-3.4496305E-3,1.5873187E0,5.990404E-1,-5.6322836E-3,1.7436675E0,1.1933106E0,3.1841406E-1,2.025158E-3,9.337613E0,4.7381356E-2,1.514937E0,1.4742548E0,9.0309596E-1,1.4898685E0,8.589477E0,1.4653924E0,9.451736E0,-3.8055938E-2,2.9505598E-3,8.411176E0,1.9349189E0,4.896449E-3,1.8004084E0,3.4279788E0,1.441189E-2,4.681853E0,1.3238047E-2,1.6807668E0,9.454164E0,7.203091E0,9.637324E-3,-3.1596243E-2,3.358987E-2,-3.1275507E-2,1.0611058E-2,-3.1979E-2,-4.9268402E-2,-7.424374E-3,-5.5792086E-2,-1.2690393E-3,-3.4975566E-2,-3.9124567E-2,1.6987342E-2,1.5683263E-3,3.1214202E-2,3.6489595E-2,-8.6684255E-3,-2.9923074E-2,1.1430368E-2,-1.9915959E-2,-5.0658997E-2,5.078816E-2,3.4568004E-2,2.8685626E-2,5.1179226E-2,1.19896745E-2,3.9028216E-2,1.2136442E-2,-1.2065734E-2,3.659038E-2,4.609444E-2],"split_indices":[14,1,1,53,46,32,33,51,50,5,30,46,36,30,21,0,12,46,23,5,21,0,0,18,53,0,19,5,4,0,29,0,14,26,50,12,51,50,30,0,0,45,44,0,33,9,0,34,0,44,35,34,0,0,0,0,0,0,0,0,0,0,0,0,0,0,0,0,0,0,0,0,0,0,0,0,0,0,0,0,0,0,0],"split_type":[0,0,0,0,0,0,0,0,0,0,0,0,0,0,0,0,0,0,0,0,0,0,0,0,0,0,0,0,0,0,0,0,0,0,0,0,0,0,0,0,0,0,0,0,0,0,0,0,0,0,0,0,0,0,0,0,0,0,0,0,0,0,0,0,0,0,0,0,0,0,0,0,0,0,0,0,0,0,0,0,0,0,0],"sum_hessian":[9.535268E2,5.3252344E2,4.210034E2,4.243958E2,1.0812763E2,1.3088942E2,2.9011395E2,2.9487173E1,3.9490863E2,8.764942E1,2.0478207E1,1.0514888E2,2.5740547E1,1.6362857E2,1.2648538E2,7.3240433E0,2.216313E1,1.4997523E2,2.4493341E2,6.682872E1,2.0820702E1,8.502137E0,1.197607E1,6.945377E1,3.5695107E1,6.1709776E0,1.956957E1,4.0722134E1,1.2290643E2,7.0317698E0,1.1945361E2,8.976684E0,1.3186447E1,7.915169E1,7.082355E1,1.5553058E2,8.940283E1,1.5387533E1,5.144119E1,9.003211E0,1.1817491E1,2.8254795E1,4.119898E1,8.434762E0,2.7260344E1,1.2381462E1,7.188108E0,3.4366497E1,6.3556356E0,3.2211803E1,9.069463E1,1.1324027E2,6.213339E0,6.0940433E0,7.092404E0,6.967111E1,9.480576E0,1.8082018E1,5.2741528E1,1.4835004E2,7.180542E0,1.6295444E1,7.310739E1,7.120787E0,8.266746E0,9.973083E0,4.1468105E1,1.9991331E1,8.263464E0,1.8915535E1,2.2283445E1,1.7222925E1,1.0037418E1,6.142849E0,6.2386127E0,7.8284893E0,2.653801E1,6.021378E0,2.6190424E1,5.2178043E1,3.8516586E1,5.825596E1,5.4984314E1],"tree_param":{"num_deleted":"0","num_feature":"55","num_nodes":"83","size_leaf_vector":"1"}},{"base_weights":[-2.2068236E-3,-6.3648933E-1,3.9912635E-1,-1.5167691E-1,-8.390066E-1,-4.4929076E-2,6.8357563E-1,4.285036E-1,-5.219396E-1,-1.0375035E0,-5.0641996E-1,1.5400563E-1,-6.5399945E-1,3.885478E-1,1.1464039E0,8.952491E-1,-1.5987284E-1,-8.145657E-1,3.0892087E-2,6.164916E-3,-1.0921935E0,3.9277233E-2,-6.376296E-1,5.6987476E-1,-3.560773E-2,-3.071196E-1,-1.4509273E0,9.330899E-1,1.5027146E-1,4.2862794E-3,1.2026947E0,5.3239292E-3,1.1999656E0,-3.2011006E-2,2.6157817E-1,-1.0430778E0,8.021562E-3,-1.3109233E0,-8.970316E-1,-8.4039074E-1,1.5785292E-2,-2.048878E-2,8.017597E-1,-6.4710444E-1,2.3775241E-1,7.311558E-2,-1.1591071E0,-2.738855E-2,-5.3322297E-2,1.3220444E0,5.3743434E-1,1.0458297E0,4.972174E-2,1.2813953E0,5.7428825E-1,2.0965353E-2,5.0020397E-2,1.995373E-2,-2.5770853E-3,-5.084298E-3,-3.8887125E-2,-1.13209225E-2,-4.3532416E-2,-1.949405E-2,-4.2926244E-2,-4.974857E-3,-3.3023093E-2,-2.190933E-2,3.725921E-2,3.1458586E-2,-7.793422E-3,1.665962E-3,-5.647664E-2,-1.9587308E-2,1.3890905E-2,-1.8053045E-2,2.7473342E-2,-5.6242816E-2,-1.2943079E-2,5.0755113E-2,3.0090606E-2,-5.9620384E-3,3.583262E-2,4.3776553E-2,1.3259359E-2,7.37051E-3,-1.6528944E-2,4.1143905E-2,1.5578197E-2,-5.914902E-3,3.6709677E-2],"categories":[],"categories_nodes":[],"categories_segments":[],"categories_sizes":[],"default_left":[0,1,0,1,0,1,0,1,0,0,0,0,0,0,0,1,0,0,0,0,0,0,0,0,1,0,0,1,0,0,1,0,0,0,0,0,0,0,0,0,0,0,1,0,0,0,0,0,0,0,0,0,0,1,0,0,0,0,0,0,0,0,0,0,0,0,0,0,0,0,0,0,0,0,0,0,0,0,0,0,0,0,0,0,0,0,0,0,0,0,0],"id":11,"left_children":[1,3,5,7,9,11,13,15,17,19,21,23,25,27,29,31,33,35,-1,-1,37,-1,39,41,43,45,47,49,51,-1,53,-1,55,-1,57,59,-1,61,63,65,67,-1,69,71,73,75,77,-1,-1,79,81,83,85,87,89,-1,-1,-1,-1,-1,-1,-1,-1,-1,-1,-1,-1,-1,-1,-1,-1,-1,-1,-1,-1,-1,-1,-1,-1,-1,-1,-1,-1,-1,-1,-1,-1,-1,-1,-1,-1],"loss_changes":[2.4392862E2,3.626288E1,7.422076E1,2.3664068E1,1.6901611E1,2.784858E1,4.8499435E1,1.1889528E1,3.0140524E1,1.1261871E1,2.3015438E1,1.3703515E1,1.525024E1,2.8189266E1,7.598358E0,4.9937763E0,7.168815E0,1.4119358E1,0E0,0E0,6.0844727E0,0E0,1.233733E1,1.5663679E1,1.9872705E1,1.31188755E1,1.928524E0,9.753056E0,1.354043E1,0E0,6.0321045E0,0E0,3.0591736E0,0E0,1.809241E0,8.716064E0,0E0,6.594261E0,1.0458885E1,1.0786961E1,1.9043957E1,0E0,1.0801233E1,3.0943132E1,1.5196445E1,1.498025E1,5.5824623E0,0E0,0E0,2.972992E0,1.5492553E1,3.064497E0,1.525425E1,4.3993225E0,7.3997054E0,0E0,0E0,0E0,0E0,0E0,0E0,0E0,0E0,0E0,0E0,0E0,0E0,0E0,0E0,0E0,0E0,0E0,0E0,0E0,0E0,0E0,0E0,0E0,0E0,0E0,0E0,0E0,0E0,0E0,0E0,0E0,0E0,0E0,0E0,0E0,0E0],"parents":[2147483647,0,0,1,1,2,2,3,3,4,4,5,5,6,6,7,7,8,8,9,9,10,10,11,11,12,12,13,13,14,14,15,15,16,16,17,17,20,20,22,22,23,23,24,24,25,25,26,26,27,27,28,28,30,30,32,32,34,34,35,35,37,37,38,38,39,39,40,40,42,42,43,43,44,44,45,45,46,46,49,49,50,50,51,51,52,52,53,53,54,54],"right_children":[2,4,6,8,10,12,14,16,18,20,22,24,26,28,30,32,34,36,-1,-1,38,-1,40,42,44,46,48,50,52,-1,54,-1,56,-1,58,60,-1,62,64,66,68,-1,70,72,74,76,78,-1,-1,80,82,84,86,88,90,-1,-1,-1,-1,-1,-1,-1,-1,-1,-1,-1,-1,-1,-1,-1,-1,-1,-1,-1,-1,-1,-1,-1,-1,-1,-1,-1,-1,-1,-1,-1,-1,-1,-1,-1,-1],"split_conditions":[1.5510849E0,8.898221E-1,4.2644014E0,7.451979E0,3.19318E0,1.4446603E0,1.8978949E0,6.8315727E-1,1.1874112E1,7.7530675E0,8.802862E0,4.2102614E-1,8.014943E0,8.253909E0,1.9108964E0,7.03976E0,9.418051E-1,1.4909524E0,3.0892087E-2,6.164916E-3,6.806332E-1,3.9277233E-2,1.034854E0,8.440072E0,1.5551354E0,1.8163239E0,1.6393278E0,8.978701E0,2.4894747E-1,4.2862794E-3,1.3289817E1,5.3239292E-3,1.0769582E1,-3.2011006E-2,9.0214884E-1,9.187469E0,8.021562E-3,1.0501838E0,1.2093964E0,1.2516358E0,1.1388094E1,-2.048878E-2,1.1646084E1,1.3586369E0,7.8211975E-1,1.6967537E0,1.7122729E0,-2.738855E-2,-5.3322297E-2,7.806074E0,1.0512624E1,1.0114283E1,8.844074E0,1.1512257E1,1.0781109E1,2.0965353E-2,5.0020397E-2,1.995373E-2,-2.5770853E-3,-5.084298E-3,-3.8887125E-2,-1.13209225E-2,-4.3532416E-2,-1.949405E-2,-4.2926244E-2,-4.974857E-3,-3.3023093E-2,-2.190933E-2,3.725921E-2,3.1458586E-2,-7.793422E-3,1.665962E-3,-5.647664E-2,-1.9587308E-2,1.3890905E-2,-1.8053045E-2,2.7473342E-2,-5.6242816E-2,-1.2943079E-2,5.0755113E-2,3.0090606E-2,-5.9620384E-3,3.583262E-2,4.3776553E-2,1.3259359E-2,7.37051E-3,-1.6528944E-2,4.1143905E-2,1.5578197E-2,-5.914902E-3,3.6709677E-2],"split_indices":[8,53,9,29,27,53,50,49,10,30,3,17,29,45,0,29,32,54,0,0,32,0,32,52,50,54,54,52,17,0,30,0,16,0,7,52,0,20,12,20,36,0,30,42,53,20,42,0,0,2,52,22,46,35,10,0,0,0,0,0,0,0,0,0,0,0,0,0,0,0,0,0,0,0,0,0,0,0,0,0,0,0,0,0,0,0,0,0,0,0,0],"split_type":[0,0,0,0,0,0,0,0,0,0,0,0,0,0,0,0,0,0,0,0,0,0,0,0,0,0,0,0,0,0,0,0,0,0,0,0,0,0,0,0,0,0,0,0,0,0,0,0,0,0,0,0,0,0,0,0,0,0,0,0,0,0,0,0,0,0,0,0,0,0,0,0,0,0,0,0,0,0,0,0,0,0,0,0,0,0,0,0,0,0,0],"sum_hessian":[9.5775586E2,3.7130917E2,5.864467E2,1.0976063E2,2.6154855E2,2.2877083E2,3.576759E2,4.2549248E1,6.721138E1,1.6322911E2,9.831944E1,1.722972E2,5.6473625E1,2.1885995E2,1.3881593E2,2.3862959E1,1.868629E1,5.6552372E1,1.0659005E1,6.743255E0,1.5648586E2,6.554553E0,9.1764885E1,5.41748E1,1.181224E2,3.9662415E1,1.6811213E1,6.623687E1,1.526231E2,7.5543323E0,1.312616E2,7.3361106E0,1.6526848E1,6.1297565E0,1.2556535E1,4.6787506E1,9.764864E0,7.291159E1,8.357426E1,7.022198E1,2.1542906E1,8.389928E0,4.5784874E1,3.664209E1,8.148031E1,2.7366205E1,1.2296207E1,6.0220933E0,1.0789118E1,3.297637E1,3.3260498E1,1.5068552E1,1.3755453E2,1.1624036E2,1.5021246E1,7.8011456E0,8.725702E0,6.125574E0,6.430961E0,9.561792E0,3.7225716E1,7.347708E0,6.556388E1,5.498955E1,2.858471E1,1.8115719E1,5.2106262E1,1.3328162E1,8.214744E0,3.806339E1,7.721486E0,2.3016417E1,1.3625672E1,1.5741035E1,6.573927E1,1.5055249E1,1.2310956E1,6.213112E0,6.0830956E0,1.6411106E1,1.6565266E1,1.5244545E1,1.8015953E1,9.048562E0,6.01999E0,1.0426673E2,3.3287807E1,1.0837535E2,7.8650055E0,6.6096497E0,8.411596E0],"tree_param":{"num_deleted":"0","num_feature":"55","num_nodes":"91","size_leaf_vector":"1"}},{"base_weights":[-1.5735963E-3,-4.7312528E-1,5.6498736E-1,-5.3582218E-2,-7.326826E-1,9.458886E-1,1.8097298E-1,-3.4495223E-1,3.1829104E-1,-4.866696E-1,-1.0523196E0,1.1826425E-1,1.0392624E0,6.010539E-1,-1.3688281E-1,6.2222743E-1,-6.106388E-1,1.4062389E0,2.2287913E-2,-3.3132783E-1,-1.183087E0,-1.262025E0,-3.9368078E-1,8.006314E-1,-2.3769476E-2,7.872181E-1,1.2984694E0,9.2275065E-1,1.9223334E-2,-2.7378622E-1,3.8356163E-2,-1.2654425E-2,1.1517749E0,-8.299374E-1,2.089098E-1,5.203793E-2,2.5002835E-2,-7.568961E-1,3.2503217E-1,-6.8695676E-1,4.276167E-2,-1.4939548E0,-8.269461E-3,-1.3220576E0,-1.0099668E-2,2.0907947E-1,-1.2350681E0,7.4397684E-3,3.843241E-2,1.1476933E0,3.0075583E-1,1.4276887E0,9.44926E-1,-3.8526938E-3,1.0991467E0,-2.5939355E-2,4.695525E-1,-1.3406649E-1,-1.2231581E0,5.1280905E-2,1.089349E-2,-3.0864334E-2,3.4826207E-3,3.3759702E-2,-1.5772784E-2,-5.549308E-3,-5.883088E-2,1.9274827E-2,-1.4329342E-2,1.5664304E-2,-2.7655162E-2,1.4491383E-2,-3.738303E-2,-2.6117304E-2,-5.212297E-2,-4.6459164E-2,-3.1174554E-2,-3.202326E-2,2.7906595E-2,-5.1627886E-2,-1.8079704E-2,1.45982765E-2,4.0323414E-2,-1.0018271E-2,2.3974782E-2,4.571703E-2,2.4852207E-2,-0E0,4.1561138E-2,1.6481923E-2,4.1632228E-2,-1.3471468E-2,3.0797234E-2,-8.408164E-3,3.2625377E-2,-1.0763875E-2,-5.6430846E-2],"categories":[],"categories_nodes":[],"categories_segments":[],"categories_sizes":[],"default_left":[1,1,0,1,0,0,1,0,0,0,0,1,0,0,0,0,1,0,0,0,0,0,0,0,0,0,1,0,0,0,0,0,0,1,0,0,0,0,1,0,0,0,0,0,0,0,0,0,0,0,0,0,0,0,0,0,0,0,0,0,0,0,0,0,0,0,0,0,0,0,0,0,0,0,0,0,0,0,0,0,0,0,0,0,0,0,0,0,0,0,0,0,0,0,0,0,0],"id":12,"left_children":[1,3,5,7,9,11,13,15,17,19,21,23,25,27,29,31,33,35,37,39,41,43,45,47,-1,49,51,53,55,57,-1,-1,59,61,63,-1,-1,65,67,69,71,73,-1,75,-1,77,79,-1,-1,81,83,85,87,-1,89,-1,91,93,95,-1,-1,-1,-1,-1,-1,-1,-1,-1,-1,-1,-1,-1,-1,-1,-1,-1,-1,-1,-1,-1,-1,-1,-1,-1,-1,-1,-1,-1,-1,-1,-1,-1,-1,-1,-1,-1,-1],"loss_changes":[2.5814197E2,5.729209E1,6.3935196E1,2.1918068E1,2.5233154E1,1.6760208E1,2.9332642E1,2.926476E1,2.8245325E1,1.9624382E1,1.9103622E1,1.3870285E1,1.2344742E1,1.7521278E1,2.3413801E1,1.356923E1,1.621318E1,2.4713898E0,1.6449291E1,2.0268269E1,9.096584E0,5.6073914E0,1.7748259E1,2.9243374E0,0E0,1.7359592E1,3.7590027E0,1.1424461E1,1.3189764E1,1.4773826E1,0E0,0E0,6.19265E0,1.1636158E1,1.2219308E1,0E0,0E0,1.2465535E1,1.2095299E1,1.9737377E1,3.9495445E1,2.4519043E0,0E0,5.0502014E0,0E0,1.7611013E1,3.5758057E0,0E0,0E0,5.814659E0,1.3078629E1,1.8131409E0,1.0193073E1,0E0,6.9361725E0,0E0,1.1030464E1,1.6333351E1,7.121065E0,0E0,0E0,0E0,0E0,0E0,0E0,0E0,0E0,0E0,0E0,0E0,0E0,0E0,0E0,0E0,0E0,0E0,0E0,0E0,0E0,0E0,0E0,0E0,0E0,0E0,0E0,0E0,0E0,0E0,0E0,0E0,0E0,0E0,0E0,0E0,0E0,0E0,0E0],"parents":[2147483647,0,0,1,1,2,2,3,3,4,4,5,5,6,6,7,7,8,8,9,9,10,10,11,11,12,12,13,13,14,14,15,15,16,16,17,17,18,18,19,19,20,20,21,21,22,22,23,23,25,25,26,26,27,27,28,28,29,29,32,32,33,33,34,34,37,37,38,38,39,39,40,40,41,41,43,43,45,45,46,46,49,49,50,50,51,51,52,52,54,54,56,56,57,57,58,58],"right_children":[2,4,6,8,10,12,14,16,18,20,22,24,26,28,30,32,34,36,38,40,42,44,46,48,-1,50,52,54,56,58,-1,-1,60,62,64,-1,-1,66,68,70,72,74,-1,76,-1,78,80,-1,-1,82,84,86,88,-1,90,-1,92,94,96,-1,-1,-1,-1,-1,-1,-1,-1,-1,-1,-1,-1,-1,-1,-1,-1,-1,-1,-1,-1,-1,-1,-1,-1,-1,-1,-1,-1,-1,-1,-1,-1,-1,-1,-1,-1,-1,-1],"split_conditions":[1.6841266E0,9.7842395E-1,5.216347E-1,1.4874089E0,8.114055E0,3.3974183E0,7.4243517E0,3.371193E-1,1.2470853E0,1.1680931E0,1.245819E0,7.7269382E0,1.9937707E0,8.358685E0,1.9561982E0,1.1536247E1,5.241002E0,8.666225E-1,2.2413623E0,1.4616753E0,2.946163E0,1.261134E1,1.0264469E1,9.263166E0,-2.3769476E-2,9.454164E0,1.2050939E1,8.347187E0,8.824018E0,1.0218223E1,3.8356163E-2,-1.2654425E-2,3.3850703E0,1.1201314E1,9.48678E0,5.203793E-2,2.5002835E-2,1.499416E0,1.3617392E0,1.1267642E0,1.3752189E0,1.2763976E0,-8.269461E-3,1.0344642E0,-1.0099668E-2,9.724448E0,1.09550705E1,7.4397684E-3,3.843241E-2,7.0877585E0,1.1501517E1,1.3751667E1,7.142816E0,-3.8526938E-3,7.0721903E0,-2.5939355E-2,4.597081E0,9.933221E0,1.1674616E0,5.1280905E-2,1.089349E-2,-3.0864334E-2,3.4826207E-3,3.3759702E-2,-1.5772784E-2,-5.549308E-3,-5.883088E-2,1.9274827E-2,-1.4329342E-2,1.5664304E-2,-2.7655162E-2,1.4491383E-2,-3.738303E-2,-2.6117304E-2,-5.212297E-2,-4.6459164E-2,-3.1174554E-2,-3.202326E-2,2.7906595E-2,-5.1627886E-2,-1.8079704E-2,1.45982765E-2,4.0323414E-2,-1.0018271E-2,2.3974782E-2,4.571703E-2,2.4852207E-2,-0E0,4.1561138E-2,1.6481923E-2,4.1632228E-2,-1.3471468E-2,3.0797234E-2,-8.408164E-3,3.2625377E-2,-1.0763875E-2,-5.6430846E-2],"split_indices":[14,53,17,14,46,1,46,7,18,17,48,46,33,22,37,11,27,7,0,8,0,36,36,3,0,35,30,3,40,2,0,0,34,10,35,0,0,33,48,26,24,39,0,17,0,11,47,0,0,46,52,52,1,0,46,0,34,22,38,0,0,0,0,0,0,0,0,0,0,0,0,0,0,0,0,0,0,0,0,0,0,0,0,0,0,0,0,0,0,0,0,0,0,0,0,0,0],"split_type":[0,0,0,0,0,0,0,0,0,0,0,0,0,0,0,0,0,0,0,0,0,0,0,0,0,0,0,0,0,0,0,0,0,0,0,0,0,0,0,0,0,0,0,0,0,0,0,0,0,0,0,0,0,0,0,0,0,0,0,0,0,0,0,0,0,0,0,0,0,0,0,0,0,0,0,0,0,0,0,0,0,0,0,0,0,0,0,0,0,0,0,0,0,0,0,0,0],"sum_hessian":[9.659921E2,5.2739795E2,4.385942E2,2.0192729E2,3.2547064E2,2.198272E2,2.1876701E2,1.13512115E2,8.841517E1,1.8447336E2,1.409973E2,2.252922E1,1.9729797E2,9.443E1,1.2433701E2,2.4263021E1,8.92491E1,1.8649101E1,6.976607E1,1.5123932E2,3.3234047E1,1.0661978E2,3.437751E1,1.2879622E1,9.649597E0,1.0071936E2,9.657861E1,6.0539494E1,3.389051E1,1.1336491E2,1.0972108E1,8.113123E0,1.6149899E1,7.059076E1,1.8658339E1,1.2236069E1,6.413033E0,1.9280994E1,5.0485073E1,7.772788E1,7.351143E1,2.4576046E1,8.658003E0,9.993071E1,6.6890726E0,1.9964437E1,1.4413074E1,6.013273E0,6.86635E0,5.7505585E1,4.3213776E1,6.999002E1,2.6588593E1,8.574146E0,5.1965347E1,1.1447345E1,2.2443165E1,9.914965E1,1.4215257E1,9.589493E0,6.560405E0,5.9883644E1,1.0707115E1,8.449143E0,1.0209195E1,1.3077682E1,6.2033134E0,3.6773483E1,1.3711593E1,1.1469356E1,6.625853E1,5.502818E1,1.8483248E1,6.167452E0,1.8408594E1,6.178597E1,3.814474E1,7.024992E0,1.29394455E1,8.2634535E0,6.14962E0,1.1424286E1,4.60813E1,1.8544353E1,2.466942E1,6.3737938E1,6.252085E0,8.011495E0,1.8577099E1,1.6417673E1,3.5547676E1,8.154884E0,1.42882805E1,8.9065285E1,1.0084361E1,6.0609775E0,8.15428E0],"tree_param":{"num_deleted":"0","num_feature":"55","num_nodes":"97","size_leaf_vector":"1"}}]},"name":"gbtree"},"learner_model_param":{"base_score":"[5.000021E-1]","boost_from_average":"1","num_class":"0","num_feature":"55","num_target":"1"},"objective":{"name":"binary:logistic","reg_loss_param":{"scale_pos_weight":"2.37310004"}}},"version":[3,2,0]}